//<![CDATA[

// a few things don't have var in front of them - they update already existing variables the game needs
lanesSide = 3;
patchesAhead = 6;
patchesBehind = 8;
trainIterations = 30000;

// the number of other autonomous vehicles controlled by your network
otherAgents = 9; // max of 10

var num_inputs = (lanesSide * 2 + 1) * (patchesAhead + patchesBehind);
var num_actions = 5;
var temporal_window = 1;
var network_size = num_inputs * temporal_window + num_actions * temporal_window + num_inputs;

var layer_defs = [];
    layer_defs.push({
    type: 'input',
    out_sx: 1,
    out_sy: 1,
    out_depth: network_size
});
layer_defs.push({type:'fc', num_neurons: 12, activation:'relu'});
layer_defs.push({type:'fc', num_neurons: 12, activation:'relu'});
layer_defs.push({type:'fc', num_neurons: 12, activation:'relu'});
layer_defs.push({
    type: 'regression',
    num_neurons: num_actions
});

var tdtrainer_options = {
    learning_rate: 0.001,
    momentum: 0.15,
    batch_size: 128,
    l2_decay: 0.2
};

var opt = {};
opt.temporal_window = temporal_window;
opt.experience_size = 3000;
opt.start_learn_threshold = 500;
opt.gamma = 0.7;
opt.learning_steps_total = 20000;
opt.learning_steps_burnin = 2000;
opt.epsilon_min = 0.0;
opt.epsilon_test_time = 0.0;
opt.layer_defs = layer_defs;
opt.tdtrainer_options = tdtrainer_options;

brain = new deepqlearn.Brain(num_inputs, num_actions, opt);

learn = function (state, lastReward) {
brain.backward(lastReward);
var action = brain.forward(state);

draw_net();
draw_stats();

return action;
}
/*###########*/
if (brain) {
brain.value_net.fromJSON({"layers":[{"out_depth":201,"out_sx":1,"out_sy":1,"layer_type":"input"},{"out_depth":12,"out_sx":1,"out_sy":1,"layer_type":"fc","num_inputs":201,"l1_decay_mul":0,"l2_decay_mul":1,"filters":[{"sx":1,"sy":1,"depth":201,"w":{"0":0.002666051460817171,"1":-0.023860919509229795,"2":-0.06602472117498931,"3":0.004507380032451965,"4":-0.047554671707931734,"5":0.05951840266413325,"6":-0.025820698564771524,"7":0.04845705393248291,"8":-0.006878967829269629,"9":0.11075640092295629,"10":-0.05045959375977709,"11":0.013965288738249142,"12":0.06924570198977306,"13":-0.012429909515388866,"14":0.02026061834527887,"15":-0.047098187595252375,"16":0.002043543828984682,"17":-0.06665639808365534,"18":-0.042644262814261154,"19":-0.03896525187325113,"20":-0.003558799665387864,"21":-0.11506913790405521,"22":-0.19125980791201594,"23":-0.07672419579884032,"24":0.05014229261825685,"25":0.03122381343476628,"26":0.04173387280275489,"27":0.018668545258547588,"28":0.12179521363010908,"29":0.11656463057459654,"30":-0.06430282167828351,"31":0.1689763402182681,"32":0.10971342609087241,"33":0.016243157548907955,"34":0.1427914825606969,"35":0.09331116624878211,"36":-0.0072568724855337765,"37":-0.04184411507029259,"38":-0.03276436868096804,"39":0.021992202094720723,"40":-0.04335695305764438,"41":0.12015689576297527,"42":-0.12277602533201072,"43":0.02099708784890259,"44":0.058562804108682795,"45":-0.0026775349678133742,"46":-0.07167385136715487,"47":0.05658001159573652,"48":0.018661032865258335,"49":-0.0563944852232794,"50":0.027835971399729133,"51":0.0042721319195771785,"52":0.0755333960283677,"53":0.13480299425061992,"54":-0.008853926803228258,"55":0.04059213694342182,"56":-0.08101484778243052,"57":-0.04839846183596091,"58":-0.05032636650122194,"59":-0.019465770892769938,"60":0.0005608887561719716,"61":-0.13871667343753305,"62":0.01223270181850738,"63":-0.0200689835682145,"64":0.02359633741267891,"65":0.06416055503142132,"66":0.057547723126369466,"67":0.13589131773747587,"68":0.017533697165949554,"69":-0.009605779494526834,"70":0.055858062933350994,"71":0.023408533021183963,"72":-0.04275674062354969,"73":0.07612378896957603,"74":0.05963764290187456,"75":-0.002767173354226417,"76":0.14079920234645255,"77":0.01202693128710736,"78":-0.05108107297457152,"79":-0.028543759059838428,"80":0.15618218519920524,"81":0.028935126483326495,"82":-0.07620721315291372,"83":-0.04993718669655547,"84":0.05194753718088162,"85":0.006149735705625127,"86":-0.11304513704158958,"87":-0.015600045628470413,"88":-0.1846143593045213,"89":-0.033275519991221233,"90":0.026364256944300214,"91":0.012429983520091798,"92":0.0563041053125345,"93":-0.05560139396854364,"94":0.07847088517126101,"95":0.010865425202918663,"96":0.10703305705849879,"97":0.004677723570865533,"98":-0.049568376419936284,"99":-0.1606474051073606,"100":0.05446439600939048,"101":-0.05002594447676092,"102":0.05465952446224984,"103":-0.015635170887444268,"104":-0.03814695754447554,"105":0.08058484790744573,"106":0.06710510166205207,"107":-0.1089084726858252,"108":0.033654876159274046,"109":0.019747810537435878,"110":-0.038685065825478204,"111":-0.023075902925160045,"112":0.021630800094116727,"113":0.10602378108184846,"114":-0.0061722979080257164,"115":0.04563417983494976,"116":0.04134619322151467,"117":0.0199952146043095,"118":0.16797430079914072,"119":0.02892804579394842,"120":-0.045207628551959624,"121":0.06538507256294149,"122":0.1120070565842497,"123":-0.018869477986743575,"124":-0.06330460261190739,"125":0.053476088359306936,"126":-0.006328939039768167,"127":-0.009585052835774915,"128":-0.09542370499906537,"129":-0.13815699006194568,"130":0.008620026387399109,"131":0.07502490035055373,"132":0.03120595707993203,"133":0.02461424796611148,"134":-0.09745492919371275,"135":-0.06548996911210428,"136":-0.007513208214815745,"137":-0.04736750535420916,"138":0.07618891118203384,"139":-0.05810530419066196,"140":-0.055134587090326356,"141":-0.020327951517865442,"142":-0.04018159866959476,"143":-0.013150491226369418,"144":0.013045925339641782,"145":0.12788919175156052,"146":-0.03298183060636289,"147":-0.0028473266273192402,"148":-0.023140380784915593,"149":-0.1332030972857087,"150":-0.017376163043218984,"151":0.0851155646967315,"152":0.09419858483565154,"153":-0.10464723403411266,"154":0.032808377755483994,"155":0.0027015556192228935,"156":-0.02830381984875826,"157":-0.021770923899884595,"158":0.012122736450936544,"159":0.1428217778864011,"160":-0.019464435498788155,"161":0.03569749160095618,"162":0.031094701424457888,"163":-0.040751236212497106,"164":-0.01716313159966567,"165":0.050016757499006186,"166":0.15539824680865647,"167":-0.037027184529299616,"168":-0.017872702249078883,"169":-0.06176835554796172,"170":-0.03089623854458971,"171":0.04959637596424615,"172":-0.11577700692256278,"173":-0.0680077689769741,"174":0.03614798987799231,"175":0.06617769087221616,"176":-0.11500994318411543,"177":0.010868120297582403,"178":-0.008180018244510697,"179":0.027040708442704283,"180":0.17567399645407267,"181":-0.001058763148939336,"182":-0.08932498903050101,"183":0.15408780832334507,"184":0.0035281153841700075,"185":0.042381959492774776,"186":-0.22526824371379797,"187":0.023223587347026658,"188":0.06040228088849175,"189":0.042547060703817405,"190":0.07071337411560294,"191":-0.007640751810553526,"192":0.041898695340285015,"193":-0.0008669767016317751,"194":0.14109386308244434,"195":0.0669772128399009,"196":-0.024383496501936643,"197":-0.13631446903916294,"198":0.025870208771417734,"199":-0.023473343101209288,"200":-0.06652821080976591}},{"sx":1,"sy":1,"depth":201,"w":{"0":0.019234929220896656,"1":-0.16804294429581904,"2":-0.09202469828363796,"3":0.13873666925924602,"4":0.02267790012633758,"5":0.09199200683699914,"6":-0.010549587953362971,"7":-0.016201226734847526,"8":-0.015607501127926547,"9":0.12174241016701165,"10":0.07383133517101799,"11":0.0035177852025612896,"12":-0.0033544976078311566,"13":0.0027003216902133434,"14":0.048859135928711314,"15":-0.0011258750564843124,"16":0.10046767208401204,"17":0.2515658522021153,"18":-0.021380566876915398,"19":-0.08568157021606217,"20":0.131495322588154,"21":0.044403993774358524,"22":-0.05315726139210135,"23":0.003493365688801405,"24":0.10328828658455114,"25":0.08302085386826079,"26":-0.00801624127755305,"27":-0.009721851445265918,"28":0.02101117522950172,"29":-0.006613717515105825,"30":0.025566365119584575,"31":0.02333877882164155,"32":0.09835808266962034,"33":0.01484986990371072,"34":0.014502120710537724,"35":0.0789577803091781,"36":0.012843949632716345,"37":-0.00023385833842761792,"38":0.09535329532332984,"39":-0.16958883520473425,"40":0.12505337087603263,"41":0.024404794745309013,"42":-0.11733993014750292,"43":0.0524783635558883,"44":-0.02958030468273223,"45":0.022871957887081316,"46":0.09142047075278129,"47":-0.04088916678827161,"48":-0.03454408692720923,"49":0.03038675180146772,"50":0.028587951227896022,"51":0.045486942002305464,"52":0.035239659044950626,"53":-0.021740228830534798,"54":0.005888595946966397,"55":0.05684017769912104,"56":0.07499563035042318,"57":0.01698659983728436,"58":-0.0378260437518396,"59":0.060361550952586995,"60":0.031129790629026682,"61":0.027010224864908002,"62":0.05031688529598193,"63":0.037789780605960464,"64":0.13623150845092563,"65":0.006480918888569173,"66":-0.013645955279014205,"67":-0.10213028414988659,"68":-0.014320302242728112,"69":0.005671028413034218,"70":0.01620052756834042,"71":-0.024379498851780673,"72":0.027819258591135095,"73":-0.027308866691126348,"74":-0.07667834301012608,"75":0.018882274666730852,"76":0.06761082689801615,"77":0.03592014309836531,"78":-0.08842828724125414,"79":0.014033106598674745,"80":0.07935961572409754,"81":-0.09480560713964047,"82":-0.09782488238102503,"83":0.020984610092547783,"84":0.0725099319946333,"85":-0.012690462821168315,"86":0.052157977374598465,"87":0.1228208737745743,"88":0.031774322301197616,"89":0.015367961931687046,"90":0.04831175650148856,"91":-0.0815611695027484,"92":-0.04288299264007971,"93":0.1802370399216947,"94":0.15615224689797963,"95":-0.033646728194184294,"96":-0.010993569834135502,"97":0.04319879307120697,"98":-0.08616725648793067,"99":0.032644216865544126,"100":0.03710248983503199,"101":0.03312262919016319,"102":0.1358126331418428,"103":0.06527961242740132,"104":0.054662956349765555,"105":-0.03363086471156887,"106":-0.02447837259299161,"107":-0.03678074268599645,"108":0.07280113669814585,"109":0.005963287598254667,"110":0.05889050412363198,"111":0.008164259770755343,"112":-0.07551161761685894,"113":0.06462536842887481,"114":-0.04419606888340803,"115":-0.027508514051908427,"116":-0.02427238614235008,"117":-0.06493245417679103,"118":-0.031129862704807647,"119":-0.14732406475674237,"120":0.030280096207156208,"121":0.008490091767055133,"122":0.05523058610905699,"123":0.11148771196045275,"124":0.006109555152538225,"125":-0.11099939950533215,"126":-0.02357192887611734,"127":-0.07005147842948295,"128":-0.02607651446358797,"129":0.02162244279919967,"130":0.0766228568829349,"131":-0.005910062227126945,"132":0.05415052464918045,"133":0.04336639486227501,"134":-0.06127231015612137,"135":0.03715918601680646,"136":-0.021419741212447777,"137":0.04494421734886558,"138":-0.11407657551376377,"139":0.06924537799249615,"140":0.03208614920595762,"141":0.02007288224039202,"142":-0.06922371915703132,"143":0.0861001703580717,"144":-0.0861666069287648,"145":0.007255865585219225,"146":0.0693622991911343,"147":-0.16656353093413026,"148":0.0852924519209298,"149":-0.0004910675957347414,"150":-0.07760417084099892,"151":0.05956583893978528,"152":0.06807619267851452,"153":-0.1334411863071721,"154":-0.031919003782168213,"155":0.024177287486756103,"156":-0.06451778644515031,"157":0.0078739328907913,"158":-0.05572260065100686,"159":0.058803207804299346,"160":-0.09422590929255159,"161":0.0926643780091569,"162":-0.14150066346522902,"163":0.0640334615404615,"164":0.046627921402341614,"165":-0.003732509213542469,"166":0.06524263385838744,"167":0.019619799318207183,"168":0.10584308478634588,"169":0.10406798097396898,"170":-0.04033454750273052,"171":0.07689683487963013,"172":0.025684701697720105,"173":0.05524552365206117,"174":-0.020632333756279327,"175":0.04202215375632864,"176":-0.0010755297578924296,"177":0.005787220706561882,"178":-0.034404568245652314,"179":0.0252542360486151,"180":0.023110684195887837,"181":-0.04402365038876869,"182":-0.049363527404046,"183":0.014599791227440208,"184":0.022302340535320236,"185":-0.09753050130637261,"186":0.03776232148707458,"187":-0.005767779404106439,"188":-0.044546041850754656,"189":-0.0606820812568105,"190":0.035064305942772184,"191":0.023472260012235055,"192":-0.060335745097105584,"193":-0.029624306544440215,"194":0.040596539741548074,"195":-0.043633044407903276,"196":-0.14432428551431872,"197":-0.028207920219534912,"198":0.086855936989566,"199":-0.02120578261638213,"200":0.05077673979543684}},{"sx":1,"sy":1,"depth":201,"w":{"0":0.07210802743410354,"1":0.038832503196165866,"2":0.1440100529928861,"3":0.8207105461222047,"4":0.2254049021011987,"5":-0.05673404185308557,"6":-0.05938474738805426,"7":0.07367966355659131,"8":0.08664413128290455,"9":0.07694570591313951,"10":1.0176761296436017,"11":0.18861753809143772,"12":0.05063778764892814,"13":0.016144034878187524,"14":0.025737388122322267,"15":0.018471955552405304,"16":0.2141237193919508,"17":1.0983177380719704,"18":0.1144723536088783,"19":-0.014224387547955268,"20":0.0604291518447246,"21":-0.032271560797016374,"22":-0.02043307629397375,"23":0.1332024449837973,"24":0.7762365299816504,"25":0.20996101118364768,"26":-0.01624003764772981,"27":-0.09663595146208787,"28":-0.008467785317702405,"29":0.017819110949025826,"30":0.16599217963899024,"31":0.790628530746983,"32":0.1045809102171701,"33":0.020941436180698315,"34":0.03268970685477951,"35":0.11372540796190848,"36":-0.03025643047094848,"37":0.01042324148809058,"38":0.40201667480463915,"39":-0.08166633714745455,"40":-0.01619218124698188,"41":-0.019022206235694672,"42":-0.021709445298281494,"43":-0.04802866820494442,"44":-0.009183488060909857,"45":-0.08787127766823567,"46":0.07866172210434264,"47":0.022586515799597123,"48":-0.022849981235737477,"49":0.045015380309133504,"50":0.049400771804388406,"51":-0.018135269194207288,"52":0.0051498447702821104,"53":0.013830359380901996,"54":0.0016956556286353737,"55":0.024552200334911494,"56":-0.028640345721448177,"57":-0.09506890934820066,"58":-0.0010252517908030737,"59":-0.16321818297399945,"60":0.07641178119614807,"61":0.030970028651574666,"62":0.041556880158473884,"63":0.003473772840667751,"64":-0.04575384483970927,"65":0.09998062940221572,"66":-0.2572219586366415,"67":0.01673903336871906,"68":-0.04848705099989164,"69":0.057713882626475796,"70":0.06312610838123171,"71":0.0316174388877519,"72":-0.20370959146101592,"73":0.0031007803656983406,"74":-0.0338355521793337,"75":-0.0262236987678414,"76":0.033231310666505365,"77":0.030464076899340168,"78":-0.17547025673537722,"79":-0.18497444162415108,"80":0.14187060960593315,"81":-0.13158884113372926,"82":0.10996544647369337,"83":-0.04837957838760812,"84":-0.1184486422087775,"85":0.02958306128373179,"86":-0.12946407614691705,"87":0.20540636214925354,"88":-0.03635663503398837,"89":0.09240082265981932,"90":-0.039400307664996845,"91":0.003200874098508394,"92":0.0009483923024014575,"93":0.047993281811407607,"94":0.4146982134335008,"95":0.14740422546654242,"96":-0.08383708360388158,"97":-0.11811054691880057,"98":0.022018259074329215,"99":-0.036006730909451695,"100":-0.011230851606479632,"101":0.014121803203613276,"102":0.06377972410793216,"103":0.026377631292683865,"104":0.05050399392677733,"105":0.005312307387240992,"106":0.1541828914855888,"107":-0.041424015010310566,"108":0.20180255621324564,"109":0.1172081097003369,"110":-0.09272812766015752,"111":0.06787437314904086,"112":0.09223529233423525,"113":-0.1080732117251518,"114":-0.00024552135182918336,"115":0.2988235084857881,"116":0.0968830603674634,"117":-0.03549249429352262,"118":-0.05522734355903502,"119":-0.03227315427479177,"120":0.09644331746587302,"121":0.10900761555282869,"122":0.34207505833283486,"123":0.012949823828862107,"124":0.11597886727613176,"125":-0.11234307037853052,"126":-0.09313936141664303,"127":0.08708485487804128,"128":-0.03931249145132359,"129":0.38908549884818333,"130":0.04229779649080547,"131":-0.00006358387647749989,"132":0.1382619617504674,"133":0.04173707334280477,"134":-0.0032399892224426728,"135":-0.027160698934487113,"136":0.19700110984912758,"137":-0.09060139702471293,"138":0.004331888657883444,"139":0.04168786565443019,"140":-0.034352920754133064,"141":-0.0903848611847332,"142":0.07355785951731225,"143":-0.12954133693779518,"144":0.07645019252885016,"145":0.003508794965907269,"146":-0.029005667062678632,"147":-0.03877088392851992,"148":0.037432546675812306,"149":0.1084718317569905,"150":-0.03594232201053627,"151":-0.01633582743664499,"152":-0.022301369568084164,"153":-0.05355662897308339,"154":0.052478599995811386,"155":-0.11131810597197064,"156":-0.14587346482331434,"157":-0.04079353744787589,"158":-0.02948461414371673,"159":-0.012911715699873576,"160":0.012309460289311845,"161":-0.06099265975387283,"162":0.011556028534708518,"163":-0.0407293643478865,"164":0.046160492196277415,"165":-0.01836080234417869,"166":-0.029232474673390244,"167":-0.035863723377042925,"168":0.042900528302200557,"169":-0.043228039754757,"170":-0.16435781096378754,"171":0.004690431662759323,"172":-0.07962246591520908,"173":0.10146400429421028,"174":-0.04627282648573463,"175":0.011477986842626988,"176":-0.11957171420635312,"177":-0.0386344414509822,"178":0.11406181473435943,"179":-0.16509280034644186,"180":-0.02210769082337087,"181":-0.028718375629466674,"182":0.08528577734335861,"183":-0.025922704530917894,"184":-0.015707304275405152,"185":0.08771987081021869,"186":-0.13348644388574457,"187":0.13414200152343447,"188":-0.021226849856714348,"189":0.09163420305639217,"190":-0.04263619080412817,"191":0.04945116273534515,"192":0.17932477151088813,"193":0.041933452870921366,"194":-0.027389607548339308,"195":-0.00920661312627575,"196":-0.05386996243056931,"197":-0.02359579754507459,"198":-0.035632851472138315,"199":0.07498681969913526,"200":0.06956784207704406}},{"sx":1,"sy":1,"depth":201,"w":{"0":0.05335000272817777,"1":0.021715682043746163,"2":0.022172201928296713,"3":0.09276281311541378,"4":0.00033048935837455686,"5":0.017894989401612316,"6":0.06882209331650485,"7":-0.07901300405879108,"8":0.07731044614486104,"9":-0.0045515539850266564,"10":0.19033976161422322,"11":-0.014404749739032089,"12":0.07717078953237452,"13":-0.06468149176361962,"14":-0.06646234366289558,"15":-0.06939929717789635,"16":0.05960613240961364,"17":0.10766518431392386,"18":0.0008473767927697552,"19":0.031273236308241505,"20":0.07292067602489702,"21":0.0046806736914842065,"22":0.07877415623284639,"23":0.07457475965965742,"24":0.06728479070510994,"25":0.014287436688554296,"26":-0.0009116650904113988,"27":-0.0012796212802673329,"28":0.022094674465279053,"29":0.14354758083272157,"30":-0.0390722029790083,"31":0.1323845625256035,"32":0.03219755420195571,"33":0.13360466128391812,"34":0.10399715209209766,"35":0.01454701031992182,"36":0.06241472499274479,"37":-0.07494930660748575,"38":-0.10535231741506416,"39":-0.02984700782300828,"40":-0.012490031139928375,"41":0.07325261814488632,"42":-0.11075141762747942,"43":-0.03848224011361221,"44":-0.05375557083509069,"45":0.09855831922182444,"46":-0.0515304795187801,"47":-0.04045770036610022,"48":-0.003031419748267747,"49":0.00010131290015529352,"50":-0.056329551711865496,"51":0.06689008858977305,"52":-0.052177785010440854,"53":-0.0019644764041133883,"54":-0.03822969608619092,"55":0.07870770341649994,"56":-0.03536440241853183,"57":0.056547921545985154,"58":0.0567308928236503,"59":0.10120671097397418,"60":-0.047196577992398125,"61":-0.05527215491785254,"62":-0.026109812596594763,"63":-0.12784252583405195,"64":-0.00875514968601872,"65":-0.0994129838730257,"66":0.012804088822303872,"67":-0.08222975972871849,"68":0.046715813980711084,"69":0.018318933361027436,"70":0.061344519562908324,"71":-0.046279659786081395,"72":-0.005788088514947567,"73":0.11280824849843149,"74":-0.04800018361389817,"75":0.07364930175340383,"76":-0.016245783907311642,"77":0.06989646878738996,"78":0.005160547055914342,"79":-0.046997858266150175,"80":0.11815441953860822,"81":-0.06500421258655222,"82":-0.05047887671379714,"83":-0.022351110161985405,"84":-0.05632103900685219,"85":0.011106359917152288,"86":0.005850200754090808,"87":0.08472946535170904,"88":0.008228618249326648,"89":0.18003874765567898,"90":0.09829709622907605,"91":-0.0016790970578370004,"92":-0.05717203267865637,"93":0.1343355234625351,"94":-0.0034070097317835868,"95":-0.16272638805911693,"96":-0.07507351621171537,"97":0.011311766608058237,"98":-0.1939135816645823,"99":-0.05999057025369328,"100":-0.002112382998687006,"101":0.02065377160883067,"102":0.03937819920237848,"103":-0.0471791132787782,"104":-0.0084143666688757,"105":0.005741408565690509,"106":-0.05819042190512505,"107":0.06721928285686256,"108":0.005343601950165334,"109":0.08208535272872222,"110":-0.03190784544981178,"111":-0.08839853722077674,"112":0.07638491428244484,"113":0.009578280323677864,"114":-0.058467724623632526,"115":0.18333953651406798,"116":-0.0655334459782409,"117":0.0028594757085744333,"118":-0.1642466163476968,"119":0.04549545006464456,"120":-0.006401668175253555,"121":0.018498183503600857,"122":-0.041589812239369084,"123":0.10456070030345785,"124":0.05238606219281005,"125":-0.027237839293379452,"126":0.024402350070283973,"127":-0.03641728096340852,"128":-0.015079837366899846,"129":0.0472250798532839,"130":-0.06553157165551818,"131":-0.09184449852579572,"132":-0.16761477081121826,"133":-0.031189550166549507,"134":0.091345222042633,"135":-0.003733294109854094,"136":0.02284318596100591,"137":0.02468409591813582,"138":0.05912131537513697,"139":-0.024351493492623357,"140":0.06142386199212035,"141":-0.08552536801777477,"142":-0.08115086967744634,"143":0.022499876203011103,"144":0.11613062414648553,"145":0.0063176516502976045,"146":-0.05637178989471709,"147":0.06887587270259451,"148":0.030054756596182137,"149":-0.032881083833117816,"150":-0.09715676100593665,"151":-0.06065616270730138,"152":0.0011419169450822843,"153":0.0821418802817347,"154":-0.13451395271020025,"155":-0.014716011153351931,"156":-0.004173379702254441,"157":-0.13541713554986498,"158":0.030543980667807332,"159":0.02173176973393524,"160":0.02705741908265983,"161":-0.045472082267372024,"162":0.006031582974921773,"163":-0.033117948030862376,"164":0.1368685363614671,"165":-0.13679952010418497,"166":-0.04133964395839685,"167":-0.008045378916356141,"168":-0.0485665044123846,"169":-0.13292550500318218,"170":0.008997313301159668,"171":-0.015122558767044544,"172":0.006640059658650924,"173":0.04412147183917658,"174":0.077333357695716,"175":-0.05441975140739259,"176":0.08644574396439793,"177":-0.07689173542027294,"178":-0.14297171989498061,"179":0.004244895667584749,"180":0.04626992479109241,"181":0.0881580667856927,"182":0.07770930009862308,"183":0.04803549504169078,"184":-0.03544410148427638,"185":0.0496121909125072,"186":0.06522189374730508,"187":0.0011414259860038605,"188":-0.008724163069297103,"189":-0.08920488968582269,"190":-0.05630523491632987,"191":0.021184910448801348,"192":-0.017821571978852827,"193":0.03468579963927479,"194":-0.06986129204619115,"195":-0.03561117464398833,"196":-0.07016705797537734,"197":-0.06134882205111288,"198":0.11999252406152063,"199":-0.039523441952692924,"200":-0.01300919670250807}},{"sx":1,"sy":1,"depth":201,"w":{"0":0.012774007875640135,"1":0.022300670458164237,"2":0.009823370214258404,"3":0.7319247750738854,"4":0.2384654408677164,"5":-0.021997212857565753,"6":-0.00016263844029935904,"7":-0.033705929008475695,"8":-0.05658501064604411,"9":0.2985282248252497,"10":0.8291021848373403,"11":0.11457797435612736,"12":-0.02284643865340441,"13":0.10706024530409879,"14":0.10261306334457294,"15":0.0594157955980832,"16":0.11009947638454383,"17":1.1058670532307935,"18":0.20208006653369812,"19":-0.013420191750643585,"20":-0.015495058578467252,"21":-0.137754100263815,"22":0.020721645128723338,"23":0.1924045260027394,"24":0.5969737626589471,"25":0.19957900965993836,"26":0.02962025052693516,"27":0.06563266261998243,"28":-0.00978199633540347,"29":-0.001263232759361721,"30":0.06343374373083972,"31":0.5841769362026671,"32":0.07576414752633559,"33":-0.05195142443289622,"34":-0.1057331139385168,"35":0.014309798092210136,"36":-0.07956598880661932,"37":-0.005181283598064177,"38":0.26500070705721074,"39":-0.02930796474551708,"40":0.1493513293188022,"41":-0.035156731402306574,"42":-0.01899010932663967,"43":0.007304521711113669,"44":-0.02655153981069229,"45":-0.12888018538675666,"46":0.03272879339769476,"47":-0.023707995782351072,"48":0.07151592240231149,"49":-0.08513823262987717,"50":0.010375918539582031,"51":-0.03160960481915719,"52":-0.08354338034941614,"53":0.04425706136563838,"54":0.011647160875151141,"55":-0.09259111003998989,"56":-0.004925780087350909,"57":0.04609416135419765,"58":-0.030182166301736056,"59":-0.04086074947087057,"60":-0.02524282177692993,"61":-0.010717658212041925,"62":-0.0049453006173737464,"63":-0.07610417441460315,"64":-0.05628476129037007,"65":-0.032202100165461114,"66":-0.12261063085093446,"67":-0.10643491085813823,"68":0.003271177359295397,"69":-0.012435426718326637,"70":-0.01616857500761133,"71":-0.08350687582214257,"72":-0.02132028879102003,"73":0.05363582210625021,"74":0.0066684356981137755,"75":-0.018255175299226694,"76":-0.1282247663394053,"77":-0.021747443518585468,"78":0.004751531045815338,"79":-0.12304677635361973,"80":0.19582626008452642,"81":-0.17326796428162217,"82":-0.027104241405430052,"83":-0.06491121325920261,"84":0.04353161206111005,"85":-0.0386542367428004,"86":-0.0067697246866738,"87":0.20504755779766637,"88":-0.03231725924522942,"89":-0.03474135581970303,"90":0.07834812830355976,"91":-0.029843997195076622,"92":0.0026550685884751627,"93":0.161830559534609,"94":0.34743631755167426,"95":0.1415585203030381,"96":0.04040566849338038,"97":0.031087957561967045,"98":0.032134642331484956,"99":-0.025289008776117113,"100":0.11622143620629939,"101":-0.03563712544374092,"102":0.06297618135149523,"103":-0.050625970626886785,"104":0.0782164548196417,"105":-0.05251928402480488,"106":-0.03615961776255263,"107":0.05222078744283475,"108":0.17851625352615497,"109":0.06966495176934764,"110":0.08180926964871797,"111":0.10018044426196557,"112":-0.004364575232945234,"113":0.013696570744329868,"114":0.2291278512764002,"115":0.41208266587714454,"116":0.12924896345226045,"117":-0.005492872575271559,"118":0.07047943259001316,"119":0.15385855962367548,"120":0.016988777734306678,"121":-0.06133890165780282,"122":0.17074045720209163,"123":-0.030461770969528762,"124":-0.05278493558060738,"125":-0.044874198542257146,"126":0.057978527557554935,"127":-0.03915793728534977,"128":0.087420531069886,"129":0.17584346955354002,"130":-0.03116557686547702,"131":-0.08762840958374081,"132":0.03684743810061124,"133":-0.16021568796575197,"134":-0.07223115395852227,"135":0.0017509359464081243,"136":0.15841756060203085,"137":-0.014883201147262408,"138":-0.1260318069764134,"139":0.02427292369390243,"140":-0.03157890514974223,"141":0.04203209502403161,"142":0.03537208126332816,"143":-0.0465260377507685,"144":0.07075096695263361,"145":0.11247594122742832,"146":-0.023942083097281228,"147":0.008375496270936322,"148":-0.035403196678597745,"149":0.008915395776029686,"150":-0.024091704268243988,"151":0.037819678542687106,"152":-0.10286003396586173,"153":-0.014340803550760468,"154":-0.012109268364433339,"155":-0.042993654926049646,"156":0.09965337578751143,"157":0.02002857220678059,"158":-0.04296489548958103,"159":-0.04002073694213136,"160":-0.019465365457952123,"161":-0.04599108221747483,"162":0.05692701554915042,"163":0.08444952112958559,"164":-0.04064466527378059,"165":0.09490729246173438,"166":-0.005991556771876745,"167":0.007598466820517986,"168":0.0357743860671081,"169":-0.04902314204543817,"170":-0.11487443826580751,"171":0.0030547301657840305,"172":-0.048373975486948745,"173":-0.023347525484048157,"174":-0.06693701674592996,"175":0.05194480690835238,"176":-0.012325008489222291,"177":-0.03696740958191693,"178":0.11368899008844208,"179":-0.11409584859973998,"180":0.08225317881250348,"181":-0.004006143538404218,"182":-0.07341990598386562,"183":-0.014337387157731403,"184":0.060328904933289525,"185":-0.00460497771032544,"186":-0.020972328266671492,"187":0.04577095488647976,"188":-0.08962809893034958,"189":-0.03283342388587416,"190":0.09971618731460546,"191":-0.025306046194947324,"192":0.21575160022659376,"193":0.08498397812581664,"194":-0.029157710371301344,"195":-0.04330404708605277,"196":-0.020070575132389138,"197":-0.04681758413104852,"198":-0.07554188025386772,"199":-0.011463462227381736,"200":-0.055922351297785514}},{"sx":1,"sy":1,"depth":201,"w":{"0":-0.014056693591342128,"1":-0.11081444819010307,"2":0.017253435920888432,"3":0.21089976165936777,"4":0.10318433575926378,"5":0.002868449225859228,"6":0.08226529559077815,"7":0.0732054069507823,"8":0.024642568356894573,"9":-0.013643564405440515,"10":0.40873695048519587,"11":0.013628739809615006,"12":-0.09611210936217635,"13":0.013732497327382697,"14":-0.024280099370465994,"15":-0.001533688149906715,"16":0.09618938106688245,"17":0.22552981622174068,"18":0.0741874610454669,"19":0.032213601296142015,"20":0.035821698380238805,"21":0.07602985696521751,"22":-0.01908569172652041,"23":0.12490820462230237,"24":0.19479856134456314,"25":0.11046400849661848,"26":-0.02009112086747061,"27":0.012958197026768052,"28":0.003211548108836089,"29":-0.027134050453856445,"30":0.1148932481914683,"31":0.34224074017699835,"32":-0.04874577933477372,"33":0.05331627539940157,"34":0.05200720500525881,"35":-0.08272670296368212,"36":0.007671659871332034,"37":-0.027477090141904838,"38":0.05914661301830633,"39":-0.02339588480540643,"40":0.05855348686155979,"41":-0.09603022794278619,"42":-0.0256373301040293,"43":-0.08791286389478666,"44":-0.009130888371131579,"45":0.02088952760490121,"46":0.07918780101974013,"47":-0.07222559213044845,"48":0.04445927585077146,"49":0.057334484310097245,"50":0.10482639910681951,"51":0.04710845258950349,"52":0.029192690014459982,"53":-0.0892443148251226,"54":0.024831499309752716,"55":0.09901170737206522,"56":0.031082090506945083,"57":-0.006969918608226439,"58":-0.0020131707566409087,"59":0.09862583102749925,"60":0.05862884332033746,"61":-0.07274505898876699,"62":-0.09643649164928245,"63":-0.03463623511103134,"64":0.02411743368119917,"65":-0.06522313844752563,"66":0.0110069825546837,"67":-0.12041349145631867,"68":-0.08842800178350449,"69":0.034284913997165024,"70":-0.05280226063563439,"71":0.03880210526095061,"72":-0.05613046324400502,"73":0.09663596754507356,"74":-0.08839812254579119,"75":0.024019364630576537,"76":0.02866126686592418,"77":0.10172622997502331,"78":-0.047282877496059986,"79":0.10890944452995718,"80":0.026329350427907346,"81":-0.014080457623656372,"82":0.07580649239695741,"83":0.12521370341556776,"84":-0.06164417246418132,"85":0.06774871575112137,"86":0.17342379552905574,"87":0.1666886100980039,"88":-0.018490223289739288,"89":0.026376202788982898,"90":-0.11752047247949979,"91":0.15530354628390394,"92":-0.08754015189515589,"93":-0.015654635898365223,"94":0.16972543300470547,"95":-0.0023537368410642685,"96":0.05521571490330888,"97":0.07388028513536951,"98":0.04196984107915722,"99":0.002389355417828841,"100":0.08037121019758284,"101":-0.02386283124619725,"102":0.09923027892761031,"103":0.030217610306140022,"104":-0.001011018668743054,"105":-0.08567342422067456,"106":-0.04626296323611444,"107":0.002015418556044047,"108":0.11736016059597457,"109":-0.07557895407021328,"110":-0.03710326502970519,"111":-0.04987903421606752,"112":0.0025797361009180083,"113":-0.1594490610313855,"114":-0.09905956459926735,"115":0.1788660955102449,"116":-0.047608048818014045,"117":0.0499389944542422,"118":0.04914266579625779,"119":0.08708659143645438,"120":-0.000505970198291299,"121":-0.008906058479907126,"122":0.11250418704859497,"123":-0.027930774137539992,"124":-0.07699674243843349,"125":-0.11387501229842326,"126":-0.07106336192099766,"127":0.1165764324320609,"128":-0.050426731688789736,"129":0.06707432517614464,"130":-0.02516696737339113,"131":0.08732875255716392,"132":0.0019457602664421556,"133":-0.04346757613200239,"134":-0.03187666696793098,"135":0.05575088298508172,"136":0.1199367993110963,"137":-0.07103401887129603,"138":-0.11811377294068537,"139":0.07502818540753448,"140":0.062281785124431124,"141":-0.01918925704992205,"142":-0.06413828203054722,"143":0.10118050740511,"144":-0.11926555043346562,"145":-0.024466517551416364,"146":-0.028972678418328575,"147":0.02450080855799602,"148":-0.06454102609627836,"149":-0.0850788158958381,"150":0.019898409979143352,"151":0.11556419096484938,"152":-0.015109048996264626,"153":0.08155769574934124,"154":-0.05665782133862731,"155":-0.05024278178437402,"156":-0.026352195924637622,"157":-0.03374886522036702,"158":0.01470747272802024,"159":-0.02816670950121343,"160":0.02514965369186883,"161":-0.06043274807215336,"162":-0.016818856724612943,"163":0.016945421123271222,"164":0.07225869401434469,"165":-0.01075820807535336,"166":-0.018233811027405674,"167":0.00973933463319157,"168":-0.10830035322230759,"169":0.01774939208846334,"170":0.0164841181027882,"171":0.06743743800419515,"172":-0.09218752189576779,"173":0.014803198875215594,"174":-0.0037653139444437794,"175":0.029419212163398756,"176":-0.09287916869935017,"177":-0.09319441530500516,"178":0.08483638385168621,"179":-0.044175824074145914,"180":0.033078746618569854,"181":0.003115502249558045,"182":0.07386620965421231,"183":-0.05941421246212112,"184":0.013275079589989285,"185":0.04347165306056285,"186":-0.11548232572819234,"187":-0.06509767976785312,"188":0.007505142856319882,"189":-0.05632156696148527,"190":0.09977238396671075,"191":0.10473366231592397,"192":0.07020134887412659,"193":-0.06700969192578138,"194":0.041202851309432735,"195":0.0783409715839451,"196":0.08505236026916932,"197":-0.10694613113232199,"198":0.08530214132835891,"199":-0.03095984188039839,"200":-0.04509925371797689}},{"sx":1,"sy":1,"depth":201,"w":{"0":-0.05881508217442701,"1":-0.0592294179384504,"2":-0.10378914025839009,"3":0.05273155975932025,"4":0.047227721168485316,"5":0.01169238376456275,"6":0.009311559770754197,"7":-0.02899161424307764,"8":-0.023758840518053676,"9":0.009120788162687963,"10":-0.052742274570722725,"11":-0.047599071712597446,"12":0.05620999767928551,"13":-0.07250872388139822,"14":0.1267104859178522,"15":0.0636497373631998,"16":0.05903127305011982,"17":0.03146100350556517,"18":-0.0023677511111723205,"19":0.01778866143149413,"20":0.02766768465521398,"21":-0.16674517429380423,"22":-0.12108571348213086,"23":0.15211667570105344,"24":-0.09850384707994855,"25":0.007819549044183267,"26":0.008420259314348725,"27":0.03151946942009984,"28":0.09418402874766597,"29":0.05193215343931477,"30":0.0014123975290664245,"31":-0.07153932463900048,"32":0.07998478056806883,"33":-0.12256033784159116,"34":0.05802800674442512,"35":0.03024470625439956,"36":0.19531266643941742,"37":0.05507785354909972,"38":-0.020401665544654845,"39":-0.10560628121742253,"40":0.05080385910605345,"41":-0.08118133239768428,"42":-0.045038254750343704,"43":-0.1178442580996734,"44":-0.004142680377767664,"45":-0.04435511802192477,"46":-0.008907967306894218,"47":0.04335296145550144,"48":0.038384498114328376,"49":-0.061016381060800214,"50":0.0891476852316522,"51":-0.0024150682009377554,"52":0.04040975352514114,"53":0.031816362147977055,"54":-0.040515739649869334,"55":-0.13892549707365573,"56":0.04111928318397825,"57":0.11897490749457587,"58":-0.014834745832757,"59":0.004636480752990644,"60":-0.005177822972913356,"61":-0.053255054630948005,"62":0.020757419376595834,"63":-0.0363231885074639,"64":0.027723608606137366,"65":-0.03823635938878078,"66":-0.023314124171542938,"67":-0.05145560034534725,"68":0.04630223244907161,"69":0.05223393648655254,"70":-0.0071065315807238814,"71":0.022723115916483586,"72":-0.05263646453488274,"73":0.07011850584152204,"74":0.04901274553889983,"75":0.10947312326208611,"76":-0.003197074199278996,"77":0.0033176088369496312,"78":-0.04408181230824132,"79":-0.05624713145714287,"80":-0.05688704125888098,"81":0.06148379810707487,"82":0.059949252459187335,"83":0.0389665482295081,"84":0.08433536895492734,"85":-0.05060244161010882,"86":0.05884002937370364,"87":0.07721283421368338,"88":-0.06457454850556334,"89":0.005833762198951109,"90":-0.009657591253997875,"91":-0.013331284888357053,"92":-0.12143580086909572,"93":0.049605039840666235,"94":0.02952545310482747,"95":-0.10150510393369859,"96":-0.13235437848765996,"97":-0.008184755805317204,"98":-0.13640311994151844,"99":-0.030976803974241185,"100":-0.1293659614183874,"101":0.008714640656863854,"102":-0.07708025071871254,"103":-0.023534771464278112,"104":-0.09748078146488907,"105":0.10415258114222274,"106":-0.07290320017591749,"107":-0.06724146815579442,"108":0.07761323655470155,"109":0.09709909886057139,"110":-0.07354826482176473,"111":-0.05844918545109362,"112":0.019010005197539242,"113":0.019381457391371985,"114":-0.10112627814294382,"115":-0.01269766600193485,"116":0.06216598219848959,"117":0.04714142276339226,"118":-0.0030093026017151896,"119":-0.0031984033317320076,"120":-0.05826704642457511,"121":-0.07543888398083405,"122":0.03152782082179185,"123":-0.032857828976814676,"124":0.015292403963382722,"125":0.033905184660256354,"126":-0.05457590409420968,"127":-0.03271971728774749,"128":0.046755978207519415,"129":0.002601401604600918,"130":0.02057376437129986,"131":-0.017006903641288203,"132":0.07553734731186494,"133":0.06793819731726661,"134":-0.068310139571654,"135":-0.03664404228330843,"136":-0.025199027917361012,"137":-0.0022414575542738543,"138":-0.030128283284306136,"139":0.03035853452289633,"140":0.12646220184696458,"141":-0.021185196999704562,"142":0.03510179568101328,"143":0.04791809451580668,"144":-0.07285184826022126,"145":0.11873430072437109,"146":-0.03374456510403514,"147":0.030566309017541458,"148":-0.06135563353260482,"149":-0.10273929159692517,"150":0.06270996285287493,"151":0.025275444511108625,"152":-0.05426653832276007,"153":0.01388027382461247,"154":0.011073392663477786,"155":0.024084723842096496,"156":0.08942179592017362,"157":-0.06799751247147692,"158":-0.065823993278371,"159":-0.08550877261983966,"160":-0.18450110941999165,"161":-0.022703739759137517,"162":0.08486457676551266,"163":0.061196442487226776,"164":-0.07046178885891335,"165":-0.03833246325540942,"166":0.040456936071237,"167":-0.04136511456529543,"168":0.023322462995975672,"169":0.01307045342399641,"170":0.08012903064114846,"171":-0.0005233295452200716,"172":0.15149867426012523,"173":-0.05423620184026705,"174":0.0650278047150782,"175":-0.03455758258164198,"176":-0.03867613723196629,"177":-0.026901643619711847,"178":0.05624613238922149,"179":-0.06299828658231835,"180":-0.028876332810802145,"181":-0.016352166801743204,"182":-0.016952196552079076,"183":-0.014448718801146919,"184":0.028831880071558635,"185":-0.03872367060179306,"186":0.10032502888311016,"187":-0.05664552461474822,"188":0.005698517231677445,"189":-0.06092254809364432,"190":-0.039311622357383655,"191":0.05678470849800109,"192":0.07202447117847935,"193":0.0007420817218654994,"194":-0.08386887963237827,"195":0.08115278910458903,"196":-0.012852419785251592,"197":-0.0739550796055113,"198":0.03116128634557121,"199":-0.007363244139212619,"200":-0.008862166566995403}},{"sx":1,"sy":1,"depth":201,"w":{"0":-0.0866083991703966,"1":-0.018814681954659684,"2":0.0781427637078647,"3":0.4072865363505063,"4":0.12141641883767068,"5":0.016242894853463783,"6":0.018683776705880575,"7":-0.0025193059196493024,"8":0.061011970236122794,"9":0.021438870322827618,"10":0.48502695341630575,"11":0.07347251046981249,"12":0.004388502746201611,"13":0.1264284386602756,"14":-0.07966877441887521,"15":-0.032692515647478985,"16":0.10377598936890996,"17":0.46737037899591855,"18":0.02312068253025953,"19":-0.19998077357921076,"20":-0.0652320415848246,"21":0.0077177423501005905,"22":0.15070214811845278,"23":0.043431969470823034,"24":0.330558026810037,"25":0.0193323363946169,"26":-0.08790378801160524,"27":-0.11388410869683986,"28":0.062076794560207565,"29":0.003940801406417312,"30":0.17959529773103813,"31":0.22968408598949766,"32":0.0472910616683092,"33":-0.07324410399878921,"34":-0.015593525172356836,"35":0.032536933712076783,"36":-0.05757459630350989,"37":0.08394082247309048,"38":0.10103030768659362,"39":-0.013084292625960166,"40":0.031752511206540754,"41":0.0841428004513073,"42":-0.09228617200043493,"43":0.023763893472198247,"44":-0.00951688240775157,"45":0.049984771303875325,"46":-0.09786859995350397,"47":0.10582867290394618,"48":0.07699039863237934,"49":-0.07147225724679533,"50":-0.0006223382713808846,"51":0.026143085923980784,"52":-0.11818653480346487,"53":0.016618533864187136,"54":0.05787974814557453,"55":0.01449332889272788,"56":-0.10170315367873548,"57":-0.001141787469205361,"58":-0.023535106989194615,"59":0.05397682153084819,"60":0.01366823229362988,"61":-0.1341145618106814,"62":0.025063598948588655,"63":-0.09733659781494103,"64":0.021827675097264826,"65":-0.006907553697431335,"66":-0.027780398844803163,"67":-0.05961587965588494,"68":-0.0285749981324323,"69":-0.011999421405600183,"70":0.031373227380386996,"71":0.08465712228373246,"72":0.026990846557401277,"73":0.011765596644182398,"74":-0.14798213146338512,"75":-0.0228925610734679,"76":-0.05177074865017671,"77":0.05478435655281384,"78":0.049135805389254765,"79":0.001744487507714459,"80":-0.004284200057550249,"81":-0.07825009440906155,"82":-0.03532494499472165,"83":0.02311828937066039,"84":0.028604755014767225,"85":-0.03756945759691747,"86":0.17217463650705406,"87":0.17372019861006946,"88":-0.007879390130108908,"89":-0.011730965273297075,"90":0.044948443022760715,"91":-0.013721129603583676,"92":0.061343678871357984,"93":-0.017931560822844236,"94":0.1575456022885068,"95":-0.0472423747891395,"96":-0.02067209167402308,"97":-0.025474440081850694,"98":-0.07368218542401242,"99":0.006097597248960931,"100":-0.03728556112495459,"101":0.050652963005012416,"102":-0.028252044007889353,"103":0.023560006998583745,"104":-0.033641282404713875,"105":-0.11860933413596551,"106":0.02663319149086608,"107":-0.012206681559516765,"108":0.2313630920081641,"109":0.044277211893546435,"110":0.08740063651601031,"111":0.013751634877697531,"112":0.07573343000416877,"113":-0.027226093221238194,"114":0.08648607675086822,"115":0.16554293804172612,"116":0.0539656899177273,"117":-0.07173770840465041,"118":0.0913238555305217,"119":-0.02462643344048053,"120":0.08704648296414062,"121":-0.0654336338649157,"122":0.17086350630316047,"123":0.06275536477835378,"124":0.062116525160004696,"125":-0.11968618889899263,"126":0.18507015143445488,"127":-0.09296113128368352,"128":0.16472880158598316,"129":0.07950024261951019,"130":-0.01672527508566404,"131":0.013291920661984737,"132":0.02050659292617277,"133":-0.036418319742343566,"134":-0.03698272072816673,"135":-0.011156996727104327,"136":0.047137170931414736,"137":0.023255008336662733,"138":0.06531903706094397,"139":0.05698846087868485,"140":0.001653937412304165,"141":0.045223289461767124,"142":-0.024329071594441056,"143":0.034730870216297435,"144":0.03408621701904634,"145":-0.09604765899980724,"146":0.0022485561997022856,"147":0.025637250604233556,"148":0.05280611433400014,"149":-0.20178800745015574,"150":0.055426044305735236,"151":-0.06458748830171815,"152":0.09759922477108791,"153":0.0525782292818874,"154":-0.08432140606452075,"155":0.12283339577562039,"156":-0.032132786639955856,"157":0.04241222999989818,"158":0.006928290135918867,"159":-0.01423442874410953,"160":-0.04694496980140946,"161":-0.01493621208449918,"162":0.04828639637938339,"163":0.17498377586990987,"164":0.011488095362321359,"165":0.09055686211299827,"166":-0.07702781686475858,"167":0.05511259114157235,"168":0.0417779469221175,"169":-0.01538918627442543,"170":0.0028340313806709495,"171":-0.04217936728091802,"172":0.029037534775242548,"173":0.020336550851333738,"174":-0.07473552164487092,"175":-0.04489976485229256,"176":-0.03036787044658561,"177":-0.14604478428359774,"178":-0.092885260097795,"179":-0.12934532432311052,"180":-0.07812078929434359,"181":0.02612517634766108,"182":-0.0995919525712213,"183":0.03233328964925655,"184":-0.04371284937840549,"185":-0.002237702343138061,"186":0.029388260767207956,"187":-0.1332561906340719,"188":-0.14312641038568835,"189":-0.021855890091516506,"190":0.03455248922860952,"191":-0.02074037688541168,"192":0.14370790701697417,"193":0.03455255489936503,"194":-0.03281460996301904,"195":0.0016109206804022828,"196":0.011884771773833704,"197":0.007244478938166887,"198":-0.06415633735698884,"199":-0.03985376668294987,"200":0.09290828286139755}},{"sx":1,"sy":1,"depth":201,"w":{"0":-0.030153866461130253,"1":0.0013694068121537179,"2":0.1130829495886959,"3":-0.504744786661883,"4":0.06120476841191084,"5":-0.0993751483591641,"6":-0.024280506714532097,"7":-0.05513574085572084,"8":0.008415927774185353,"9":-0.04364100418605748,"10":-0.8800530364142907,"11":-0.17636148227653228,"12":0.03610401347408596,"13":0.04920167080639808,"14":-0.07574853598652953,"15":-0.03311032684191332,"16":-0.16614028114343263,"17":-1.1371071478451318,"18":-0.036885288002708995,"19":0.04094747215270102,"20":0.0518540644533721,"21":-0.027763033645920705,"22":0.022575026068045376,"23":-0.11208066451074633,"24":-0.7475403081046939,"25":-0.18628965860778185,"26":-0.051123128752234105,"27":-0.01701790240940716,"28":-0.01944829340364316,"29":-0.028644663654462638,"30":-0.23004377855631464,"31":-0.8679586051246756,"32":-0.1562425929378301,"33":0.0032992064531649364,"34":-0.017665197290889174,"35":0.02708833563552309,"36":0.08680517339241858,"37":-0.11357746207086414,"38":-0.5065547849668074,"39":-0.05719157910547557,"40":-0.08322459044140808,"41":0.03813117318318263,"42":0.014753632334026136,"43":-0.03530255662989849,"44":-0.1660197931783132,"45":0.044291740078056134,"46":-0.005307119803741992,"47":-0.11240735631003482,"48":0.01155392509137642,"49":-0.07666203354461112,"50":0.0038295934414858774,"51":-0.0691816535017912,"52":0.03784231827326528,"53":-0.026331174412406986,"54":0.01860643684224132,"55":-0.1053061459566456,"56":0.07421442676758046,"57":0.025036714412243134,"58":0.06266734487687067,"59":0.0300692234655701,"60":0.12363293099946096,"61":0.09113450729889071,"62":0.04955889291352924,"63":-0.07811488236983406,"64":-0.026931748571279605,"65":-0.1280789921330392,"66":0.08484841304870595,"67":0.016838011707688134,"68":0.002922645597503927,"69":0.012633596331938664,"70":0.15529114532571406,"71":-0.015699688912004715,"72":0.07837075207352957,"73":-0.2542930754646388,"74":0.17091069062801445,"75":0.0544794951914296,"76":0.0794138285453857,"77":-0.0007440090197637108,"78":-0.07749833033213689,"79":-0.09357494488931686,"80":-0.20218810711907156,"81":0.06734928134279294,"82":0.044379214598832824,"83":-0.04823314835776118,"84":-0.09234366636829185,"85":0.07256545653926537,"86":0.03920495658305895,"87":-0.24752212747917063,"88":0.014048529583381212,"89":0.01189801156050408,"90":0.10715326381321218,"91":0.12080194570534855,"92":-0.030258966377083616,"93":-0.14642513345061628,"94":-0.27018473697238493,"95":-0.087540706785656,"96":0.054506830160769265,"97":-0.06395358583132477,"98":0.06811968727295319,"99":0.00969131141401721,"100":-0.04186790440418361,"101":0.03541133387908975,"102":-0.07133134282670309,"103":-0.048868440564986404,"104":0.015099758610968836,"105":0.021525611980621827,"106":0.0028049012455677296,"107":0.04958552343226632,"108":-0.06192452537851245,"109":-0.04781591711233784,"110":0.010683055284699655,"111":0.012368192342693813,"112":-0.0789857495545471,"113":-0.04702830648432265,"114":-0.15505986753920842,"115":-0.3637341082316863,"116":-0.0389642513969311,"117":-0.09478751196339695,"118":0.07637002387455874,"119":0.06535101136116947,"120":0.04253313278579796,"121":-0.038890061689063574,"122":-0.3276802899721098,"123":-0.04766968954290572,"124":-0.0017856842118884181,"125":-0.042364179844567945,"126":-0.03026231977607782,"127":0.022679523404162457,"128":-0.039566445463812785,"129":-0.31393872209939283,"130":-0.031170557346858994,"131":-0.027533698114949573,"132":0.00039955943224022534,"133":0.012960390182416294,"134":0.06828622666402966,"135":-0.010530694970328157,"136":-0.16656507452280372,"137":-0.004625685904465396,"138":-0.18065918598471112,"139":0.032520945712588595,"140":0.016443214240057773,"141":0.039032779570187866,"142":0.01655248508466715,"143":0.10585651187163711,"144":0.010570505925883083,"145":-0.07391406627130556,"146":-0.0904360977220773,"147":0.02534514861973858,"148":-0.11530111732075701,"149":-0.007547162562734923,"150":0.035011161350056656,"151":-0.0796636782330115,"152":-0.10313599858422137,"153":0.03910709447956325,"154":-0.0398606086083873,"155":0.12469312635191014,"156":-0.017666120005745373,"157":0.12101605849679635,"158":0.06616315675312054,"159":-0.0021979781832499974,"160":-0.02874576827295276,"161":-0.050594545549858684,"162":0.08477692398361955,"163":-0.006263253427425616,"164":0.10517339907402143,"165":0.07300438675625669,"166":-0.0021873379022255054,"167":-0.0319229731675781,"168":0.015470096124329053,"169":-0.13747973696159949,"170":-0.04010417784457574,"171":-0.05534684833281211,"172":0.14583661853540097,"173":0.11643526532994015,"174":-0.04172063864524486,"175":0.017219455990318253,"176":0.09461575245145364,"177":0.12486053747159997,"178":-0.12962532830653564,"179":0.1647483145572461,"180":-0.027064980343592795,"181":0.044236840087205895,"182":-0.04911218594528586,"183":-0.019597648478941264,"184":0.17143054579244627,"185":-0.12464393895307747,"186":0.03250696437677528,"187":-0.07663401628723672,"188":0.028454172936629083,"189":-0.01910405632089804,"190":0.06991469719138838,"191":0.007690384342403442,"192":-0.3331151347178678,"193":-0.1908856819912497,"194":-0.05796222223293085,"195":-0.02311378075563829,"196":0.06294637174161224,"197":-0.0020080878110739315,"198":0.11477709950243789,"199":0.1470930519156668,"200":0.17389309700373887}},{"sx":1,"sy":1,"depth":201,"w":{"0":-0.021495301401302073,"1":-0.004536241116127993,"2":0.010446522607886843,"3":0.02944130159932498,"4":0.0454614364959111,"5":0.00021865053631241874,"6":-0.0439922848984326,"7":0.00013585586218922786,"8":-0.030045728094940532,"9":-0.043019235230610735,"10":-0.08929622705993889,"11":0.030946158186617376,"12":-0.03214436357978703,"13":0.018357968320585612,"14":-0.07816854993320821,"15":-0.03995396908629781,"16":0.09345935954592287,"17":-0.16682447959893879,"18":-0.026787628899829254,"19":0.04419217290893257,"20":-0.03736191666396053,"21":-0.11196374126299198,"22":-0.015408958914134444,"23":-0.016030372225995734,"24":-0.08811505628314276,"25":0.05731023732343765,"26":0.01458032591319031,"27":-0.0011806221981057487,"28":0.08915516674052314,"29":-0.023450610359194372,"30":0.059502721740895444,"31":-0.050262979060027926,"32":0.026991333774981092,"33":0.02990171889050596,"34":-0.07454536322688625,"35":-0.06102546971117239,"36":-0.13781668216158002,"37":-0.020837314960485052,"38":0.026927238856106803,"39":0.09811273741638657,"40":0.0725992417596737,"41":-0.07580619081337496,"42":-0.11984611157346584,"43":-0.044484612868483674,"44":0.015612517160896037,"45":-0.0398882267891942,"46":0.09060541204368755,"47":-0.0018181796354665742,"48":-0.0014236610649108917,"49":-0.0639973140982237,"50":0.09421495556596877,"51":0.08180888216435592,"52":-0.004972706364515277,"53":-0.00733924165160009,"54":0.029474251998861365,"55":0.0030641709829813592,"56":0.08651563230292433,"57":0.035553771902721784,"58":0.02237327137529337,"59":-0.09739489851434839,"60":0.0038222462866611654,"61":-0.029492761062372946,"62":0.03852301520016504,"63":-0.031760463761571905,"64":-0.0741991111049717,"65":-0.011780825156541382,"66":0.017205090935625323,"67":-0.022323270094676655,"68":0.0006126481027482626,"69":0.04149819290115011,"70":-0.0552283975963307,"71":-0.03194349636264274,"72":-0.06122923140696131,"73":-0.023369704485186823,"74":0.007640694539809707,"75":0.021814246844245985,"76":0.04965306996028455,"77":0.08444553028102801,"78":0.0724796324300246,"79":-0.024388449792956922,"80":-0.005297910559168464,"81":-0.04339362123539314,"82":0.1404911739052514,"83":-0.08365367058447551,"84":0.0443226624419695,"85":-0.025750388263965005,"86":-0.018633907166336745,"87":-0.0406962992151488,"88":0.020077852539776068,"89":0.06917245588169166,"90":0.028392394079473932,"91":0.028515137156207602,"92":-0.04549317624209838,"93":-0.023232037418817988,"94":-0.15542643252773702,"95":0.025372374518090466,"96":0.020516364572708338,"97":0.0497713850082499,"98":-0.18538956479824786,"99":0.01923895152701233,"100":0.10287605498255643,"101":-0.1729696254548265,"102":-0.002117150729106291,"103":0.10937170968866923,"104":0.012454156154395582,"105":-0.06327831028071808,"106":0.014918176055855914,"107":0.05499626721160803,"108":-0.036713934445817734,"109":0.1080655058571151,"110":0.06618052321966275,"111":-0.1063193497729138,"112":-0.06407699554386632,"113":0.05148357245198794,"114":-0.06724731123574071,"115":-0.10087230144533847,"116":-0.04302940146937006,"117":0.029806079075283938,"118":0.07641651255260551,"119":-0.06778502547307598,"120":-0.09054369295638422,"121":-0.0750503342763672,"122":0.0770106314275356,"123":-0.07925838764074047,"124":-0.02122374944678931,"125":-0.07513157127840994,"126":-0.06878877261071262,"127":0.006917763530051281,"128":-0.07461449239319563,"129":-0.11179019768702629,"130":0.10884094088695191,"131":-0.00696186405213083,"132":-0.0380912675003342,"133":-0.05702030017233782,"134":-0.021792717184557057,"135":0.001243833585332404,"136":-0.04979394769206263,"137":0.008113085512796233,"138":0.0603553146761708,"139":0.06074298883333407,"140":-0.02310108502540686,"141":0.011525923507271099,"142":0.0357093762536302,"143":-0.03948212076509505,"144":0.004791246510717022,"145":-0.10705427941714052,"146":-0.012345906093962581,"147":0.023801033912572604,"148":0.0729989414639327,"149":-0.12450847401997157,"150":-0.03400022679993351,"151":0.08088948460045055,"152":-0.06629242278300672,"153":-0.03697620236205794,"154":0.015861651329975177,"155":0.07529504362566616,"156":-0.0009360484658376926,"157":0.016301107890732164,"158":-0.12311254909109332,"159":-0.12950569976025492,"160":-0.13915114687168842,"161":0.08716069843880521,"162":-0.029929561293872788,"163":-0.018849179820989125,"164":-0.05685602164561245,"165":0.008953439655251274,"166":0.01638909583414925,"167":0.03666850510961772,"168":-0.07960522885168607,"169":0.02205143762640365,"170":0.1318678782481549,"171":-0.0738567721994814,"172":0.023364157278056914,"173":-0.05384513602540869,"174":0.021428864508251134,"175":0.026358066811818036,"176":-0.025605866735831078,"177":0.12644457254972147,"178":-0.030813772340858567,"179":0.09127956076935814,"180":-0.01742448169553294,"181":0.008440343806140832,"182":-0.010068951072196236,"183":0.022119789537756784,"184":0.009048778442154078,"185":-0.03883427103198522,"186":0.039591974786230034,"187":0.0006601494797690998,"188":-0.0358675569923738,"189":0.009179536301317015,"190":-0.06692627510824657,"191":0.03881675452446384,"192":0.023234074018248105,"193":0.05563208463028194,"194":0.04630803705705177,"195":-0.143517894859289,"196":-0.005228328007781658,"197":0.10967508317858184,"198":0.04809694972154942,"199":-0.016138181047518702,"200":-0.0788069484539291}},{"sx":1,"sy":1,"depth":201,"w":{"0":0.051550755736028055,"1":0.025024602094292386,"2":-0.057355353092059844,"3":0.05839255921448814,"4":0.03977789138248452,"5":-0.05275675041553938,"6":-0.012806550983059693,"7":-0.0913093172442447,"8":0.08275988256783891,"9":0.059421140817873606,"10":0.004573177366586031,"11":0.04657465765025504,"12":-0.06859491772956659,"13":0.06422119929432601,"14":-0.0700664954751464,"15":-0.026871042360186947,"16":-0.16410917779809917,"17":0.043462669531866394,"18":-0.04786880673703713,"19":0.10256140250297192,"20":0.012243937048303056,"21":-0.12442696497257148,"22":0.03713281321157403,"23":0.019058614296982114,"24":-0.03434247608263003,"25":-0.01682103912588376,"26":0.06863871479540098,"27":0.0030680519784283405,"28":0.002334354511690317,"29":0.05416981161512984,"30":0.018896082596651466,"31":-0.05846689927351608,"32":-0.10788948844033044,"33":0.15933707673710412,"34":-0.13203842151084544,"35":0.07636888016045769,"36":-0.11298218344441517,"37":-0.1036730891647212,"38":0.03286348872322283,"39":-0.01363195141664537,"40":-0.03866067905507972,"41":-0.07869285388811273,"42":0.052738488918759784,"43":0.13242135376572722,"44":0.10762215765553092,"45":-0.061096983816228655,"46":0.11063015350095907,"47":-0.010934737324404732,"48":0.0363397805407624,"49":-0.0884563615883391,"50":-0.0902583997932131,"51":0.008199984503220684,"52":-0.010142582299220491,"53":0.054117313993084504,"54":0.002594087176493092,"55":0.06951239820717263,"56":-0.013341916751887463,"57":-0.02653375210901461,"58":0.0035955529253364825,"59":-0.08083730724200201,"60":-0.0855667407345444,"61":0.12923275734386697,"62":-0.012161795683157721,"63":0.09063527367304088,"64":0.06997704210916003,"65":0.02552038117348423,"66":-0.04023277358420586,"67":0.01176477990556343,"68":-0.030072091845532056,"69":-0.04304916663614203,"70":0.08652285622909248,"71":0.013639573026563762,"72":0.1296950785852844,"73":-0.0707250321473769,"74":-0.04067482196780774,"75":0.06534093625865432,"76":-0.01365665185937466,"77":0.10196366715909996,"78":-0.019137883542607547,"79":0.06932117789162752,"80":-0.023222505545218885,"81":0.004941664343860551,"82":-0.006457544417616269,"83":-0.0038506190395819215,"84":0.05379818069784272,"85":-0.003242290898464649,"86":-0.012736999097165629,"87":0.050607178063666935,"88":-0.051708237254609324,"89":0.055184599658417786,"90":0.023266402017041603,"91":-0.004388514611444606,"92":0.027427247892371075,"93":-0.04254895324820938,"94":0.07940640730629504,"95":-0.00843397511290011,"96":-0.0132771404915788,"97":0.015452589400051939,"98":-0.008974952727620975,"99":-0.026597386359593467,"100":0.04737182346499106,"101":-0.03557057440663978,"102":0.053535393510076405,"103":0.040373474305498064,"104":0.06311186323896803,"105":0.03533077184951705,"106":-0.011843357372411581,"107":0.026889655174111304,"108":0.042707259449145815,"109":0.028877229413763313,"110":-0.07127607386553482,"111":0.030401045899346814,"112":0.04712973113323498,"113":0.029704867588922695,"114":0.15516920257819175,"115":0.006622305963022608,"116":-0.060409942087559426,"117":-0.11199229628681576,"118":0.021856930864020588,"119":0.04712313104669413,"120":-0.02285384665095139,"121":0.016993969798431027,"122":-0.022292847679943977,"123":-0.09348041440198447,"124":-0.12242135779115311,"125":-0.04950759605477376,"126":-0.03198629873025769,"127":-0.09550093540365087,"128":0.06324756245194427,"129":-0.003239204296060434,"130":-0.006355393592383882,"131":-0.036875813993581454,"132":-0.03498607517944037,"133":0.020876786335559408,"134":0.021667362334415206,"135":0.17096897652780643,"136":0.015621748098539227,"137":0.023753531619102243,"138":0.020911834498403694,"139":-0.012010906586118216,"140":-0.014509312279768169,"141":0.012655770272053569,"142":0.04540373366797081,"143":-0.07442475705775652,"144":-0.08095091746448621,"145":0.02680368193901342,"146":0.05080369963145764,"147":-0.03593917421812945,"148":0.024506715312162898,"149":-0.08443107450529883,"150":-0.11448169219866403,"151":0.027535307551974978,"152":0.010012412273425154,"153":-0.00020598301956648862,"154":0.0024926064620273227,"155":-0.05290516610426592,"156":-0.01296235336490034,"157":0.018959706549246686,"158":0.05779208222453478,"159":0.07562046684546313,"160":-0.02932929829154979,"161":-0.04709214940001913,"162":-0.004243554201392694,"163":0.004048841476087532,"164":0.09204853888348453,"165":0.010324793669527628,"166":-0.13716808215029877,"167":-0.058502849187424266,"168":-0.007259680136085063,"169":0.0835779369545104,"170":0.010231625758517895,"171":-0.1763990858112048,"172":-0.025478009567861743,"173":-0.06347529841702282,"174":0.09575919863966022,"175":-0.09059871259906017,"176":0.04953705862452511,"177":-0.10668313319572009,"178":-0.13405605802256715,"179":-0.07051760434632179,"180":-0.09539124762699819,"181":-0.16917433362496848,"182":0.056430743943439755,"183":0.020074630470958192,"184":-0.11967744976716088,"185":0.03808138729541724,"186":-0.053640964602873514,"187":-0.039498639524347456,"188":0.022731191971373514,"189":0.0530400241157288,"190":-0.036960183397797934,"191":-0.05431836110746482,"192":-0.010205318681198958,"193":-0.020291378574236234,"194":-0.02464166048392004,"195":-0.005849283982249722,"196":-0.06530956214222662,"197":-0.012322178505644533,"198":-0.008488138305424586,"199":-0.026003790383117988,"200":0.04156484265482165}},{"sx":1,"sy":1,"depth":201,"w":{"0":-0.1285298548961632,"1":0.018602525049629507,"2":0.02391230796786197,"3":-0.06791845226926824,"4":-0.00848091521104973,"5":-0.12749400320707802,"6":-0.06813449267092633,"7":0.035020762855752535,"8":0.09217901250837371,"9":-0.08109798971060954,"10":0.023917407844601373,"11":-0.03469534556149979,"12":0.057771033093767514,"13":-0.06707475168565108,"14":0.059102316962986894,"15":0.09216703902188796,"16":-0.021826294590903378,"17":0.06341021266521556,"18":-0.05312067129561746,"19":-0.0053559490401447925,"20":-0.0432935606436299,"21":-0.0023898791448926245,"22":-0.14888986109599617,"23":-0.038300618598176475,"24":-0.14903631355126049,"25":0.050038721703293446,"26":0.0060022952013105355,"27":0.04611840016341892,"28":0.09957268713491799,"29":0.017374741640773416,"30":0.06909598221931479,"31":-0.07960545765966166,"32":0.006466937325298269,"33":-0.019969621872880337,"34":-0.01921156812920212,"35":-0.09707952595577285,"36":-0.016705787851161027,"37":0.015238258915495335,"38":-0.07604598461911012,"39":-0.1033648552338987,"40":-0.02931075929285595,"41":0.005438662756557555,"42":0.03868511864617854,"43":-0.055552913105785126,"44":0.050487956953456675,"45":-0.019145009047834553,"46":-0.010190146246574716,"47":0.09279608602231963,"48":0.07128593093233808,"49":-0.005310130219702463,"50":-0.01920053658088472,"51":-0.04791197979337416,"52":-0.025325262650117978,"53":-0.014247947604318346,"54":0.08315087027014302,"55":0.12250320315990414,"56":-0.009632701130637921,"57":0.004186425244029018,"58":-0.005017773908982741,"59":0.020145759596592653,"60":0.13258540877889524,"61":-0.02101646388891298,"62":0.007131090141398473,"63":0.002648046826774083,"64":-0.025702895695716644,"65":-0.012400771119323433,"66":0.06038915639563484,"67":0.01149226391559422,"68":0.02226710827442585,"69":0.07592682382115347,"70":0.02313862820836271,"71":-0.0036619370025742755,"72":0.0486741844627192,"73":-0.0341073917023901,"74":0.015052455067575595,"75":0.06229137312354253,"76":0.12162199682080783,"77":-0.02973930454316498,"78":-0.07055331229588005,"79":-0.10271170627709805,"80":-0.08236809093082927,"81":0.016075000275147678,"82":0.013235820011195835,"83":-0.007068855676362485,"84":-0.0069683570839981284,"85":-0.12850235611436603,"86":0.030426406872723074,"87":0.04550414843640783,"88":0.011683539837878074,"89":-0.032194127649046125,"90":0.08888013531883382,"91":0.05122854447156966,"92":-0.017467283052427965,"93":0.06947409168261653,"94":0.04866745049290396,"95":0.08616392167469517,"96":-0.05724182582134552,"97":-0.14259255600254092,"98":0.016410366859081912,"99":0.004318317234988637,"100":-0.04952192962187476,"101":-0.05290778326069144,"102":0.04301889298063879,"103":0.010346912048978649,"104":-0.04210358060148398,"105":0.0017814787783098798,"106":-0.07994401407631753,"107":-0.029092479245633157,"108":-0.1030099531416812,"109":0.009980107761282506,"110":-0.10744509856217788,"111":-0.009120350036553225,"112":-0.07018206836898021,"113":-0.0381925420549964,"114":-0.0313388609727616,"115":-0.0327935187713919,"116":-0.06638298098387282,"117":-0.103477929408437,"118":0.08168535764961771,"119":-0.005216721079440613,"120":-0.040549248630718196,"121":-0.09998245458657706,"122":-0.07066868549320102,"123":0.012463724748847488,"124":-0.00842540167512726,"125":-0.09387091241998356,"126":0.10590344043688682,"127":-0.019833635482728984,"128":-0.10627346413549381,"129":0.08306143917314793,"130":-0.03093030385324016,"131":-0.03210696296461418,"132":-0.08788458413675282,"133":-0.05068378739627221,"134":-0.02780374236024895,"135":0.12614995516536867,"136":-0.029335310828502346,"137":0.047529633959210726,"138":0.03815340042309962,"139":0.06215662315536196,"140":0.004925871360578549,"141":0.001180985307513299,"142":0.07466903920271906,"143":0.043582507589709205,"144":-0.08638270782178623,"145":-0.07261341015435643,"146":-0.03575385813158306,"147":0.04372362887232782,"148":-0.0597595601126522,"149":0.14163150219277135,"150":0.07389614488380446,"151":0.04732232498743008,"152":0.059549576865299526,"153":-0.06192194903762566,"154":0.04801842326672525,"155":-0.08392536093820568,"156":-0.04890283722684182,"157":0.10071131928149757,"158":0.06698455637143207,"159":0.09844386790674041,"160":-0.07002284481713843,"161":0.002985870589644083,"162":-0.0024827755264563186,"163":0.03022804208472144,"164":0.09857103255597216,"165":-0.056130395907248054,"166":-0.024816594563198627,"167":-0.045230951127752675,"168":-0.10605127097557487,"169":-0.05504195869472865,"170":0.04524442129230966,"171":0.01813901920828906,"172":-0.03929926576850071,"173":-0.03512601485215261,"174":0.018875224694315008,"175":-0.09617274988901131,"176":-0.0033713944558640616,"177":0.13246594644964174,"178":0.013379076669825065,"179":-0.08041896912951778,"180":0.08336768573327157,"181":0.10133641032155521,"182":-0.047929196685732214,"183":0.05317746509707449,"184":0.11206218749315269,"185":0.11164364404018698,"186":-0.0019202962365488206,"187":0.1150176260420643,"188":0.04405633717262041,"189":-0.0052518641319946975,"190":0.02165596976253721,"191":-0.030787301223855725,"192":0.028947055059447748,"193":0.0455481488633925,"194":0.046119028211296875,"195":0.11970923070477978,"196":-0.03669304832003174,"197":0.005212164271116258,"198":0.07288214049590798,"199":-0.021177661119923134,"200":-0.01955997113069809}}],"biases":{"sx":1,"sy":1,"depth":12,"w":{"0":0.09913362397262664,"1":0.1007401622781033,"2":0.09925515593965582,"3":0.09878198917085808,"4":0.09483132016773548,"5":0.10062075525793841,"6":0.10003760747990897,"7":0.09874680273533817,"8":0.10205879350601087,"9":0.09882204091039219,"10":0.09971229567839995,"11":0.10051315167448382}}},{"out_depth":12,"out_sx":1,"out_sy":1,"layer_type":"relu"},{"out_depth":12,"out_sx":1,"out_sy":1,"layer_type":"fc","num_inputs":12,"l1_decay_mul":0,"l2_decay_mul":1,"filters":[{"sx":1,"sy":1,"depth":12,"w":{"0":-0.012771703240738034,"1":0.5475038621128447,"2":-0.39359218232488735,"3":-0.24119257800658692,"4":0.28813798248441425,"5":-0.034633487426119804,"6":0.3302503818294387,"7":-0.3069347257720546,"8":-0.09805797835349761,"9":-0.168428869310308,"10":0.3285345734137842,"11":0.32679495221551574}},{"sx":1,"sy":1,"depth":12,"w":{"0":0.29374209654499217,"1":0.39594258544572253,"2":-0.6377993076750145,"3":0.05080525819200129,"4":-0.5727971558288948,"5":0.17627928394864253,"6":0.3508342776198107,"7":0.06970077425516043,"8":-0.24659910532499588,"9":0.10716185259069848,"10":-0.24253542553440555,"11":0.09649232078857614}},{"sx":1,"sy":1,"depth":12,"w":{"0":0.3891122617246441,"1":-0.04527878296560886,"2":-0.10952706520053614,"3":-0.11514198222221632,"4":-0.5281119983132294,"5":0.07902139918924495,"6":-0.10000753583397148,"7":0.0031333828854197975,"8":0.5476658498976837,"9":0.2016150779638231,"10":0.002435159722208594,"11":-0.17160220416100408}},{"sx":1,"sy":1,"depth":12,"w":{"0":0.05179162220980975,"1":0.14664594901062014,"2":0.6251525202177092,"3":0.2045627690643148,"4":0.20224204095922116,"5":0.5270908132503125,"6":0.03899002445720437,"7":-0.10301462055573742,"8":-0.2634531816236837,"9":0.0074722521081812335,"10":0.4040213755133179,"11":-0.20153601148943687}},{"sx":1,"sy":1,"depth":12,"w":{"0":0.08314475699589866,"1":0.3218888931660945,"2":0.07024481592192114,"3":0.21585315057055973,"4":0.04313838661430424,"5":-0.3247839728172895,"6":0.08017953548874687,"7":-0.09942407749570861,"8":0.02979700388354943,"9":-0.46004645367814523,"10":0.07605808994965221,"11":-0.07181972382643172}},{"sx":1,"sy":1,"depth":12,"w":{"0":0.11086196337591091,"1":0.4160937643525663,"2":-0.27648496913376885,"3":0.01300642268610047,"4":0.17532548089185443,"5":-0.6469915121291058,"6":0.3625236784038128,"7":0.05956128560632658,"8":-0.24574623733968223,"9":0.07980425290119836,"10":0.0640341803853967,"11":-0.14136900729251317}},{"sx":1,"sy":1,"depth":12,"w":{"0":-0.07625158629756358,"1":-0.049508113884264265,"2":-0.2706329733420136,"3":-0.005374620084089926,"4":-0.21784818540290796,"5":0.15812859871078716,"6":0.041464340369378815,"7":-0.28847804318442455,"8":0.29258750826901686,"9":0.08321274497863575,"10":-0.011677204162977128,"11":-0.11905538726708471}},{"sx":1,"sy":1,"depth":12,"w":{"0":-0.029397370118880488,"1":0.3636016381283047,"2":-0.4752018975034695,"3":-0.07421006783263522,"4":0.26671831966237414,"5":0.06521188977758606,"6":0.06233250226321006,"7":-0.26132672926858846,"8":0.5639445700727398,"9":0.10803578785394224,"10":-0.2871186798227874,"11":0.4257292861032981}},{"sx":1,"sy":1,"depth":12,"w":{"0":0.3195492773859171,"1":-0.09577124504571911,"2":0.1506437510427548,"3":-0.036901682775947055,"4":0.30156772906873736,"5":0.0036920182939457345,"6":0.3036496516901444,"7":0.08748895209218742,"8":-0.30284830152862935,"9":-0.26443670213544135,"10":-0.14547584832098384,"11":0.18447736336405143}},{"sx":1,"sy":1,"depth":12,"w":{"0":-0.21818466736317238,"1":-0.3667401757517594,"2":-0.191356370942621,"3":-0.13508290121050012,"4":-0.2984164029385689,"5":0.15273024669658203,"6":-0.27454224588478715,"7":-0.010946524173689777,"8":0.03350950092271172,"9":0.214440698996023,"10":-0.22883104564949178,"11":0.15852873274304993}},{"sx":1,"sy":1,"depth":12,"w":{"0":-0.012655835776544668,"1":0.07909638838323804,"2":0.19440489460854957,"3":0.3220905931654041,"4":-0.2780068084381308,"5":0.19212326518723175,"6":-0.12151686306787285,"7":0.11217394060441775,"8":-0.20424562750265957,"9":-0.6701887218573755,"10":-0.2393242934172992,"11":0.21249596779977226}},{"sx":1,"sy":1,"depth":12,"w":{"0":0.06377073480635684,"1":0.13173393608354866,"2":0.4560065434777663,"3":0.01990185700413255,"4":0.35689014105448247,"5":0.2681432429174182,"6":0.1723168164901973,"7":0.4295255981220337,"8":-0.4314113216921177,"9":0.09874418055478686,"10":-0.23377652379173394,"11":-0.11092625500366321}}],"biases":{"sx":1,"sy":1,"depth":12,"w":{"0":0.10148995945641084,"1":0.09866859395950539,"2":0.12910121711279116,"3":0.10653666979482797,"4":0.09266363958766932,"5":0.08970948767780519,"6":0.10334360122360005,"7":0.09113542446993818,"8":0.08224609606782768,"9":0.09209514038995892,"10":0.09327211514932511,"11":0.11494367162841757}}},{"out_depth":12,"out_sx":1,"out_sy":1,"layer_type":"relu"},{"out_depth":12,"out_sx":1,"out_sy":1,"layer_type":"fc","num_inputs":12,"l1_decay_mul":0,"l2_decay_mul":1,"filters":[{"sx":1,"sy":1,"depth":12,"w":{"0":0.41135756246735716,"1":-0.7964024268325629,"2":-0.11817329133236512,"3":0.03370608633141272,"4":-0.148169704050155,"5":-0.017205466394439293,"6":-0.48051011035780883,"7":-0.5153945427861578,"8":0.3477502388263454,"9":-0.11431596221137967,"10":-0.12861144575695302,"11":0.11255445559486359}},{"sx":1,"sy":1,"depth":12,"w":{"0":-0.11872077268431583,"1":0.5077710484946089,"2":0.08912719617453334,"3":-0.12781091661964536,"4":-0.24113988422521457,"5":0.0002361013389063717,"6":-0.4443582612165636,"7":-0.09828736897710375,"8":0.37339669971457257,"9":0.19237544043613458,"10":0.15814754652688162,"11":-0.09944929168181806}},{"sx":1,"sy":1,"depth":12,"w":{"0":-0.2383695784471152,"1":-0.03179022056076761,"2":0.19143265603871767,"3":-0.25941660675588246,"4":0.11302915449860274,"5":0.10264743689178783,"6":-0.17133863348875095,"7":0.43532439520482286,"8":-0.17292946638947898,"9":-0.21132419227800697,"10":0.5159330060925722,"11":-0.27332035839782864}},{"sx":1,"sy":1,"depth":12,"w":{"0":0.0915609360655428,"1":-0.12493093702216831,"2":-0.10333098697102781,"3":0.1535849144218078,"4":-0.027410937738919196,"5":0.017322504276280692,"6":0.11881350957973758,"7":-0.057166828409855056,"8":0.0008386663670175897,"9":-0.3556592625854455,"10":-0.48361892930840944,"11":0.2384577985734823}},{"sx":1,"sy":1,"depth":12,"w":{"0":0.48201274182799647,"1":-0.33559255885407235,"2":0.20745330498592324,"3":-0.32809925328808703,"4":-0.3212167034552002,"5":0.7174419410955748,"6":-0.12219337870214987,"7":0.5006194520915896,"8":0.31692511930576756,"9":-0.19181797199792672,"10":0.38475790710552765,"11":0.2833713903409803}},{"sx":1,"sy":1,"depth":12,"w":{"0":0.28503088665951165,"1":-0.03145305199047948,"2":-0.3398559489151742,"3":0.1773374888914076,"4":0.1255021322146916,"5":-0.047956162095737505,"6":-0.13620185185278294,"7":-0.09653265527927372,"8":-0.20689106915469802,"9":-0.09181575473197173,"10":0.32577897774269554,"11":0.7423506832547979}},{"sx":1,"sy":1,"depth":12,"w":{"0":0.24332346422187173,"1":0.2587094625544427,"2":-0.8289077367069871,"3":0.255025821830268,"4":0.1533955006918262,"5":-0.07743433719710943,"6":-0.1699339126689559,"7":-0.30200807078604064,"8":-0.3209454736974538,"9":-0.3227345737162194,"10":-0.008850043639431638,"11":0.6059649296301223}},{"sx":1,"sy":1,"depth":12,"w":{"0":-0.02988034014330227,"1":0.16110177615811186,"2":-0.4665331976842465,"3":0.4348509624883486,"4":-0.3331066859755815,"5":0.2417177786264654,"6":-0.016661426580210793,"7":-0.42444407081230384,"8":-0.3103442247204278,"9":-0.048978713912953456,"10":-0.04138194319587505,"11":-0.05842334286540659}},{"sx":1,"sy":1,"depth":12,"w":{"0":0.02840648702323821,"1":0.2636165452775129,"2":0.15283889471898934,"3":-0.14072078240683047,"4":0.28116578394855596,"5":-0.13962856157164305,"6":0.2413959355930077,"7":0.2399122252229495,"8":-0.10923100761594787,"9":0.4760689793312018,"10":0.10627390423034992,"11":0.035345315901972006}},{"sx":1,"sy":1,"depth":12,"w":{"0":-0.005520723351252598,"1":-0.043944323993115784,"2":0.14555655999930567,"3":-0.1599032582624885,"4":0.264436739188994,"5":-0.0016070503501826798,"6":-0.44772545417892845,"7":-0.24438281379460958,"8":0.0657887374901858,"9":-0.09256009014289587,"10":0.30706359378477294,"11":-0.4539296151942077}},{"sx":1,"sy":1,"depth":12,"w":{"0":-0.060301883087869004,"1":0.4408948553360602,"2":0.29291852624767173,"3":0.02155784888965896,"4":-0.387828929081017,"5":0.026114219505846314,"6":0.08968208535803834,"7":0.05529384383630011,"8":-0.3446994561161963,"9":-0.23247805835132815,"10":-0.4654232895664506,"11":-0.16026946530020206}},{"sx":1,"sy":1,"depth":12,"w":{"0":0.22081505717530409,"1":0.2826434000820765,"2":0.3517855259843814,"3":-0.3320037063849839,"4":0.07149780676369848,"5":-0.2916600566009574,"6":0.06780340244373237,"7":0.4823848404394961,"8":-0.07287372876024155,"9":0.19347288512040645,"10":0.4353179265646391,"11":-0.1294978279091533}}],"biases":{"sx":1,"sy":1,"depth":12,"w":{"0":0.11180737763143049,"1":0.06714880935428995,"2":0.08263119335275129,"3":0.07765016771019234,"4":0.09728653976410291,"5":0.1029459847138191,"6":0.13067768820390596,"7":0.10349733191592825,"8":0.09200738300189008,"9":0.0898123240877227,"10":0.08885993477707163,"11":0.08699528144973226}}},{"out_depth":12,"out_sx":1,"out_sy":1,"layer_type":"relu"},{"out_depth":5,"out_sx":1,"out_sy":1,"layer_type":"fc","num_inputs":12,"l1_decay_mul":0,"l2_decay_mul":1,"filters":[{"sx":1,"sy":1,"depth":12,"w":{"0":-0.014745452275538896,"1":0.21468484497391124,"2":-0.10845093234187135,"3":-0.46870979526309553,"4":0.36321586259184513,"5":0.22427002307366362,"6":1.0246271087650138,"7":-0.11932940661604353,"8":-0.35500836240378386,"9":0.051318339686961596,"10":0.12522895327073236,"11":-0.12793205457867968}},{"sx":1,"sy":1,"depth":12,"w":{"0":-0.13609072888456056,"1":-0.26353716918825154,"2":-0.02558831719382214,"3":0.29648426765317026,"4":-0.3855259487071311,"5":0.5531525039199402,"6":0.44460333104652167,"7":-0.003110177067387448,"8":-0.002187931927559839,"9":-0.1889696593082196,"10":0.04338123536742546,"11":-0.23252805128247875}},{"sx":1,"sy":1,"depth":12,"w":{"0":0.25990154995365633,"1":-0.08285155233053171,"2":-0.05613102648419685,"3":0.2294025661438474,"4":-0.3864288378103351,"5":0.514486044810835,"6":0.37627172876904624,"7":-0.06471222653102478,"8":-0.2708079860451312,"9":0.012871895119733134,"10":0.4556829833004235,"11":-0.18607169212690383}},{"sx":1,"sy":1,"depth":12,"w":{"0":0.026651773407284023,"1":-0.08961192189653114,"2":0.04624949124892286,"3":0.19851326388588675,"4":-0.0839043920847413,"5":0.27937101710501844,"6":0.42648405791869837,"7":0.23331036195882154,"8":0.08899489966433317,"9":0.16708567528218193,"10":0.026761167338043377,"11":-0.2282837905346056}},{"sx":1,"sy":1,"depth":12,"w":{"0":-0.08385202042563332,"1":0.1905461092355099,"2":0.18029532800333323,"3":0.1220609058305051,"4":-0.03875374920425256,"5":0.3394254858821191,"6":0.2744509340328082,"7":0.38536742853656414,"8":-0.07372907112240698,"9":0.3515758144302537,"10":-0.5862848933684985,"11":-0.039973322961684654}}],"biases":{"sx":1,"sy":1,"depth":5,"w":{"0":0.04671411942147664,"1":0.12415078016628028,"2":-0.04507324993090909,"3":-0.029988411678154414,"4":-0.017226309733576098}}},{"out_depth":5,"out_sx":1,"out_sy":1,"layer_type":"regression","num_inputs":5}]});
}