
//<![CDATA[

// a few things don't have var in front of them - they update already existing variables the game needs
lanesSide = 6;
patchesAhead = 10;
patchesBehind = 10;
trainIterations = 20000;

// the number of other autonomous vehicles controlled by your network
otherAgents = 0; // max of 10

var num_inputs = (lanesSide * 2 + 1) * (patchesAhead + patchesBehind);
var num_actions = 5;
var temporal_window = 3;
var network_size = num_inputs * temporal_window + num_actions * temporal_window + num_inputs;

var layer_defs = [];
    layer_defs.push({
    type: 'input',
    out_sx: 1,
    out_sy: 1,
    out_depth: network_size
});
layer_defs.push({type:'fc', num_neurons: 50, activation:'relu'});
layer_defs.push({type:'fc', num_neurons: 50, activation:'relu'});
layer_defs.push({
    type: 'regression',
    num_neurons: num_actions
});

var tdtrainer_options = {
    learning_rate: 0.001,
    momentum: 0.1,
    batch_size: 128,
    l2_decay: 0.1
};

var opt = {};
opt.temporal_window = temporal_window;
opt.experience_size = 3000;
opt.start_learn_threshold = 500;
opt.gamma = 0.7;
opt.learning_steps_total = 10000;
opt.learning_steps_burnin = 1000;
opt.epsilon_min = 0.0;
opt.epsilon_test_time = 0.0;
opt.layer_defs = layer_defs;
opt.tdtrainer_options = tdtrainer_options;

brain = new deepqlearn.Brain(num_inputs, num_actions, opt);

learn = function (state, lastReward) {
brain.backward(lastReward);
var action = brain.forward(state);

draw_net();
draw_stats();

return action;
}

//]]>

/*###########*/
if (brain) {
brain.value_net.fromJSON({"layers":[{"out_depth":1055,"out_sx":1,"out_sy":1,"layer_type":"input"},{"out_depth":50,"out_sx":1,"out_sy":1,"layer_type":"fc","num_inputs":1055,"l1_decay_mul":0,"l2_decay_mul":1,"filters":[{"sx":1,"sy":1,"depth":1055,"w":{"0":-0.009469830377515349,"1":0.00528214153770583,"2":0.0002458709898264818,"3":0.007418068342021472,"4":0.01229460372325656,"5":-0.013478061262568463,"6":-0.05635040773431404,"7":0.020948171009982683,"8":-0.01715121785815561,"9":0.03381505131088203,"10":-0.012055227583305631,"11":-0.009868563002447955,"12":0.0683208678427123,"13":0.017709598500115623,"14":-0.016130449934396548,"15":-0.030221792701928096,"16":0.06242522885307669,"17":-0.014965912629997235,"18":-0.017571835938101632,"19":-0.06709355546368348,"20":0.0172246530275982,"21":0.03346974646235161,"22":-0.04104532633245436,"23":0.031121608010073774,"24":-0.01639636835878483,"25":0.015276795668962112,"26":-0.0035829882337354126,"27":0.007501344655727648,"28":-0.044790135546846715,"29":-0.024332275651673244,"30":0.015826315346188623,"31":-0.01837852937486512,"32":0.0010659491715231987,"33":0.06376192497996462,"34":-0.008756455062071922,"35":-0.001006980449542148,"36":-0.01878691388130797,"37":0.0119583103771004,"38":-0.019284603411172135,"39":0.02862409923985649,"40":-0.04453890591325115,"41":-0.025380967689448343,"42":0.028998514004581078,"43":-0.06777535267477822,"44":0.012572357276831595,"45":-0.055451297579441214,"46":0.026808451003425902,"47":0.01204881445355296,"48":-0.014893777786683875,"49":0.01226325494297665,"50":0.015297846098712611,"51":0.06114687565046559,"52":-0.003440187546197296,"53":0.017066262928433856,"54":0.016212781743897467,"55":-0.009442668427465727,"56":0.019547777184651876,"57":0.0042901061655119645,"58":0.04540369018945571,"59":0.014130774680075533,"60":0.00020773302391377394,"61":0.005692012517827976,"62":-0.04181243823235078,"63":-0.01800904031002553,"64":-0.009998209127850504,"65":-0.03795373776079426,"66":0.022926334393633386,"67":-0.04571537582768617,"68":-0.071415773532375,"69":-0.0007374491921031876,"70":-0.044270925228876455,"71":-0.0294419219136926,"72":-0.009678538418922708,"73":-0.021122352221127978,"74":-0.06276172000555465,"75":-0.0037846995726334527,"76":-0.02004115595719578,"77":0.011011213073449403,"78":0.004304088429873638,"79":-0.003550006923809408,"80":0.025722429528755402,"81":-0.004915098484796703,"82":-0.012712693408852067,"83":-0.009228111687251284,"84":0.01226897536073877,"85":0.015865893731070328,"86":-0.0037307580518965715,"87":-0.012616536779120406,"88":0.015571037022744764,"89":0.03347176114124228,"90":-0.0041310268162348136,"91":-0.005365692599578585,"92":-0.025728560896779443,"93":-0.025263939048251506,"94":-0.01524977276361248,"95":-0.0195283632323856,"96":-0.016796660335424873,"97":0.026709792156398137,"98":0.0002493803319504017,"99":0.021308820801187494,"100":0.0439210749294447,"101":0.044951111024900216,"102":-0.05577233800034551,"103":-0.026225018684114556,"104":0.015609320584774499,"105":-0.006967102289481892,"106":0.02437455622308559,"107":-0.03735761399864518,"108":0.008582525388549693,"109":-0.023883232529999396,"110":-0.019751993801251536,"111":0.06329683152655277,"112":0.016088858496861598,"113":-0.006812042385487863,"114":0.011576257181171463,"115":0.0373063690912352,"116":-0.05190333152141488,"117":-0.04985495808745357,"118":0.020652872348186364,"119":-0.002282796969299444,"120":0.0291539092006915,"121":0.0007972724543367865,"122":0.022464013521077943,"123":0.021508666532022866,"124":0.05650130976343017,"125":0.011477675563683619,"126":0.0591291769053523,"127":0.016754028343837355,"128":-0.018633293845934575,"129":-0.06974963970486396,"130":-0.015869932389063018,"131":-0.027040014799214036,"132":0.050604235833411206,"133":0.015995735161078654,"134":0.04702998877066892,"135":0.057118906668565235,"136":-0.002952701509024427,"137":0.005313530593046494,"138":0.014374525425172672,"139":0.013915117494639999,"140":0.06803965825600071,"141":-0.007375988930084461,"142":0.029398115596534116,"143":0.034565973558141685,"144":-0.0028878956020967086,"145":0.010926875556102101,"146":0.003080546205220394,"147":0.008347340103223806,"148":-0.03521841614387656,"149":-0.0036063290520387606,"150":0.049285463839196714,"151":-0.03136896314737862,"152":-0.007318142112117544,"153":0.010888469600240341,"154":-0.04803163383439197,"155":0.03831439084437838,"156":0.04402862415941027,"157":-0.001140349606123473,"158":0.013538341627175486,"159":-0.013751338122182176,"160":-0.005938928095487381,"161":-0.005750009006830676,"162":-0.016850423776125827,"163":-0.004138858390131726,"164":-0.007902276561331665,"165":0.03973208778733839,"166":-0.050794008340185264,"167":0.0011802063201424263,"168":0.0321388443363313,"169":0.03277848774881394,"170":0.011620969998268131,"171":-0.02312707354043846,"172":-0.02637472487229471,"173":0.04017626112325495,"174":0.0033841481533839857,"175":0.00901623899348647,"176":-0.0019587994216867517,"177":0.03124045499600295,"178":-0.012875405569584854,"179":-0.024032935644615845,"180":-0.019331595834111495,"181":0.00896361522530882,"182":-0.030901886412404656,"183":-0.0021413698773637855,"184":0.04383946572582409,"185":0.0073086769354187,"186":-0.04912194187463154,"187":0.012842810525671385,"188":0.010302233877991835,"189":0.012618608093723423,"190":0.0011113129742059032,"191":-0.0072814894288670265,"192":-0.03547691477730858,"193":0.03069821925160712,"194":0.0052447157896038646,"195":0.005474087170597187,"196":-0.02221188342882257,"197":-0.040387028040581474,"198":-0.006221264156941913,"199":0.011253369596296822,"200":-0.023503672656742167,"201":-0.01208765484686826,"202":-0.008500466398240644,"203":0.07922160601773856,"204":-0.06717721587588617,"205":0.006387553638393698,"206":0.0036799633013215203,"207":-0.02943437042359616,"208":-0.02217413273462179,"209":0.04383610949254272,"210":0.009656864083627589,"211":0.00540607929764692,"212":0.024660272804122314,"213":-0.010103058302038193,"214":0.05250895343097011,"215":0.008901310528977866,"216":0.02820346350541225,"217":0.06333364172119206,"218":0.0020081192141335894,"219":-0.0029416678962834535,"220":-0.026693276668745866,"221":-0.01706498340517997,"222":-0.017392334407187675,"223":0.05325115867970353,"224":-0.052329663784462875,"225":0.02185646621953499,"226":-0.0054416164175277735,"227":-0.0035976570258202537,"228":0.003142560074652956,"229":-0.01874862021764723,"230":-0.0558496687734835,"231":-0.02138963368620712,"232":-0.015892480808729573,"233":0.005375484039551577,"234":0.01975913285213289,"235":0.03289932206190937,"236":0.008872361376902256,"237":-0.031236706103546515,"238":0.00028022892919053125,"239":-0.00495095200337299,"240":0.04517795731693889,"241":0.042922411779782614,"242":0.031899272648592096,"243":-0.005693867404004865,"244":0.00157137053549929,"245":0.0294492121354118,"246":-0.042344585324376474,"247":-0.011170001274236676,"248":-0.01450332692886972,"249":-0.002865475001030262,"250":0.0029731907735009925,"251":-0.07572910546050131,"252":-0.03422332705312557,"253":0.007418582802789649,"254":-0.015297221318957948,"255":0.035410146193834764,"256":-0.0171754812018218,"257":-0.005564335997533309,"258":0.021768943482233464,"259":0.02987579188860016,"260":0.015547393827723783,"261":0.0007885592890066221,"262":-0.08480716925117664,"263":0.03923230290340629,"264":-0.04051613268402875,"265":0.0065342033899024295,"266":0.002997516600879951,"267":0.038617355820542584,"268":-0.06901784649510476,"269":0.06318537426590003,"270":-0.007072157883668805,"271":0.012157213211434146,"272":-0.015076010711826163,"273":-0.01368197911239539,"274":-0.00009050210408041855,"275":-0.0003724383319779696,"276":0.010018440519592012,"277":0.01636490125010603,"278":-0.023113993845781288,"279":-0.014266325055142307,"280":-0.013738346651119872,"281":0.023164894366546042,"282":0.01176488795550736,"283":-0.03142107133197858,"284":0.045072331350901905,"285":-0.011180502123145133,"286":0.027170804963876,"287":0.02774050416530869,"288":0.01391102132339862,"289":-0.02630229902892672,"290":-0.006097922868529731,"291":0.04449924074151126,"292":0.004840777649486294,"293":-0.00417379570104636,"294":0.004299646865772975,"295":0.03848704382228775,"296":0.013490846653631981,"297":0.03960117384856349,"298":0.02326307713332945,"299":-0.04630112238336967,"300":0.049683223082745864,"301":-0.002084599787580468,"302":-0.018552265665313893,"303":-0.039280088688266504,"304":0.015704537866033656,"305":0.02272063225798353,"306":0.012477732752806614,"307":-0.009883646843117566,"308":-0.010663360261146991,"309":0.04348410819696588,"310":0.028930964919809503,"311":0.02053497804300193,"312":-0.009561850353479628,"313":-0.0004877636272006237,"314":-0.019100673783399164,"315":-0.03762739293855321,"316":-0.01230906782716127,"317":0.06543395958922035,"318":-0.0118565866285048,"319":0.062324410249820904,"320":0.034924341164650104,"321":0.023868962131076085,"322":-0.05646502140490809,"323":-0.00009212358535874441,"324":-0.051560517039479094,"325":0.0014396499758254928,"326":0.02195696408915423,"327":0.0451893241803717,"328":0.009863988432151732,"329":-0.027927293571115376,"330":0.012763308543048284,"331":0.0103976508347685,"332":0.03879269951673822,"333":-0.04287234237931748,"334":0.03549844077355074,"335":0.022941222147176272,"336":-0.02820858239431905,"337":-0.008453317869571512,"338":0.006772026743712539,"339":0.037844894476790576,"340":0.0001331480383316445,"341":0.012325208608558387,"342":-0.016222454495383655,"343":-0.019978908254188837,"344":0.019129986111738703,"345":0.013967759452101587,"346":-0.017414946383623234,"347":0.005108380499624992,"348":0.02469283738757718,"349":-0.002870497803492618,"350":0.01717992337952053,"351":-0.019866082977078252,"352":-0.02027021557387226,"353":0.035828922066812034,"354":0.02320592935243479,"355":-0.02406790202154302,"356":-0.024471592492600842,"357":0.029785563915579336,"358":0.013487736816010247,"359":0.021712938314413326,"360":-0.03589727141489973,"361":-0.008477756342023425,"362":-0.03684947571611381,"363":0.014716521004926795,"364":0.034818215049742925,"365":0.02184294025389336,"366":-0.06050930676668603,"367":-0.011908149762385831,"368":0.024479378643823685,"369":0.02821118408838083,"370":0.02795532950111929,"371":0.000670426468303061,"372":0.018821059412568876,"373":0.021041999428894457,"374":0.04629556016077019,"375":-0.07223852985302055,"376":0.05996480283920306,"377":0.015837676299487874,"378":0.03574122999775892,"379":-0.0029026180781562922,"380":-0.043171117458230886,"381":-0.014707570714735475,"382":0.012431708025431434,"383":-0.014037436638203667,"384":-0.029045251534314913,"385":0.0011203824167141845,"386":0.010309194500378418,"387":-0.012238100715890994,"388":0.016146047702336047,"389":-0.029304724863025503,"390":-0.006158445999982366,"391":0.02291565317814806,"392":-0.03925204117460042,"393":-0.03964544659345316,"394":0.06316350380670911,"395":0.026060656861867995,"396":0.0014273182091866748,"397":-0.042466184703098264,"398":-0.004967076295900827,"399":0.02758085255675074,"400":-0.024715429349415643,"401":0.03973268515535632,"402":-0.042883790842691866,"403":0.009107668949323276,"404":0.04302968225667704,"405":-0.018999111208476027,"406":0.01695555495212905,"407":0.03100796081368528,"408":-0.018014566397115104,"409":0.024769773037838557,"410":-0.05348424767516575,"411":0.008009311378806295,"412":0.0005501276027204083,"413":-0.014459375031753423,"414":-0.012702262770438347,"415":-0.030515167748448823,"416":0.008547118342080854,"417":-0.027430508541546928,"418":0.02331246396613815,"419":-0.0758491165943845,"420":-0.015906187070066354,"421":-0.0033722703677873497,"422":-0.03164030972344522,"423":0.030254025350257105,"424":0.022779269343649784,"425":-0.03487828497531469,"426":0.00651435025808242,"427":-0.016382002884388274,"428":0.0019983810107323374,"429":-0.008822545580297821,"430":0.04994281813187794,"431":0.03421892610643364,"432":-0.010403819036491306,"433":0.020772232989178414,"434":-0.030847608142781896,"435":-0.002228755757242863,"436":-0.06310425871593618,"437":0.007122556746150296,"438":-0.005631214638173553,"439":0.029321169408521326,"440":0.03707575910134481,"441":0.013845907620043943,"442":0.016568644678390868,"443":-0.026422030629051085,"444":-0.024605652279425932,"445":-0.008786270365737883,"446":0.05807388182321829,"447":0.029652956371842648,"448":0.01571303283848791,"449":-0.02209754282743644,"450":-0.0068382579570139095,"451":-0.024308073422980095,"452":0.07246247677611929,"453":-0.03970974591689121,"454":-0.038096915214680574,"455":-0.0014508509185328713,"456":0.03653465779025129,"457":-0.02882468847660254,"458":0.01378526781779297,"459":-0.049938603393591914,"460":0.0017679262680656226,"461":-0.015364297956360495,"462":0.048619897341097645,"463":-0.045149746127822216,"464":-0.014626455138741364,"465":-0.02575614152906488,"466":-0.01495596663495108,"467":-0.014127026334933668,"468":-0.005822947424669284,"469":0.003168454141486072,"470":0.051150472624789556,"471":-0.04955585256884455,"472":0.007815539065899548,"473":0.052276865798849215,"474":-0.026556325056321543,"475":0.004947894781810659,"476":0.0058907595820013045,"477":-0.00399462885711608,"478":0.03799845841323844,"479":0.010183550163884128,"480":-0.020819958333633776,"481":-0.0038929738480597813,"482":-0.042803523303427765,"483":-0.01700217183820252,"484":0.027361725783980825,"485":-0.001994398133911002,"486":-0.018922935010071154,"487":-0.007363520487357636,"488":-0.020176976989824222,"489":0.010265818589468397,"490":-0.05750413740386566,"491":-0.006260954776956635,"492":0.06222789630778008,"493":-0.013707999416749519,"494":0.015636495419606242,"495":0.05987341221005874,"496":-0.03482420805956357,"497":0.004698556573362737,"498":-0.02442413341356033,"499":-0.01674281205359938,"500":0.05454248801107847,"501":-0.006975961487071052,"502":0.011387500216328015,"503":0.033717232489591464,"504":-0.004330059364876768,"505":0.030376696294177084,"506":0.04013562130102058,"507":-0.014531008900075972,"508":0.0385444116220622,"509":0.004991733073652225,"510":-0.0010270457341082886,"511":0.014262313156204387,"512":-0.03960247628837099,"513":-0.029017620707884117,"514":-0.027047269900448378,"515":-0.037795701731925084,"516":0.0016024138178163713,"517":-0.013848010510185216,"518":0.0011214259350482549,"519":0.0065394306573747455,"520":0.020583246956169653,"521":-0.019989414251466758,"522":-0.042371117910390915,"523":-0.02829402495027874,"524":-0.026477452328163214,"525":-0.008015419217916812,"526":0.02214918969803456,"527":-0.003425102737338045,"528":0.03613192262213647,"529":0.007221380779211611,"530":0.0342628822196092,"531":0.01959913278838557,"532":0.004604628394203049,"533":0.042748115648534694,"534":0.0032331612726135927,"535":0.008711680603403434,"536":0.02127601676444867,"537":0.0042152529745906634,"538":-0.007874040549846426,"539":-0.02963891189283613,"540":0.02259168883309096,"541":-0.031103718211958193,"542":0.022450349678315055,"543":-0.04113357768490571,"544":0.04272760900726112,"545":-0.0032579554975453694,"546":0.04581772685235272,"547":-0.0005677821589581114,"548":-0.005542787334833006,"549":0.011277667952684893,"550":-0.009045577941552398,"551":0.026038361135380845,"552":-0.04452633092347852,"553":-0.010737773772074079,"554":0.028024809588877465,"555":-0.031378676296182,"556":0.04056132342699758,"557":0.03673217033874292,"558":0.033309257966554345,"559":0.06603074627943284,"560":0.010073095967490273,"561":0.023504861341963543,"562":0.014384409449358983,"563":0.03918239809689049,"564":0.05485058457105858,"565":0.016975912965730557,"566":-0.02841854715021294,"567":0.023850207492312477,"568":0.0032093581377115386,"569":0.0064323634633492565,"570":-0.012926810963019056,"571":-0.007123646851735009,"572":-0.02164186350909322,"573":-0.014659172882606257,"574":0.0471503873289727,"575":0.0264393593462015,"576":0.021766387010142527,"577":-0.025108170622706066,"578":0.028101875789274748,"579":-0.005020694890943568,"580":-0.02698352871146835,"581":-0.055189289803304876,"582":0.011165776455356767,"583":-0.03029179119841333,"584":0.020568807721139906,"585":-0.017335143962332343,"586":-0.05188615527239047,"587":0.005399219681518346,"588":-0.015357350878202105,"589":0.06302787746369429,"590":-0.019694783119990424,"591":0.010524744930441149,"592":0.020051831687086248,"593":0.06910681120826373,"594":-0.0030124723868089997,"595":-0.00892672311847019,"596":-0.037011070564397404,"597":-0.02880571804049964,"598":0.05206507751925359,"599":-0.0022401995704795434,"600":0.025148900358671577,"601":0.006221487237795078,"602":-0.036396559066604155,"603":-0.007885336835179274,"604":-0.0028864531111050793,"605":0.02198118103696593,"606":0.04535895707284749,"607":0.04153387848406101,"608":-0.08301910346359562,"609":0.008168139843052548,"610":0.026832623043820943,"611":-0.05728140901249281,"612":-0.06141327483019749,"613":0.04959580501821743,"614":-0.009719161141222657,"615":0.058418236575127756,"616":-0.06481735814046342,"617":0.04094345216905828,"618":-0.07125802247214916,"619":0.05371914961891248,"620":-0.05000481718579711,"621":0.00918211571415874,"622":0.01090360098324307,"623":0.032292172318835494,"624":-0.014164971369223227,"625":-0.012670440552668262,"626":-0.004963836104110922,"627":-0.007965570269652045,"628":0.038518746273569895,"629":0.0077717309813097836,"630":0.010985941295419648,"631":0.020681476395992732,"632":-0.030254059730776484,"633":0.022485844232268088,"634":0.012392172989200418,"635":-0.057452000711835094,"636":0.008804897616727045,"637":0.023876278982660915,"638":0.021874554897256194,"639":0.0053879521744480815,"640":0.025899891330654342,"641":-0.005822944091900229,"642":0.04936676450853011,"643":-0.05171274816158131,"644":0.04325911159030087,"645":-0.0057677150457576196,"646":0.016943733546855976,"647":0.06645256974454083,"648":-0.012222744790166893,"649":-0.012766243845680576,"650":0.017007452865015343,"651":-0.018962786298574758,"652":0.02504711191674005,"653":0.005325438132946089,"654":0.016177924602220933,"655":-0.02553103029678795,"656":0.0003378163140285186,"657":0.047810409913482656,"658":0.043602077932549624,"659":0.007703301550753663,"660":-0.032970504510523496,"661":0.019628432582914537,"662":-0.0333627612954911,"663":-0.01631604605282887,"664":0.01994860941545312,"665":-0.0330844894817003,"666":-0.013846466510383243,"667":-0.01188571735620011,"668":-0.012720435690531367,"669":-0.014064176480518954,"670":-0.014492378243146215,"671":-0.03637140372144641,"672":-0.054080528882088454,"673":-0.013155025057376216,"674":-0.01612870622485759,"675":0.021916210014457163,"676":0.00903879760228822,"677":-0.027037026179068585,"678":-0.002809011751328704,"679":0.014921287942900858,"680":-0.018384908298431032,"681":-0.03301351240374295,"682":-0.0039356286761397,"683":-0.02375590598295265,"684":-0.0012429312825348736,"685":-0.013666284896801967,"686":0.011090535273512227,"687":0.00580354276015617,"688":0.019645073197408887,"689":0.01986378752349579,"690":0.00077469275474717,"691":-0.01100167350631538,"692":-0.0018705885768618077,"693":-0.01708855320181944,"694":0.006946653173022015,"695":0.022082514435576305,"696":0.004787419530383854,"697":0.004180071381435261,"698":0.003340309564298343,"699":0.02641065682912438,"700":-0.07524813960437689,"701":0.04878387945028804,"702":0.02504810999800776,"703":0.06104771284510962,"704":-0.013892890577169251,"705":0.04310621631112517,"706":-0.007693604602119938,"707":-0.03539546624564253,"708":-0.002701841518615427,"709":0.04572776863480206,"710":-0.021077764527398363,"711":-0.012281907901996085,"712":-0.031016483781116874,"713":0.03231173741651955,"714":-0.0049346465523389975,"715":0.00866190302614618,"716":0.05830371978998864,"717":0.006696012901230976,"718":0.014941124004442892,"719":-0.010441843027969416,"720":0.004590018283766647,"721":-0.009478982321555817,"722":0.021928064607422675,"723":0.0008969623764401914,"724":-0.01782764535154438,"725":0.02646878675625156,"726":0.014382797887948707,"727":0.0236347579610599,"728":0.01615944720948264,"729":0.01107489013055649,"730":-0.007886174216748698,"731":-0.012743770291048033,"732":-0.024709336026210477,"733":0.06067057829592436,"734":-0.026092528013025636,"735":-0.011104884132763112,"736":0.01782728552705846,"737":0.03045479200170513,"738":-0.01762688774044536,"739":0.004459771579869521,"740":-0.012993900168011439,"741":-0.021782312575291368,"742":0.001126613260171335,"743":0.012910275848081333,"744":0.040461079688915595,"745":-0.010130339650553728,"746":-0.0413961211369688,"747":-0.03420143833307631,"748":0.07013351272337294,"749":-0.017306902454455833,"750":-0.018834138054153994,"751":-0.015490675852252474,"752":-0.044759681559408224,"753":-0.008645619198203646,"754":-0.038449729811460484,"755":-0.014968171153776494,"756":0.002615942489798277,"757":-0.013769653391469527,"758":0.04583145367502987,"759":0.0245852728547609,"760":0.000968887781816283,"761":-0.048930105327283244,"762":-0.03799919175372217,"763":0.015022872524725336,"764":-0.0005702146925904767,"765":0.00850999058213558,"766":0.032412169825040194,"767":-0.05188501596957565,"768":-0.0010255011981643066,"769":-0.01554783543837556,"770":0.003988719738781615,"771":-0.0009019855577829673,"772":-0.04323760056922608,"773":-0.0026777402110653692,"774":0.0409451241280415,"775":-0.01375562245906451,"776":-0.019685124664503725,"777":0.0034349420161925307,"778":0.04602889474151757,"779":-0.01536277351113408,"780":-0.00940036554121439,"781":-0.0559530401558649,"782":0.041092766027943185,"783":0.002578000048956284,"784":-0.017736073261897866,"785":-0.03685890610609155,"786":-0.02224993108066108,"787":-0.053020112357384214,"788":-0.010139493755505727,"789":-0.026325746455082323,"790":0.028991014577366633,"791":-0.04379275716872046,"792":0.03533991340229853,"793":-0.03824766597380163,"794":0.0034273188913999716,"795":0.018531660834347537,"796":-0.014448579281828945,"797":-0.04407198262614499,"798":0.008293786294950095,"799":0.03296398514713056,"800":-0.02523898959325688,"801":-0.013894282455351578,"802":0.03931035850574244,"803":0.07654783379049028,"804":0.01811544420722758,"805":0.019373462694591892,"806":-0.06635739712677231,"807":-0.03997484197093396,"808":0.04716087257009815,"809":0.03523325955349695,"810":0.01167176403851031,"811":-0.033182510714318894,"812":0.02010698657813679,"813":0.06695830540484918,"814":0.005107642516628951,"815":-0.03188656444570061,"816":0.000022107379678240515,"817":0.01955190813412855,"818":0.05393002395289723,"819":-0.02275892177059247,"820":-0.008339776603959986,"821":-0.0016432291630930278,"822":-0.011947816486422473,"823":-0.019697115150458116,"824":0.012621431571616834,"825":-0.024167122336693794,"826":-0.016982211115251337,"827":0.013922228358744132,"828":0.0038192194866879365,"829":-0.011684912191998536,"830":0.028095465407133962,"831":-0.028882480693048485,"832":0.01266298381703915,"833":-0.0308811560500745,"834":-0.022351464020311552,"835":-0.03212121775155189,"836":-0.0006578255119814972,"837":-0.034430095993738384,"838":0.02446277236221288,"839":0.0001920413423384032,"840":0.0019125631575650753,"841":0.011988084383813331,"842":-0.004819110023070728,"843":-0.04421522228063428,"844":0.00432952345188586,"845":-0.02736069419676428,"846":-0.0038713941660391865,"847":0.027410095052185113,"848":0.014689807654816539,"849":0.029230064682145816,"850":0.00247678028221528,"851":-0.0028599742679701157,"852":0.03555785517247765,"853":-0.019854327407937432,"854":0.005299354316236541,"855":-0.0010737577151039054,"856":0.003322535398942221,"857":0.018464516367124366,"858":-0.040894830383274454,"859":0.07113632234257564,"860":-0.006941830055744635,"861":0.04167503689885342,"862":-0.027069943573667248,"863":0.02618552909406239,"864":0.020644906331146132,"865":0.007857572326685033,"866":0.009674293198485465,"867":-0.012927575861101744,"868":0.023717266363746502,"869":-0.023608607940308075,"870":0.016712334114752304,"871":-0.004248369238592852,"872":0.004934711126901366,"873":-0.05463729911485856,"874":0.05592840604955708,"875":-0.032570351298240666,"876":0.06043926693173586,"877":-0.040811680001690005,"878":0.039309878883442076,"879":-0.05640323873535067,"880":-0.012255514241912572,"881":0.005357681534445222,"882":0.007819744154007068,"883":0.017747920763122225,"884":-0.047151712707015424,"885":0.005984472433206571,"886":-0.005006082813213092,"887":-0.007242032533502487,"888":0.02966295667595933,"889":0.041378985337938316,"890":-0.006477839399447232,"891":0.02438309659025301,"892":-0.02974998309570189,"893":-0.048779105691852134,"894":0.007894940642341272,"895":0.07791930514796053,"896":-0.028993433792953483,"897":0.01171397983936966,"898":0.012151080514810252,"899":0.024024233863857426,"900":-0.028620717222691505,"901":0.010479001524688721,"902":0.006470893152227382,"903":-0.021667501182646154,"904":0.003940745604399076,"905":0.010935645368132544,"906":-0.02253641906821477,"907":-0.058977704230103956,"908":-0.02374052189542769,"909":0.024755289917571147,"910":0.0341512908107564,"911":-0.00020495332743386479,"912":0.046032354739180756,"913":-0.002729274557557343,"914":0.01042721826150057,"915":-0.04360325825277199,"916":-0.020348236292956602,"917":-0.040710935912616056,"918":0.006144849217384978,"919":-0.015280584768825094,"920":-0.00521748532524737,"921":0.0031887006376672767,"922":-0.016318572746960143,"923":-0.03246415168443049,"924":0.019118825524629835,"925":0.008231046158552087,"926":-0.004128174614175334,"927":-0.04157489361846203,"928":-0.044288750374994676,"929":0.00783210869576447,"930":-0.0009066960606515419,"931":0.04986458198808101,"932":-0.06109288216016227,"933":-0.0002369138127934802,"934":0.004158091678911461,"935":-0.0397119619332354,"936":0.009572880980081806,"937":-0.020615322303984742,"938":-0.021641229930293958,"939":0.01767167737308728,"940":0.014708074935989232,"941":-0.013080199252567494,"942":-0.039816883030164014,"943":0.003919617623582636,"944":-0.04529532544278358,"945":-0.013477298323453261,"946":0.028979069285315524,"947":-0.024047692023838715,"948":0.022903180693673104,"949":-0.010768948944946637,"950":0.0006336944419043421,"951":0.06179363220292811,"952":0.05646012301522214,"953":-0.027607371390058175,"954":0.03500637019143569,"955":0.02526818692687007,"956":0.048104847889691466,"957":0.013752896402449047,"958":-0.010286886983559486,"959":0.016907961825847657,"960":-0.02700022375298766,"961":0.008498243642956047,"962":0.04450164733438999,"963":0.01462323218664778,"964":0.010252211093863426,"965":0.06456863276601896,"966":-0.012661573166483375,"967":-0.006277865029400435,"968":-0.0365020635072682,"969":-0.04487097657682418,"970":-0.07046690141547499,"971":0.03813381352479054,"972":-0.06043182917870703,"973":-0.02553167508159704,"974":-0.03459234176757614,"975":0.04359087932445865,"976":0.025195772811488534,"977":-0.02276617065283685,"978":-0.011055428508833298,"979":-0.031328840256688806,"980":0.0005736543836017665,"981":-0.016405459135819866,"982":-0.027732506575630467,"983":-0.016755037640327923,"984":-0.001642622442005207,"985":-0.006378402328203848,"986":-0.06431358499416459,"987":-0.05363077191948978,"988":0.042839935876096726,"989":-0.028704364854895397,"990":-0.03435312985742832,"991":0.012746287884319666,"992":-0.02420497448850146,"993":0.008071980840469627,"994":0.06890231749443879,"995":-0.009711340036484117,"996":-0.06313545926354806,"997":-0.008856487347531581,"998":0.018759416497678302,"999":0.0521320831976129,"1000":-0.014401398127916331,"1001":-0.0129438190498221,"1002":0.03245992516186084,"1003":-0.02557847836129678,"1004":-0.048744938149902634,"1005":0.016557544173634434,"1006":-0.011072683005613685,"1007":0.048372151577246406,"1008":0.030285041078721448,"1009":-0.0219335925574931,"1010":-0.017532992155741903,"1011":0.004011526422014465,"1012":0.0003265264864215825,"1013":0.00727114568318585,"1014":0.02411475798480829,"1015":-0.005443090137043011,"1016":-0.03804574360640099,"1017":0.04344940084294934,"1018":0.024066189246455354,"1019":-0.021965310994360436,"1020":-0.053388170770886596,"1021":-0.007701604019398241,"1022":0.027714102808695334,"1023":0.07226131329708446,"1024":0.008680057652802475,"1025":0.02403520539296629,"1026":-0.01341874694196285,"1027":0.006450685342768995,"1028":0.03115009480655286,"1029":-0.004985030571263023,"1030":-0.08026671812827585,"1031":-0.06981702200599495,"1032":-0.008633693421247512,"1033":-0.02716470309003721,"1034":0.010164250223042405,"1035":0.04637683528193086,"1036":-0.05545853149264807,"1037":0.009280431407830763,"1038":0.000989137140610168,"1039":0.034351876855933564,"1040":-0.03568866803263312,"1041":0.021379244497337486,"1042":0.03737471173520586,"1043":0.019226440191413875,"1044":0.0033527080790755593,"1045":-0.002306566098555322,"1046":-0.026488091613181317,"1047":0.04138247966490298,"1048":-0.041415917236678854,"1049":-0.022999088001385667,"1050":-0.006847487160773264,"1051":0.03446224680222521,"1052":0.026388040825402356,"1053":-0.023557786095580593,"1054":-0.012890426558889946}},{"sx":1,"sy":1,"depth":1055,"w":{"0":-0.02873981553770078,"1":0.06216626610654395,"2":0.04061543666810731,"3":-0.014575058392909264,"4":0.014319240728901679,"5":0.0030685366068643133,"6":0.025579899265437096,"7":0.004660270529205582,"8":-0.02177897821645785,"9":-0.005406874158346008,"10":0.00889166043468493,"11":-0.0404415033011655,"12":0.028518404653153424,"13":0.03355807252883686,"14":-0.007357421479700765,"15":-0.01597086207045743,"16":0.04043637600302538,"17":-0.012368300721226874,"18":-0.001110663015057012,"19":0.045986533959033134,"20":0.04432261204800277,"21":0.015419675112059907,"22":0.06505846438110278,"23":0.003537710274927731,"24":-0.00756360374995253,"25":-0.0051575896768144515,"26":0.06071104272849098,"27":0.06252703532853406,"28":-0.009136495464132234,"29":0.000530376768623716,"30":0.017247036231182053,"31":0.010680711335956947,"32":-0.015951549790716023,"33":0.01573380079969264,"34":-0.012959405239902168,"35":0.04026587081526118,"36":0.021599110497758072,"37":-0.015220990031623185,"38":0.05154457409790676,"39":-0.013380315082022561,"40":-0.009339864590138917,"41":0.015117328232641137,"42":0.024888934337168964,"43":-0.004601861016126541,"44":-0.06075172357095418,"45":0.03522377139277765,"46":-0.032836238469588865,"47":-0.04681986402232904,"48":-0.025937141885437005,"49":-0.02725553542917098,"50":0.04883425687281566,"51":-0.028186693454273395,"52":-0.048805610977615925,"53":-0.07208606571768195,"54":0.015976590963459342,"55":0.007049753016590915,"56":0.020812151890210066,"57":0.020873885515170575,"58":0.02643827053708,"59":-0.0018344612548188179,"60":-0.03370868553114546,"61":0.058702588870629464,"62":-0.0032863098879921506,"63":-0.0034426896378451062,"64":0.01748675776636877,"65":-0.0028831335966221345,"66":-0.010602968872534294,"67":0.03125557382574527,"68":-0.03859052536968377,"69":0.011439766716781518,"70":0.03153029714500081,"71":0.043023180518270386,"72":-0.008934407272125355,"73":0.03961010852970343,"74":0.03841588718942683,"75":-0.03787774981198563,"76":-0.0539501072271918,"77":0.014486459441519639,"78":0.017121721348623994,"79":0.018032035265689333,"80":0.002275323459652572,"81":-0.013726969152467818,"82":-0.01577930560482587,"83":0.025375417630659692,"84":-0.001669262383242778,"85":-0.014602667061735452,"86":-0.06547004581397571,"87":0.0019804449462736814,"88":0.03176175693267473,"89":-0.021721790069757614,"90":0.04291142729547736,"91":-0.013175205966408202,"92":-0.030478986167693005,"93":-0.00588264227789792,"94":-0.005468649361504813,"95":0.0031667874527375904,"96":-0.004093934687304859,"97":-0.0043815465089951655,"98":-0.031075989198951433,"99":0.05872917712100664,"100":0.034519897578794256,"101":-0.007378747236924674,"102":-0.001077671548453547,"103":-0.015695802663987634,"104":-0.0193810235355693,"105":-0.05750402223689601,"106":0.007925073047529247,"107":-0.0012352304274317837,"108":0.007091503515438391,"109":0.01268652908997203,"110":-0.003953933911532894,"111":0.005953628479632161,"112":0.0402466406559102,"113":-0.004307052340505493,"114":-0.0014202485219221527,"115":0.03626846501450994,"116":0.000980700296503316,"117":0.028117085781685227,"118":-0.03049746988589837,"119":-0.028039581799849035,"120":0.011451883456291943,"121":-0.010555511356292901,"122":0.009434516039450216,"123":-0.03770914717700875,"124":0.027746941309790624,"125":0.06470562098194231,"126":-0.05986557598593888,"127":-0.0569162534978923,"128":-0.011281823092397726,"129":0.009360883801636336,"130":-0.006078057945620113,"131":-0.04240654036386981,"132":0.002523086809502681,"133":-0.023952421621882804,"134":-0.013635660253233475,"135":0.037170552729318275,"136":-0.04651357372633799,"137":-0.020146702455412793,"138":-0.06387442706971846,"139":0.0014032095934089553,"140":0.01905192901477257,"141":0.022156542287269227,"142":0.0024639264846969175,"143":-0.005747731244354425,"144":0.039074382237203074,"145":0.018120390498524156,"146":-0.017953828770224393,"147":-0.01646021750048748,"148":0.02715208497265514,"149":-0.02364537261323054,"150":0.027909325066415528,"151":-0.03028142990119103,"152":0.005144799551759493,"153":0.009638767916389226,"154":0.049868921745783376,"155":-0.007742749689485249,"156":0.060172748620833987,"157":0.03065533535281015,"158":-0.001792820350009152,"159":-0.014316629461518685,"160":-0.02906400973617916,"161":0.024663832408389923,"162":-0.021179321562283047,"163":-0.02094831091652737,"164":-0.0015961343339322312,"165":-0.013926140522132998,"166":-0.004717429498502569,"167":-0.0028764295121985533,"168":0.0010729429253072047,"169":0.01329884243442144,"170":0.038045449151986925,"171":-0.060427288461360106,"172":-0.010617322560776238,"173":0.015032717539249245,"174":-0.0006979504412785321,"175":-0.0001850443971850552,"176":-0.025767869860374864,"177":0.07851573232685102,"178":0.004606617432231154,"179":0.03800119911302146,"180":0.03276663545319324,"181":-0.012331091785242354,"182":-0.024541996835915483,"183":-0.008533524481738322,"184":-0.022751633802399942,"185":0.04003041217827282,"186":0.009193881309405474,"187":-0.02942166678541878,"188":-0.04971059938495401,"189":0.04057174682682855,"190":-0.062433461683950836,"191":-0.028416228181943948,"192":-0.023191027096872093,"193":-0.06735001322656721,"194":0.022426330468581418,"195":-0.04609114007438966,"196":0.022249426458037357,"197":0.04708397832668863,"198":-0.017278649679507704,"199":-0.044003029559209976,"200":0.0039026486145494893,"201":-0.0023398420561755715,"202":-0.011004596298507693,"203":0.0077548711523110075,"204":-0.02902649961885997,"205":-0.00014075390743381805,"206":-0.005582463549404292,"207":-0.023558081049352066,"208":-0.04363847753738264,"209":0.019755665678054254,"210":-0.03192754154804471,"211":-0.022630542787524674,"212":-0.023523546715144648,"213":0.02910686379548167,"214":-0.02477719010305183,"215":-0.025540341261153638,"216":-0.028130204353539388,"217":-0.008428058242776811,"218":0.018348133783519096,"219":-0.01348600688633811,"220":0.01276606492696687,"221":0.024944478634789453,"222":0.013803217522164745,"223":-0.05333995953174366,"224":0.014504452176148552,"225":0.0043592811422200565,"226":-0.0011398533685988207,"227":0.03844784723536776,"228":0.0263320718164302,"229":0.07353598920973897,"230":-0.046381635133382317,"231":-0.011468510867017069,"232":-0.03138812087941266,"233":-0.05716527407344798,"234":0.028608370620731606,"235":0.02761818901250369,"236":0.008952959355101802,"237":-0.0144679934805746,"238":-0.014819597436786194,"239":-0.04156457393102165,"240":-0.008513417633554033,"241":-0.006614455420217852,"242":-0.005263504045953499,"243":-0.0009984891806279399,"244":-0.015718089846947694,"245":0.0029705112174549073,"246":-0.020535946994799718,"247":0.017884774601095027,"248":-0.07650427497624313,"249":0.03440256684285695,"250":-0.0032316054697413793,"251":-0.003971413774443023,"252":0.007197719253169872,"253":0.03686896778968797,"254":-0.002146886035046726,"255":0.010900746077036835,"256":0.0007295156600835649,"257":-0.005946695215566177,"258":-0.004860564228136715,"259":-0.05250324969157595,"260":-0.028652159322963503,"261":-0.0022638638386842,"262":0.00917617712316721,"263":-0.037485721172076325,"264":-0.03227599076181309,"265":-0.0161338641643346,"266":-0.021497127566321432,"267":0.021324005454495896,"268":0.017142275063981628,"269":-0.039455994580297665,"270":-0.011559772109334005,"271":0.035417336108769876,"272":0.018448445783287123,"273":-0.03661936846040382,"274":-0.07740244408810092,"275":-0.00856732323639665,"276":0.0028493001334784634,"277":0.021085224665565668,"278":-0.05211988009388722,"279":0.005013083622000156,"280":0.010248514572503425,"281":0.05226525036817398,"282":-0.025469555366724454,"283":-0.01542306073229459,"284":0.0037448187389116433,"285":-0.058826965384352954,"286":0.008750558105124248,"287":-0.0016828295860481532,"288":-0.043156169951144616,"289":-0.04733499062664693,"290":0.04146721306746907,"291":-0.05315026446380221,"292":-0.012645752522266409,"293":0.02906424242189986,"294":-0.039542579210584294,"295":0.003263623216705093,"296":-0.052037862068273856,"297":0.012194931846053688,"298":-0.03160302950546732,"299":0.026462597523836454,"300":-0.034628593990982046,"301":-0.03204325857118704,"302":0.02048206432220557,"303":-0.014812615364482827,"304":-0.0009775197498902986,"305":-0.06347176949192282,"306":0.029755893413887357,"307":0.006654085983094158,"308":-0.02248551294627927,"309":-0.009828387514506692,"310":-0.013131052242394466,"311":-0.054547308139049386,"312":0.012383605494303215,"313":-0.01583691654114009,"314":-0.01478452682902794,"315":-0.042604121018102147,"316":-0.011646482077231457,"317":0.015522391346047743,"318":0.03769278735878203,"319":0.06758557065983777,"320":0.026521695589099843,"321":0.02988087364348248,"322":-0.0031241927434086988,"323":0.018490449913182484,"324":-0.00859771121806047,"325":0.019316263082017598,"326":-0.0491468459594313,"327":-0.004543577692933818,"328":0.010299226541170084,"329":0.0028689683812575524,"330":0.0030746852299770844,"331":0.03847363266997649,"332":-0.03596641567062333,"333":-0.043068446676136574,"334":0.024755523681896298,"335":0.06040368241212435,"336":0.01883475965992352,"337":0.0009970128463346105,"338":0.019000793532030387,"339":0.005473552283881387,"340":-0.03897377319565068,"341":-0.015300145380367669,"342":-0.02820189025414912,"343":0.02084989683254078,"344":-0.028113761266953672,"345":-0.01268529380375149,"346":0.025836752414051724,"347":0.08688649073763867,"348":-0.00962966191462781,"349":0.02269025532329054,"350":-0.01800359209762939,"351":-0.036230335284509474,"352":0.032546694198090066,"353":0.08459555101298259,"354":-0.03973187911654067,"355":-0.0029191462152477034,"356":0.038062881904030725,"357":0.04138063129061981,"358":-0.005842641815981945,"359":0.001087635785894975,"360":0.018033983045528827,"361":-0.020422413370889944,"362":-0.042097246783740626,"363":-0.02641809015998699,"364":0.0277012054266646,"365":0.00986665455248473,"366":-0.023908168073987827,"367":-0.00939402741225422,"368":-0.044202958054944,"369":-0.01352571149541446,"370":-0.011395100049343587,"371":-0.021224719936510438,"372":0.0016077041606315351,"373":-0.05649131387262216,"374":0.00363804446685113,"375":-0.011405197687372361,"376":-0.02144846413616326,"377":0.006645334578147526,"378":0.031836197715984366,"379":0.0009157539454940243,"380":0.006578974954537798,"381":-0.009608300496180913,"382":0.013516407122741821,"383":-0.05140083057740528,"384":-0.029848109688354024,"385":0.004347415644028136,"386":-0.030897592255796576,"387":0.01204081638002833,"388":-0.005378498048365012,"389":-0.017848794034731844,"390":0.042636956109117816,"391":-0.019157937178224702,"392":0.017655922094142008,"393":0.009764479410069232,"394":-0.009340528864346852,"395":-0.009557804045145467,"396":-0.026182042148663865,"397":0.026658483026617656,"398":-0.006106252542550163,"399":0.0025029071640999064,"400":0.010824583774216233,"401":0.00012018253355458018,"402":0.0002647943054796618,"403":-0.031647621580985705,"404":0.012682710826764476,"405":0.04881123949529194,"406":-0.007132931904933062,"407":0.01720041773527273,"408":-0.016989403495711354,"409":-0.05634177894690283,"410":0.013797906174201803,"411":-0.0032550548323622033,"412":0.023689113305950846,"413":-0.0063846469287265365,"414":-0.0023900713578684832,"415":-0.025624217807722605,"416":-0.032866600107544656,"417":-0.013203200489351793,"418":0.006743444836774694,"419":-0.013144999101568305,"420":0.0040607847516881184,"421":0.011245476104179,"422":-0.007662081277541279,"423":0.016881707290672187,"424":0.007087940351665856,"425":0.025753601870171037,"426":-0.010587637032332262,"427":0.017562509047740465,"428":-0.02438270640245222,"429":-0.019375308630871713,"430":0.033950036717871425,"431":-0.003239145262084976,"432":0.030198161899503265,"433":0.005390913314666007,"434":-0.021355754274246512,"435":0.0005262265885025019,"436":-0.03147748060051024,"437":0.06086658209288929,"438":-0.014341898861960732,"439":-0.010216242825151746,"440":-0.00829887393795965,"441":-0.009038620265672126,"442":-0.007879952734451159,"443":-0.021408859445578448,"444":0.002424450175263242,"445":0.046285397439728745,"446":0.0022703647703781393,"447":-0.046903405772829476,"448":-0.014901278886085846,"449":0.025901519858599953,"450":-0.048151076359916785,"451":0.0316522942722571,"452":-0.016731615595429107,"453":0.0003373215858549076,"454":-0.03318881998906968,"455":-0.025408642873910103,"456":0.026624701915443836,"457":0.006896393213595562,"458":-0.03414601499834878,"459":-0.011733046489517836,"460":0.0066818495688946026,"461":-0.03037310980484797,"462":-0.07155553930904864,"463":0.011867968967771899,"464":0.028903962970453938,"465":0.018144156664320205,"466":-0.030791818120234973,"467":0.005798759464964347,"468":0.010680046688499874,"469":-0.033804310730736135,"470":-0.05494288011738272,"471":-0.0162788293358369,"472":0.002768098709798785,"473":0.0057133619071268295,"474":-0.013873349823159194,"475":0.037398367437838205,"476":0.01221117150612332,"477":-0.00921610567379007,"478":-0.03198737208409468,"479":-0.032352159329984836,"480":-0.0344467136581433,"481":0.02922495334777097,"482":-0.03937177164793568,"483":0.03910333878316704,"484":-0.0033807740616894713,"485":0.006840366705569758,"486":-0.05845671195697839,"487":0.007644119993112131,"488":0.023775113572402938,"489":-0.029281637262587926,"490":-0.019716637739516797,"491":0.06346446466927154,"492":-0.042731275095692675,"493":-0.0164327902036102,"494":0.01617932710986925,"495":-0.005777885613011249,"496":0.024500920936144362,"497":0.015390875122523531,"498":0.01937654824677041,"499":-0.006774985658245574,"500":-0.04371574240393607,"501":0.03571556264761049,"502":-0.04370731902172401,"503":0.04898591499712606,"504":0.008559813730865692,"505":0.0646111641043385,"506":0.028700978244819472,"507":-0.03283578493809102,"508":-0.053154058958427536,"509":0.017184270418063873,"510":0.04815294885091421,"511":0.028828287126090566,"512":0.010887352185098755,"513":0.0038135874965258476,"514":-0.010370474848958682,"515":0.046610806521646106,"516":0.021218647747187288,"517":0.006787582278628786,"518":0.013251237268034297,"519":0.012419839147107778,"520":-0.061452882069412226,"521":-0.04217206895245669,"522":-0.020086739637043164,"523":-0.030813396959323842,"524":-0.016813028623135915,"525":-0.005445739941546783,"526":-0.020053804875811997,"527":0.035029305212609926,"528":-0.03174355573190048,"529":-0.009959789306772228,"530":-0.04476448876359187,"531":-0.02290148855145502,"532":-0.021363823047429974,"533":-0.0030799412346126276,"534":0.019062891199040005,"535":-0.041018482563355343,"536":-0.04327610509455315,"537":-0.030160051526690743,"538":0.004941760045841649,"539":0.017600065701396102,"540":-0.0037569515229417395,"541":-0.016973079410133683,"542":0.0778266298210695,"543":-0.010619614451235979,"544":0.05475669006050068,"545":0.012904716417603814,"546":-0.03037470123440429,"547":-0.004860470172056654,"548":-0.022011185998304077,"549":0.01837450907230364,"550":0.011568722299721161,"551":0.009739890796230236,"552":-0.06688960714626893,"553":0.01335528285617061,"554":-0.006634162291971375,"555":-0.01657317090391011,"556":-0.00689788226210713,"557":0.05570167719494491,"558":-0.031191854071797604,"559":0.000728018966068272,"560":0.005016595194841781,"561":0.0029618691148824367,"562":-0.02189283002650442,"563":-0.026028340118986994,"564":0.008659345582485302,"565":0.04330626015157186,"566":-0.0007477936253029127,"567":0.05242654377631585,"568":-0.019404342953085425,"569":0.0566564192423925,"570":0.007398657674065678,"571":-0.007822028063159077,"572":0.021830292828428563,"573":-0.027680058644560995,"574":0.01621948304777155,"575":-0.02508430042667537,"576":0.010160169306524849,"577":-0.004118970203584468,"578":-0.049958104112733215,"579":-0.002293912453126569,"580":0.01347841217669608,"581":-0.0021923984598552267,"582":0.021068161866307965,"583":0.03411889659177925,"584":0.04539522668691297,"585":-0.046200179200796276,"586":0.006086378399748631,"587":-0.010592626132493748,"588":0.034898946912765086,"589":0.06829897827104849,"590":0.08744286642554058,"591":-0.02237347126352976,"592":0.03691401387057777,"593":-0.012379806044840715,"594":-0.0019793790444035033,"595":-0.01893726777480523,"596":0.02277237711947079,"597":0.06094104657072257,"598":-0.020569688740184302,"599":0.04176159907312089,"600":0.01068355963655008,"601":-0.014827052370369968,"602":0.017994946888240094,"603":0.03815408481096476,"604":-0.0014782313602682352,"605":-0.02618014033309079,"606":0.008454036967682458,"607":0.07012963645663259,"608":0.03444207034494389,"609":-0.006000098221488282,"610":-0.021691893467112828,"611":0.010533693593696646,"612":-0.025797966662676412,"613":0.06859165334575963,"614":-0.013118574201838056,"615":-0.05326216491713645,"616":-0.01139755548941427,"617":-0.029095267293551733,"618":0.010485479779082997,"619":-0.06534408408722202,"620":-0.014432950005717128,"621":-0.022655778002530966,"622":0.02615473207763433,"623":-0.019015582619457492,"624":0.07471346556541635,"625":0.015264618693475345,"626":0.008683985255507497,"627":-0.020333128548451415,"628":-0.05550014939238602,"629":-0.004511440624569387,"630":-0.031018859526386968,"631":-0.007387591740329898,"632":0.011975977609966016,"633":-0.02474548954705055,"634":-0.021525979730663173,"635":0.0016700205518117483,"636":-0.03746646255496253,"637":0.005404836981949335,"638":0.046071711324402013,"639":-0.047039223636607924,"640":-0.015896829624208936,"641":0.0667025909683045,"642":0.02814486893693632,"643":0.024527654197153855,"644":0.04105825582733436,"645":0.020047141384721783,"646":0.007636877770110334,"647":0.011800655736674041,"648":-0.007168470526365259,"649":0.03494079777952369,"650":-0.004242481399711269,"651":-0.010719300902696438,"652":-0.006646234441040858,"653":0.026466214006500552,"654":-0.014933754419355759,"655":-0.027561361534516233,"656":-0.0060029464951114045,"657":0.013780704541073625,"658":-0.05855296641065132,"659":-0.023555461667253398,"660":0.010962207976862962,"661":-0.026158820368574393,"662":0.05491401274366728,"663":0.02116699386858835,"664":0.001432865922887139,"665":0.015657781553806076,"666":0.0073232896717770534,"667":0.028392298930960718,"668":-0.0033604597921730412,"669":0.010287724991642138,"670":0.021249152004177832,"671":-0.039165433025807966,"672":0.0005920861958959697,"673":-0.01519210830329375,"674":-0.022768866507561256,"675":-0.047668229092005646,"676":-0.03814555121273979,"677":-0.004814597731790273,"678":-0.035029653678616345,"679":-0.010836011782169742,"680":-0.014259742845795854,"681":0.032096040296330446,"682":-0.020325724358525667,"683":-0.00839056686467047,"684":0.02050543851466687,"685":-0.009613059575852973,"686":0.019800883197483472,"687":0.019002441778471896,"688":-0.02087790902562939,"689":-0.02267192038628972,"690":0.02172561813541092,"691":-0.02655074528910833,"692":-0.002912537924045589,"693":0.012203902185933072,"694":-0.06280360715684111,"695":0.015103205845417004,"696":0.03275089433166678,"697":-0.014691359799189938,"698":0.013168588802444899,"699":0.0104851367409216,"700":0.041204615320219413,"701":0.014181813389747723,"702":0.04265963107785986,"703":-0.011478047827112176,"704":-0.03679998662193963,"705":-0.01304221646251694,"706":0.013941583661986138,"707":-0.022551219261230722,"708":0.06806744020129932,"709":-0.026597262399596557,"710":0.012214446230338008,"711":-0.014697124492428595,"712":-0.018205248650308852,"713":-0.04935709014172447,"714":-0.0049572712843830875,"715":0.011906314768573999,"716":0.05288766457504651,"717":-0.021059603757144614,"718":-0.006674677989473267,"719":-0.016955901171497693,"720":-0.0016888808945934816,"721":-0.015151811698282613,"722":-0.028312776622861233,"723":-0.008087037500862938,"724":-0.047658295641901896,"725":0.007591371973508768,"726":-0.003394343953519464,"727":-0.0241481753525972,"728":0.027988117856276456,"729":0.006673134766836504,"730":0.0033904036136936165,"731":0.0028110098307715836,"732":-0.03582049941442851,"733":0.004949638984196965,"734":-0.02758225367417013,"735":-0.017082342910843387,"736":-0.0016108348598151273,"737":0.02425114858635911,"738":0.06480707148651672,"739":0.0011183993158195172,"740":0.002183843410225893,"741":-0.036931384815981246,"742":-0.05591988958604752,"743":-0.01236349225943396,"744":0.00599552404477365,"745":0.043640713747403546,"746":0.026434657614029727,"747":-0.02933843387018385,"748":-0.029967397548858615,"749":0.031308619115313095,"750":-0.02454351918096358,"751":0.04673509861879694,"752":-0.026335582627296718,"753":-0.051055496083414,"754":0.017298762369228532,"755":-0.03990275839839754,"756":-0.04318496703903111,"757":0.021056837905663525,"758":-0.027269701908037524,"759":-0.038046836634956484,"760":0.0025978296666241307,"761":-0.011672622647964244,"762":0.025297642454255333,"763":-0.029341195784135035,"764":-0.022482941477299054,"765":0.004386168670020747,"766":0.0009889646398478526,"767":0.00033300697784157985,"768":-0.0330774119060662,"769":0.009210378867949247,"770":-0.034575171843939184,"771":-0.0125588526402133,"772":-0.00897692269073143,"773":-0.045581217343687946,"774":-0.04955270501073939,"775":-0.005684621464298127,"776":-0.06662741211937541,"777":0.012106866269318471,"778":-0.002481019943439437,"779":0.036566552381960854,"780":0.02595023664809735,"781":-0.02646274970952689,"782":-0.025398911572179446,"783":0.08385296931248325,"784":-0.011467203694976363,"785":0.016606860811263478,"786":-0.0070978059930033414,"787":-0.02951266869933441,"788":-0.026269837793596356,"789":0.007152754927835267,"790":-0.04079285027570851,"791":-0.04882232716182853,"792":0.036335948320066404,"793":-0.023240822720622424,"794":-0.002626746942030273,"795":-0.023148176646822085,"796":0.037094625647550596,"797":0.026553312567305844,"798":-0.029688108147523536,"799":-0.04110287645509564,"800":-0.027350278005101477,"801":-0.024693682712890765,"802":0.007769481008291792,"803":0.031558559617241855,"804":-0.002570694077376179,"805":-0.0008314558850562503,"806":-0.07925561846050076,"807":-0.014499381642650884,"808":-0.00495449738960094,"809":0.030005926977742917,"810":0.04256577132116742,"811":-0.03768370386423418,"812":-0.04253817641331643,"813":-0.0035335167539839382,"814":0.04358729905907143,"815":0.006162904065388687,"816":0.022629371352062787,"817":-0.032056974973940444,"818":0.0043495533548701245,"819":0.007194370876503251,"820":0.005699687757086499,"821":-0.012042269548765031,"822":-0.0027626205995540886,"823":-0.0223477142168332,"824":0.006594441323975389,"825":-0.013559417080380795,"826":-0.004062445537453998,"827":-0.013525989870624486,"828":-0.015183851312831745,"829":-0.00784557834093709,"830":0.0033514752592514164,"831":0.001329562693777707,"832":0.030175231246828044,"833":0.0032756375997356393,"834":-0.024508522426385043,"835":-0.034360405199308365,"836":0.0036890216953093602,"837":0.028861044547585472,"838":0.00656966182146849,"839":-0.0761711482620564,"840":-0.024243429328844428,"841":-0.008867687180465125,"842":0.004692120298571048,"843":0.018725561817522066,"844":-0.002188520756224474,"845":-0.04223078424888717,"846":-0.048281007842642665,"847":0.030720154992075026,"848":-0.020629807952366144,"849":0.028923789381620355,"850":-0.04572682982347603,"851":-0.0005142710670257476,"852":-0.005233030259064307,"853":-0.025116854995937892,"854":0.04041542705618166,"855":0.05879096967314968,"856":0.028605245443383404,"857":-0.02092200633117674,"858":0.005117148591223549,"859":-0.0356678603216007,"860":-0.011916304029132282,"861":-0.034968298560120806,"862":-0.008632349744385676,"863":-0.061842918594783206,"864":-0.035858196832371,"865":0.03531221056999122,"866":-0.011488172741721451,"867":-0.03054132620814997,"868":-0.03139765910410353,"869":-0.011606229236335983,"870":-0.01766714327648787,"871":-0.002292858138377127,"872":0.017547021888057308,"873":-0.012896733719187686,"874":-0.019827293765077313,"875":-0.012777653228718204,"876":-0.02230702438701625,"877":0.012186531236339377,"878":-0.015997122233690188,"879":-0.007873924556772903,"880":0.02719075819818779,"881":-0.017644792265375794,"882":0.0072104673211029115,"883":0.006923182304372148,"884":0.007044348670941946,"885":-0.037336639700239455,"886":-0.00990004674754718,"887":0.01090865365109712,"888":-0.020701324478744617,"889":0.05116383962769474,"890":-0.01571057740572787,"891":0.0193175259116216,"892":-0.022557705676220098,"893":0.002156076233610654,"894":-0.010678116912215471,"895":0.02835591586025442,"896":-0.009144374116399297,"897":0.02336211058842087,"898":0.02107978951363115,"899":0.02405301010555046,"900":-0.07134640394337205,"901":0.008116419989282472,"902":-0.037371833275684045,"903":0.02833433177223521,"904":0.004518714208352184,"905":-0.05380611758623014,"906":-0.006291161364872588,"907":0.004541923107619475,"908":-0.04543549370764664,"909":0.018633410243154704,"910":0.011705777619960821,"911":-0.020362598474901072,"912":-0.0129161406010931,"913":-0.021511068579238343,"914":0.04082605007057985,"915":-0.021011970155141314,"916":-0.007003270618825263,"917":0.0386621633702304,"918":-0.01088801362055594,"919":-0.015567147850246427,"920":-0.018088408821959702,"921":-0.024241867986121702,"922":-0.008462441463605362,"923":-0.05072936352802955,"924":-0.03091679815496564,"925":-0.03745907835284174,"926":-0.008232171198181022,"927":-0.022071378989410705,"928":0.027226190204231837,"929":0.037050109345201525,"930":-0.03320624454131335,"931":0.024053063978130097,"932":-0.007202236313928238,"933":-0.03548364006919248,"934":-0.012350654125867503,"935":-0.0304160267045872,"936":0.017178763198749804,"937":0.005854511371156046,"938":0.018530056587648894,"939":0.010365345039079722,"940":0.008015394344027734,"941":0.0016254761122416446,"942":0.006234604292395979,"943":-0.04477108444968406,"944":0.00805150751806553,"945":0.04829690309834121,"946":-0.008395167916004715,"947":-0.04468858700526475,"948":0.06265645507423029,"949":-0.007495522863314553,"950":0.0015306124955829158,"951":0.059981555930426596,"952":0.010876700802443543,"953":0.003581699500157011,"954":-0.0017619716121031214,"955":0.023077455608147363,"956":0.029391771996918933,"957":0.009323917307653008,"958":0.051288232634440295,"959":0.022389474818494383,"960":-0.03620677432657847,"961":-0.03610977264960512,"962":-0.0016637907909579264,"963":-0.008282642758569107,"964":0.0040150011948399,"965":0.014185785784256449,"966":-0.011475983421564813,"967":-0.027883422819164894,"968":0.055039074549402545,"969":0.02215138277526962,"970":0.007399791830537974,"971":0.018943585973209952,"972":0.038296054512451244,"973":-0.025891094345331638,"974":0.0024597908763048398,"975":0.024003954589865324,"976":-0.00032754651445364506,"977":-0.04225974324277559,"978":-0.004669038206097648,"979":-0.0016560583123621006,"980":-0.034567103251341214,"981":0.02478971623815152,"982":0.023808902771790652,"983":-0.026335092253584824,"984":0.038454619779570945,"985":0.04644075249256759,"986":-0.010077107747765596,"987":-0.03514689186952203,"988":-0.030089692742653565,"989":-0.06045661357022999,"990":-0.0034882017923754216,"991":0.05692025208449451,"992":-0.04469886207761694,"993":-0.020842186517440447,"994":-0.02064700708539855,"995":0.028230821609346923,"996":0.04169666254804496,"997":-0.03294395363465017,"998":-0.01188532408540036,"999":-0.05537881913378061,"1000":-0.023897683266610414,"1001":-0.004360442974801306,"1002":0.01766244998925106,"1003":0.054096920191859924,"1004":-0.027622227110054832,"1005":-0.0002976336211485644,"1006":-0.028276580886733443,"1007":0.05860221482232433,"1008":0.03735337193853303,"1009":-0.04127271685015851,"1010":-0.04558516412016651,"1011":-0.010147668861391176,"1012":-0.08495660684094963,"1013":0.05920578569393902,"1014":0.04398601772669906,"1015":0.03100749578755809,"1016":-0.02202343532125684,"1017":0.04067429690747719,"1018":0.00018137593528069017,"1019":0.023228610119173182,"1020":0.01950035044772544,"1021":-0.056763015319321514,"1022":-0.05066989116901544,"1023":-0.015247057524923918,"1024":0.03906253648599435,"1025":0.0033252176613808304,"1026":0.009551084586218138,"1027":-0.07128230756972909,"1028":0.06268425499819931,"1029":0.010201273832863485,"1030":-0.034872699642693496,"1031":0.01475332223913441,"1032":0.0028779245828167072,"1033":0.0136530449855524,"1034":0.005545646080087434,"1035":0.0250887335476384,"1036":-0.013636860351913742,"1037":-0.038352940233966196,"1038":0.03389910217107984,"1039":-0.06625309021164712,"1040":-0.030338887680352204,"1041":-0.022026208080856705,"1042":-0.03654902363992299,"1043":0.05751991372824835,"1044":-0.012917864084150276,"1045":0.033940293880073615,"1046":0.027760678486251363,"1047":0.014902682707619278,"1048":-0.0035930177851221257,"1049":0.010107916380773766,"1050":-0.04677768951023113,"1051":-0.019288099984385174,"1052":-0.030180868110343772,"1053":-0.01897782666158642,"1054":-0.045877885353988256}},{"sx":1,"sy":1,"depth":1055,"w":{"0":0.01910603000074327,"1":0.01018262443279457,"2":0.002511468344893678,"3":-0.008621218300092904,"4":-0.006771177065882277,"5":-0.04368058223202186,"6":0.012131416432512674,"7":-0.015283951327976433,"8":0.012022312320305593,"9":-0.060801160285001724,"10":0.002578097682668101,"11":0.021175312402922846,"12":0.06894584234584714,"13":-0.022269156073128255,"14":-0.008491103182578416,"15":0.028193494616754133,"16":0.007199351847060613,"17":0.03400641901633939,"18":-0.013640311800112525,"19":0.05312752587826711,"20":0.039687291726804776,"21":0.010471037282826454,"22":0.03500359018674164,"23":0.0041683788691485165,"24":0.048500472904897084,"25":0.029987275710023516,"26":0.021565015937418407,"27":-0.015666552116345756,"28":-0.0058917069172135005,"29":-0.009988764200921452,"30":-0.010273892002648038,"31":0.04660877645408495,"32":0.04141388295264257,"33":-0.023873404606587375,"34":-0.04536079853846168,"35":-0.017014834763191856,"36":0.0015427407946002037,"37":-0.059895514751237236,"38":0.011403154251295353,"39":0.0029885235868849255,"40":-0.016947672828476788,"41":0.05551191089097719,"42":-0.03822320986570103,"43":-0.006820024943548763,"44":-0.0044145731138548645,"45":0.0625714805723993,"46":0.01801389617695128,"47":0.02690817151693064,"48":0.017461541120718183,"49":0.008565903310777669,"50":-0.008569443544460145,"51":0.02278075103620928,"52":-0.019084858716404536,"53":0.0410371361464722,"54":-0.00227793417090141,"55":-0.004848330015461556,"56":0.008526943895450105,"57":0.06967852063348777,"58":0.053270706132052585,"59":0.02240644620343077,"60":-0.00470902518278942,"61":-0.08349531448164682,"62":-0.00638317447097643,"63":0.005931710056598865,"64":0.02983651622004113,"65":0.02254526102222788,"66":0.026952980710159027,"67":0.010275786075675915,"68":-0.01380495656182469,"69":-0.010391986093616561,"70":-0.024009479619245003,"71":-0.004629693345052777,"72":0.009650023411509683,"73":0.06427294201599432,"74":0.050565769009727174,"75":-0.05107033860096571,"76":-0.0043583593339294215,"77":0.10917623912642274,"78":0.020484107366716787,"79":0.004562429684014344,"80":0.034353355114024264,"81":0.01984216385178751,"82":0.004279647908296013,"83":0.054273579386345625,"84":0.012995783471305714,"85":-0.005467854790380599,"86":0.025969325647290657,"87":0.016517151631350858,"88":0.037617422363845465,"89":0.009242550496841896,"90":-0.024545549117532817,"91":0.031237187724763017,"92":0.040145937616021594,"93":0.0344673487186939,"94":-0.047323581980731,"95":-0.03323578798836746,"96":-0.029318592011489907,"97":-0.02609995284185245,"98":0.0404489672434945,"99":0.024110320455910647,"100":-0.002323239815057751,"101":0.004894872734679231,"102":-0.0510067749589792,"103":-0.034956353222178556,"104":-0.0030667695512640774,"105":0.00207038458603512,"106":0.00345570003031532,"107":-0.04594088672175779,"108":-0.015127231150014407,"109":-0.007281948168437125,"110":0.06355900304288782,"111":-0.0008037987982600402,"112":-0.010849041474631805,"113":-0.018187670914812423,"114":-0.0030898676664588283,"115":-0.05151642510452592,"116":0.00606350264356345,"117":0.011246280131093538,"118":-0.02290767024837848,"119":-0.000959899751176622,"120":-0.05197459365098856,"121":-0.017308891490405334,"122":0.03383904801602513,"123":0.01485864296848789,"124":-0.03434706493553511,"125":0.006492187752941882,"126":-0.037078340686288985,"127":-0.012796949589098775,"128":0.0041495372690361285,"129":0.018752605444029305,"130":0.04859697427866181,"131":0.009316920895851873,"132":-0.03234285633009145,"133":-0.03281105996278178,"134":-0.04704968192375013,"135":-0.040846036060728834,"136":0.0659000467502484,"137":-0.02383822196777054,"138":0.03956319470434403,"139":0.0016935170427116821,"140":0.00004540445507829793,"141":-0.02458495770884664,"142":0.0014518586408325774,"143":-0.005354694315146678,"144":0.0024085648445459425,"145":0.03647699770098777,"146":0.002831646942267324,"147":0.03709509867656719,"148":-0.0024483114592417617,"149":0.048700471730606126,"150":-0.003873228187155624,"151":-0.0030835625802424185,"152":0.0635386448055106,"153":-0.03133807375600507,"154":0.005342544213253183,"155":0.0441479460988978,"156":0.0125003904909575,"157":0.014790912572434386,"158":-0.0732483294554857,"159":-0.020427447585477366,"160":0.02468830887245409,"161":0.041777932821577234,"162":-0.019836207353971142,"163":0.04268416060138993,"164":0.0031503306144760354,"165":-0.06640239528091879,"166":0.014523747617237848,"167":-0.018393684394972094,"168":0.02458738287674771,"169":0.03365706646674544,"170":-0.0027838343381769676,"171":0.01792609650427769,"172":-0.056783590895778044,"173":-0.06275223542922552,"174":-0.07901828522429127,"175":-0.06575087337858472,"176":-0.020741151856537434,"177":-0.04143004871063864,"178":-0.04900264622992883,"179":-0.027060053382177342,"180":-0.025488854609953267,"181":-0.05873000568412911,"182":0.03192530212342369,"183":-0.06314850846091985,"184":-0.02830857822893711,"185":-0.028332966881927858,"186":0.0054578022016283385,"187":-0.01121374656139897,"188":-0.01780845157515506,"189":-0.040759248706355486,"190":-0.03269545542193374,"191":-0.02001575703276181,"192":0.014171219096289737,"193":0.0019850834147123486,"194":0.011017783987707218,"195":-0.024455622222734986,"196":0.027779281632728255,"197":-0.007146620379456233,"198":-0.013351472922678112,"199":-0.05438925320404813,"200":0.011452111058169193,"201":0.026702458577837502,"202":0.031246723589662115,"203":-0.026208829821596606,"204":0.021234757003360607,"205":0.0261749365912034,"206":-0.01393866189469429,"207":0.0015958674103712413,"208":0.00022287262964953877,"209":0.020630360305509972,"210":0.055255144129864056,"211":0.004448846634673862,"212":0.029241944412724957,"213":-0.03692982520230627,"214":0.0032303086414833863,"215":-0.04183666027959769,"216":0.02017912850932042,"217":-0.0002262125858625854,"218":0.008484690170396792,"219":-0.04479520221373502,"220":0.05018082108840466,"221":-0.03323171207361235,"222":-0.032327468971616785,"223":-0.011023429727187296,"224":0.03459385144239608,"225":0.046420447858882226,"226":-0.03656810183679264,"227":0.01812904074514629,"228":-0.021466853353112048,"229":0.04110615286823362,"230":-0.012460554193435575,"231":-0.006951204281714916,"232":-0.011426898512226311,"233":-0.03784498317112274,"234":-0.02889133880285587,"235":-0.019159141701400744,"236":0.01987608476913592,"237":-0.05034218687063987,"238":0.021236549702320372,"239":-0.016803568214660065,"240":-0.022654220830732878,"241":0.02283159847462301,"242":0.017185244772498887,"243":-0.02136296499554469,"244":-0.0018415500744044827,"245":0.07131069897703075,"246":0.029260567344449543,"247":0.004200011037465259,"248":-0.01896852641616927,"249":0.030669529735576764,"250":0.01358011772976516,"251":0.02706161265199297,"252":0.011409476460568885,"253":-0.03473280189442881,"254":-0.0028241809553535995,"255":0.012434564270570842,"256":-0.009911404663535886,"257":-0.021292740036830158,"258":-0.013752191162538537,"259":0.016457076484996672,"260":-0.011542661429278568,"261":-0.05859948109804305,"262":-0.009921671143217719,"263":-0.0031570336116321673,"264":-0.02003197855363741,"265":0.01253398050982417,"266":-0.002479621791804923,"267":0.00920343450339297,"268":0.030526049931516624,"269":-0.04405605957451809,"270":0.013831880972357853,"271":0.026459378693087975,"272":0.02486128916343662,"273":0.028298093845002592,"274":0.010492765449093978,"275":-0.032923090260500755,"276":-0.011237656748453695,"277":0.01234165624165495,"278":0.061032559342688614,"279":-0.04026692471493583,"280":-0.03304469603942781,"281":-0.010115606804205923,"282":0.012405865264399128,"283":-0.03165950176820875,"284":-0.0207474082272014,"285":0.0409220136677236,"286":0.0041149929656878375,"287":-0.036659039034300255,"288":0.00017318532031698153,"289":0.0315136522804318,"290":-0.02039022720998622,"291":0.02895633104486901,"292":-0.02494674857770773,"293":0.03013265918598959,"294":0.00044030856933904486,"295":-0.03282101045278331,"296":-0.036384005331770455,"297":0.026729654638208058,"298":0.02275595113483882,"299":0.043523222074994566,"300":0.034113769448581,"301":-0.005903031731395586,"302":0.03449064804794949,"303":-0.025702998899420654,"304":0.01691190778403848,"305":0.04253290617577402,"306":-0.012741856400299404,"307":0.0031866024304913502,"308":0.05221239524161419,"309":-0.019301334611600766,"310":-0.023854738364314444,"311":-0.008153480153137535,"312":-0.02679478555237821,"313":-0.050506925503594695,"314":0.004941942658142559,"315":0.044270674635794836,"316":0.0016797555083000214,"317":0.004071274482502913,"318":-0.014782779492413295,"319":0.009357340687628772,"320":0.0452115021066731,"321":0.002792114265828597,"322":0.019152301483019524,"323":0.0423203113619775,"324":-0.006813159899689949,"325":0.021421368125697622,"326":-0.027942242250015605,"327":-0.005643538442639922,"328":0.012425560997115408,"329":-0.05454435472658132,"330":0.04308649623936192,"331":0.014589889073076706,"332":0.012580287740724273,"333":-0.004686421239434526,"334":0.02719189412729909,"335":-0.057659249345429986,"336":0.016977436544428688,"337":-0.025834206235261552,"338":0.02239831168994176,"339":-0.01499525112695199,"340":0.030451235620974987,"341":0.029454473409959988,"342":0.029661920357315002,"343":-0.02427978104020442,"344":0.015431905597362995,"345":-0.01024728231522138,"346":0.017044445363324355,"347":-0.0342917401392389,"348":0.0029746613989117656,"349":-0.005843586760629086,"350":0.015006445121718363,"351":-0.011098394503579714,"352":-0.025405495225205223,"353":0.030905419019147996,"354":-0.02256100818294749,"355":0.06164251138200955,"356":0.03340463195589858,"357":-0.05216234009498415,"358":-0.011720099843867562,"359":0.006432882985207732,"360":0.019963358248691408,"361":0.013973777169539599,"362":-0.0584658083351593,"363":0.010353869823254,"364":0.01489601629105194,"365":-0.010475979182708447,"366":-0.003827928636368456,"367":0.03845028007516789,"368":0.027483465518032896,"369":-0.004806307837103279,"370":-0.01916661014757792,"371":-0.03277554656185349,"372":0.0405353092268728,"373":0.006551784630436893,"374":0.0004916970098553364,"375":0.014826109221098867,"376":-0.029731888317257434,"377":-0.012003186599992381,"378":-0.028996385106666186,"379":-0.004815317792944568,"380":-0.012515233744066809,"381":0.028453427327566134,"382":0.016678351149194054,"383":0.016569054482108787,"384":0.040876410005270175,"385":-0.031521526524600815,"386":0.0017348858498824578,"387":0.029318550814273963,"388":-0.06199494595372144,"389":0.05318660155817358,"390":0.026162443486957683,"391":0.012788043368631735,"392":-0.02851885777111809,"393":0.012419945399320434,"394":-0.006054840211121734,"395":0.03240582241475744,"396":-0.04707362628381848,"397":0.01540794764148286,"398":-0.014430058618454533,"399":0.014572268287512206,"400":-0.006535364627970216,"401":-0.015767067028509267,"402":0.00992712481921085,"403":-0.005421301601842456,"404":0.013945381154428001,"405":-0.011365614373656442,"406":0.047525453213889894,"407":-0.06917764821929384,"408":0.014960389809509969,"409":-0.03564151330021005,"410":0.02088590378064475,"411":0.019186972887797468,"412":0.017213409083435362,"413":0.04499721330319414,"414":-0.040225122922251104,"415":0.007718478324008501,"416":-0.008020840689672161,"417":-0.0017741892082899858,"418":0.021077394042662345,"419":0.02990097749864572,"420":-0.01987361295904646,"421":-0.023931742723580163,"422":0.03758372244262491,"423":0.037538027690783314,"424":-0.031142970800246927,"425":0.019502972607885225,"426":0.06825121514508208,"427":0.07023459996222546,"428":-0.07459795573976138,"429":-0.04420411445366014,"430":0.04574976660042047,"431":-0.036043690464889075,"432":-0.03924704559887462,"433":0.03321045142807675,"434":0.022887913889266732,"435":-0.012901611147183094,"436":0.058304571080337375,"437":0.03355440484323746,"438":-0.02539752484481514,"439":-0.01477569712206045,"440":-0.027634228651776525,"441":0.011125997874780615,"442":0.03521779970604976,"443":0.030116824984813894,"444":-0.00027472515379500085,"445":0.01746950103086758,"446":0.038880933480100174,"447":0.05532140452470142,"448":-0.01873247464062683,"449":0.018780816425529832,"450":0.03393425900716975,"451":-0.014213143985406499,"452":0.0025781488246728926,"453":0.004447805952185062,"454":-0.02544373057985306,"455":-0.06762318186876,"456":0.038936177091262056,"457":-0.028210814546023418,"458":-0.0042034359591379845,"459":0.0024812209112599222,"460":0.002722365287341932,"461":0.04150685020581686,"462":0.0385183256559959,"463":0.013055022566488786,"464":-0.07594530296175932,"465":-0.028455979450018074,"466":0.014858875269196072,"467":-0.023699988996627525,"468":-0.005414815105733758,"469":0.018432560403384413,"470":0.014680891111131003,"471":-0.00564193577315714,"472":-0.02345239614723298,"473":-0.02933464799749584,"474":0.05550851146745967,"475":0.014403104869612009,"476":-0.00220303636112083,"477":-0.010873271580043625,"478":-0.00818192314091301,"479":-0.04282795912794585,"480":-0.00020267930299444902,"481":-0.01566425425395751,"482":0.0034161914526400746,"483":0.015538157032158554,"484":-0.012021114445716167,"485":-0.03425671064927961,"486":0.012966644680309669,"487":0.02628973118996659,"488":-0.050513148973683,"489":-0.07390744408962356,"490":-0.05127938405710179,"491":-0.011090300092305633,"492":-0.025148145000994968,"493":-0.026683241369538816,"494":-0.011544277972054932,"495":-0.06701898929817354,"496":-0.02232094633416998,"497":0.008668309914747228,"498":-0.028546354379554092,"499":0.02154064888223623,"500":0.011765160834501256,"501":-0.06158584967813751,"502":-0.004185946871406787,"503":0.007559425590756714,"504":0.0310291459393839,"505":-0.015399230892643275,"506":0.0028993550163849643,"507":-0.00407318400871563,"508":-0.026774172656707295,"509":0.035416913364849284,"510":-0.0027038857142543432,"511":0.012727182739551491,"512":-0.004757770679498533,"513":0.025672745812694055,"514":-0.036143034131135184,"515":-0.03368527747555743,"516":0.007842441792002944,"517":-0.018926040974216917,"518":0.024376291194320762,"519":-0.01387807616963086,"520":-0.054636909348752316,"521":-0.032961783635757747,"522":0.04257306781689207,"523":0.022733506040512587,"524":-0.029730977693459636,"525":0.014924040063017618,"526":-0.012121415223064473,"527":0.03809834751156676,"528":-0.020171383621097928,"529":0.017914008491951086,"530":-0.043463752488750264,"531":-0.009320109853659816,"532":0.009504117073315083,"533":0.022234344048405283,"534":-0.054841977293496214,"535":-0.03515013555878416,"536":-0.06328995739721842,"537":-0.010800118800445721,"538":-0.023807930232645165,"539":-0.02547432500874001,"540":0.02017012042714884,"541":-0.057676410518252716,"542":0.04971079098342224,"543":0.007520381869333248,"544":-0.03616911180046835,"545":-0.05450729885504702,"546":0.041045987496244135,"547":0.022771927574169654,"548":0.003356160548197305,"549":-0.00984731444695592,"550":-0.022156709752831023,"551":-0.029856780370212773,"552":0.023242640999164562,"553":0.012416999771411913,"554":-0.0005757286869296527,"555":0.017750994829463317,"556":-0.028406367693802247,"557":-0.048164087847728035,"558":0.0044643581948831225,"559":-0.03909361933263222,"560":-0.011041789481724818,"561":0.0711648621093998,"562":-0.020112374965430335,"563":-0.0224567573060304,"564":0.049738440689577314,"565":-0.01776759092573814,"566":0.04683389228826345,"567":-0.011696715790698246,"568":-0.015767661787179744,"569":-0.06927174653411552,"570":-0.06592775031426458,"571":0.012665706697128529,"572":-0.03929442434316091,"573":-0.025972160860322602,"574":0.013272657484957038,"575":0.03990900311005005,"576":0.0012833402844313906,"577":0.012312198161251826,"578":-0.009413336728038253,"579":-0.0108569720595639,"580":-0.008522102132960485,"581":-0.014677758283973191,"582":0.0024262173742310472,"583":0.0031911577563689827,"584":-0.03822267540344037,"585":0.014944550671462938,"586":-0.019417048902602974,"587":0.016558773336768678,"588":0.011851740005467721,"589":-0.014177097110088516,"590":0.019639664408372566,"591":0.02746714971556125,"592":-0.014388869859533818,"593":-0.021479040182085504,"594":0.0022652518869864012,"595":0.04980821296901323,"596":0.021667828786547418,"597":-0.015657952961626004,"598":0.02039367192960215,"599":0.014756158351140226,"600":0.010008054189292388,"601":0.044867686074390366,"602":-0.004694565314427623,"603":0.006980743482190886,"604":-0.012114987326522664,"605":-0.005273318409816881,"606":-0.027316268404873348,"607":0.030962699801564048,"608":-0.03226506394363315,"609":0.03491995425761714,"610":-0.03930539205895377,"611":0.0014244028354876335,"612":-0.0016765273941538252,"613":0.007709413598970803,"614":-0.0033980732332058094,"615":-0.0137749146007852,"616":0.0030015416523788514,"617":0.02824404035057968,"618":0.01864406116649005,"619":-0.060115765585336316,"620":-0.011552548015781585,"621":-0.006994493364936011,"622":-0.0068762439874640625,"623":-0.024392696839930197,"624":-0.02908290957451185,"625":0.0049246062780530795,"626":-0.005495591351202176,"627":0.022152722119204805,"628":0.03892747586893173,"629":-0.031147413075486127,"630":-0.004993832296414156,"631":0.046246505288162355,"632":0.013103381698699432,"633":0.04171320715171486,"634":0.014950143365640989,"635":0.05156421065890378,"636":0.009213398670290349,"637":0.01901390710669994,"638":-0.003450832036794704,"639":0.06248075553562221,"640":-0.008024145415356886,"641":-0.0019319617565725959,"642":-0.009847794335747364,"643":-0.033803416876915335,"644":0.012732703735920267,"645":-0.03666047893311819,"646":-0.027447015401441482,"647":-0.04166427035047877,"648":0.037526613583958736,"649":-0.051395398732165885,"650":-0.07033033166807034,"651":0.01595915224374032,"652":-0.00833810880599233,"653":0.014225921196090176,"654":0.02643706344786584,"655":0.07635559454427551,"656":0.0327379377009225,"657":-0.0631149886470112,"658":0.00905667272728032,"659":0.01255356851822719,"660":-0.010169112915358238,"661":0.023011027490281506,"662":-0.030752704565000597,"663":0.006525482268047318,"664":0.009129352346563998,"665":-0.043506051714661466,"666":0.04178677481322714,"667":0.005858502909588286,"668":0.014593317762909012,"669":0.06173215723979749,"670":-0.013740287980562331,"671":-0.007545972575393343,"672":0.01954175023087175,"673":0.017208600824462815,"674":0.029419352202409405,"675":0.025037833995912938,"676":-0.012376874387300455,"677":-0.008123484103244486,"678":-0.026996222741948354,"679":0.019251458009367898,"680":0.048999053357599735,"681":-0.01727958821701968,"682":0.013382350358758077,"683":0.036291816775261346,"684":-0.015237614861849056,"685":-0.012730467787535369,"686":0.042998480841367606,"687":0.002795373714410832,"688":0.033136811513787875,"689":0.02812866543165466,"690":0.0027711300103294544,"691":-0.023677030107627114,"692":-0.023180543116865907,"693":0.036495936389051076,"694":0.052530575404080945,"695":-0.0103383171620467,"696":0.02162749848024223,"697":-0.012687757720377215,"698":0.0142911575375158,"699":0.028494705272452913,"700":-0.0013665532588962466,"701":0.0035423859434893443,"702":0.02195846289496971,"703":0.015134950472242678,"704":0.022542285511016395,"705":0.0191160666715335,"706":-0.021528292751237736,"707":-0.027264697631054,"708":0.022687020585728218,"709":-0.0006452443037823838,"710":-0.0007344427657441808,"711":0.005642669403435067,"712":0.032683088136483754,"713":0.03472625346282968,"714":-0.018061304048876584,"715":-0.018752886444276872,"716":-0.05009161060339248,"717":-0.042585053025465586,"718":0.015901583072172897,"719":-0.004831418302895336,"720":0.030157834334832906,"721":-0.02684251178180156,"722":0.03572991521268165,"723":-0.018574681288388586,"724":0.023361332259519474,"725":-0.007747898908362699,"726":0.05382254709044045,"727":-0.049746857533462016,"728":0.04094724874311391,"729":0.024223093655383512,"730":-0.00414789906707295,"731":-0.04307065980887182,"732":0.027834880390254915,"733":0.0024447741083864173,"734":0.04361241156671162,"735":-0.013654950492170158,"736":-0.02646039087252815,"737":-0.004016871306869357,"738":-0.008810783150733775,"739":0.006668902035673077,"740":0.03147308639657221,"741":0.029346868568869606,"742":-0.0009883472047815679,"743":-0.028041231695612838,"744":-0.02769130498277233,"745":-0.004722181888597381,"746":0.033670524893058544,"747":0.012632048914510946,"748":-0.028452107718224,"749":0.02457516408947878,"750":-0.006026392365148698,"751":0.04597661465884838,"752":-0.008598740682204535,"753":0.006403616125000025,"754":0.009616824159095837,"755":0.00676602530341368,"756":-0.01700474571040923,"757":-0.02560518109877415,"758":-0.020284303697726127,"759":0.019118992415167273,"760":0.03979197129598111,"761":0.03794859815142422,"762":0.028900522295831125,"763":0.0440147405358534,"764":-0.01489929257085016,"765":-0.0004255160178472556,"766":-0.031913665333306224,"767":-0.029961232149525785,"768":0.0024833248019391517,"769":0.014122310182467871,"770":0.001671269499575548,"771":-0.07701942391053695,"772":0.036080743815984834,"773":-0.010441091673168089,"774":-0.0020334265506308374,"775":0.03186320080805681,"776":0.015702583335169048,"777":0.02695493625302179,"778":0.06167155241336174,"779":0.07072798311090611,"780":-0.029156160158465453,"781":-0.04484495581103048,"782":-0.02037640576395184,"783":0.02914889329080928,"784":-0.01161044554053537,"785":-0.07354063415984764,"786":-0.01722403419662666,"787":-0.02831962838591227,"788":-0.009736614030612161,"789":0.004416257353086352,"790":0.05521342070821715,"791":-0.04207928998928913,"792":-0.0006611238055268644,"793":-0.0010063640053602355,"794":0.0008505500309564552,"795":-0.00391751138477539,"796":0.00647574450160491,"797":0.043187011447604604,"798":-0.0028159972056352955,"799":0.03135630365737682,"800":-0.0018980440388272804,"801":0.09755972371222245,"802":-0.018834214515530384,"803":-0.007679758349134302,"804":0.005920710367478212,"805":0.00932458924913466,"806":-0.017097431360505025,"807":-0.03273154181389178,"808":-0.004954585292151742,"809":0.006392454127413928,"810":0.003146176828672141,"811":-0.04570703175924528,"812":0.03402189445222458,"813":-0.026985203223375134,"814":0.030578900643916624,"815":0.021726917623933455,"816":0.06384154175664876,"817":0.024296319423091996,"818":0.006731830787368408,"819":-0.00024421617232871836,"820":-0.013127475253202152,"821":-0.008654869335682751,"822":0.0074877924237652695,"823":0.0437729131255114,"824":-0.04179897819963709,"825":-0.02834907778981713,"826":0.03666663763579841,"827":0.0001938280806105075,"828":-0.04387210087104822,"829":0.015320557201906128,"830":0.06891188091922348,"831":0.054606517614441685,"832":0.023787517981757135,"833":-0.06828703483106277,"834":-0.011505085534652692,"835":-0.025789326502303454,"836":-0.010936477203808834,"837":0.0035315082621202773,"838":0.04676559380310247,"839":-0.014347644788639636,"840":0.024555507334972138,"841":-0.04863855341223665,"842":0.021898330908334464,"843":0.03920623277551213,"844":-0.01505754448881692,"845":0.0028927359023554113,"846":-0.008594164326619493,"847":-0.058310570628455995,"848":0.04856838978576386,"849":-0.009528764525464068,"850":-0.02908664951393977,"851":-0.012006937267807315,"852":0.005512262989975105,"853":0.07128268016248944,"854":0.022737275693112343,"855":-0.030287747152715042,"856":-0.013319640994155087,"857":0.040918550826760235,"858":-0.01224192824446499,"859":0.009886736557749255,"860":0.0378006089841329,"861":0.0420151433251816,"862":-0.018749324882320558,"863":0.029491770208313346,"864":0.03219260753229489,"865":-0.061480591805743015,"866":0.0007922412983930485,"867":-0.013671710414380088,"868":-0.0151317782300179,"869":-0.024909928072046224,"870":-0.020263632825965945,"871":-0.005938317154373106,"872":-0.05694419066099804,"873":-0.03412358067555107,"874":-0.015847369848251476,"875":0.0025789836911713593,"876":0.005114834995723654,"877":0.01172902758460602,"878":0.03819015964592321,"879":0.01062143805835767,"880":-0.05894208563684038,"881":0.057367624959770776,"882":-0.0022589147439327118,"883":0.003541057496856247,"884":-0.00016346704862039188,"885":0.08706130218247364,"886":0.05958126913146808,"887":-0.018471472653872136,"888":-0.02869739105892376,"889":0.0037321827438885086,"890":0.010174070600290214,"891":0.023757248535891697,"892":-0.07623985001691128,"893":-0.005312404052525797,"894":0.004430209024117285,"895":0.0084471229235506,"896":-0.04086396987233644,"897":0.04933723930510845,"898":0.018667187058612433,"899":0.03595514928121922,"900":-0.008939836520424665,"901":0.037385686183408665,"902":0.027786671810836733,"903":-0.003152860622120169,"904":-0.026256760454258815,"905":0.025485177272395954,"906":0.014052063737540319,"907":-0.010857355952662243,"908":0.025854190255280986,"909":-0.06538006541048508,"910":-0.022354416147435736,"911":0.0524730331868882,"912":0.00034081548045373225,"913":-0.08102535599983435,"914":0.023851917823674462,"915":0.007844979555863933,"916":0.028442311908329538,"917":-0.08411025030611267,"918":0.03077691804734882,"919":-0.010874287346282376,"920":-0.03008535491196594,"921":-0.015379169891562487,"922":0.03101947800419202,"923":-0.01697042440404977,"924":0.021990840633691673,"925":-0.030493635578509235,"926":-0.022757537899009105,"927":-0.01026449913905966,"928":0.016096765044160785,"929":0.048935635004985906,"930":-0.007006456008908296,"931":0.015690474703507616,"932":0.022062805050118577,"933":-0.0029732906510066457,"934":0.007250791595090118,"935":-0.018856551826989455,"936":-0.012979830707211683,"937":-0.017546371349067894,"938":-0.021984215715128555,"939":0.0036523029396915347,"940":0.0013368897624515964,"941":0.020805511128441673,"942":-0.00983284626264551,"943":-0.008721230112753416,"944":-0.062240848806236364,"945":0.010962526102481806,"946":0.020538076867279747,"947":0.07478700967178195,"948":-0.017801779967611644,"949":0.014779050493623502,"950":0.0011151443358194783,"951":0.045073948141908154,"952":0.011474629622538075,"953":0.02974675727426658,"954":-0.014448277182837031,"955":-0.048437571410999136,"956":-0.004456054854503187,"957":-0.0025847353557577287,"958":0.05246634884770747,"959":-0.007256391646199466,"960":0.04971268635904172,"961":-0.03205056098739837,"962":0.001133481909694265,"963":0.019821396166032366,"964":-0.028721759967121226,"965":0.030230616558462774,"966":-0.017082825176082412,"967":0.018225016429211708,"968":-0.00976208974130305,"969":-0.003860440446468382,"970":0.010457678619776504,"971":-0.03432648857574868,"972":-0.016320512867539192,"973":-0.0179742325804445,"974":0.004564985352942762,"975":0.035825631972910665,"976":0.005790057977884894,"977":-0.01145277746381913,"978":-0.017658464478043655,"979":0.011986290343729313,"980":0.0018915877867103684,"981":0.015434163280092889,"982":-0.032909837189824716,"983":-0.03314762962569552,"984":0.00931288913306763,"985":0.007147474396136449,"986":-0.04508809669539001,"987":-0.0010429615978550337,"988":0.01850396488392388,"989":0.06737153066051245,"990":0.005875623386400166,"991":-0.05462979435312166,"992":-0.04384948815716377,"993":-0.013505620711185794,"994":0.05906899772824535,"995":0.03312721111249263,"996":-0.009278226566752857,"997":0.0637513048130963,"998":-0.03829580996547632,"999":0.010527382929502364,"1000":-0.04402476304509613,"1001":-0.03628840370387998,"1002":-0.01926416499196553,"1003":0.00921573448507664,"1004":0.030379093345844512,"1005":-0.03349975834315746,"1006":-0.008262908826983401,"1007":0.005998932173455832,"1008":0.02207021303452683,"1009":0.026234787255132414,"1010":-0.035947937134191206,"1011":-0.06015450475096209,"1012":-0.02366160584242024,"1013":-0.00484602384823744,"1014":-0.00604985349115067,"1015":0.013103177420676024,"1016":-0.028341214052531552,"1017":-0.07768680697966437,"1018":0.0235320003866788,"1019":0.00508636734762035,"1020":0.00513046256505507,"1021":0.08340925657209547,"1022":0.013573964158516005,"1023":-0.0397309521414809,"1024":0.00945511446648314,"1025":0.053649731102634865,"1026":-0.009495091035341588,"1027":0.09489361247121876,"1028":-0.054415840444989025,"1029":0.05280280712153726,"1030":-0.0026520894040186357,"1031":-0.04484096606337266,"1032":0.00451843720361493,"1033":0.0005832019888528941,"1034":0.030713412134482258,"1035":-0.0035293038926334053,"1036":-0.02631807174838401,"1037":0.005271929119397312,"1038":0.05625498805740752,"1039":0.02667440403054975,"1040":0.00685136493911711,"1041":-0.030552041618857613,"1042":-0.0056802194979490815,"1043":-0.004093582676967229,"1044":-0.03324240981050689,"1045":-0.06579870455137089,"1046":0.0015331707428172543,"1047":0.048205180079109435,"1048":-0.00436003324060472,"1049":0.05094578763281159,"1050":0.034941103985106116,"1051":-0.07087916377914057,"1052":-0.01809772225634145,"1053":-0.05127010545817065,"1054":-0.06870426288015394}},{"sx":1,"sy":1,"depth":1055,"w":{"0":-0.07062194331258051,"1":-0.009267720122285767,"2":-0.02385535607834646,"3":-0.011671768549465911,"4":0.026273103244981118,"5":0.00009549945168919797,"6":-0.019048163483650668,"7":0.0035832335285395024,"8":-0.07145787604501568,"9":-0.004349301142673325,"10":-0.032277390657017645,"11":0.020505182239194526,"12":0.03771147218111383,"13":0.050677035136309334,"14":0.007334539890934186,"15":-0.0005128423043504727,"16":-0.02629359104530223,"17":-0.0163229572005687,"18":0.01074241659266508,"19":0.0038033047447023627,"20":0.033596882636494754,"21":0.01592956415038413,"22":0.04161059420742955,"23":0.025388262533643603,"24":0.01619878303242167,"25":-0.009266325571704658,"26":0.017195183582244054,"27":-0.006213762811943012,"28":-0.023267980528161335,"29":0.005101200526573665,"30":0.004856182160754672,"31":0.030552092581422687,"32":0.018212274704870583,"33":-0.014286228759252008,"34":0.010282402166267555,"35":0.0011289788688793568,"36":0.022751783522727328,"37":0.006141439542291638,"38":-0.01850819781987058,"39":-0.017861713437464805,"40":0.06480029458738984,"41":0.029710230834260058,"42":-0.027450137231648842,"43":0.040776596925158365,"44":0.004031956208923491,"45":0.021810115108959246,"46":0.03613316406932189,"47":-0.00973178109663084,"48":-0.0027354614657878126,"49":0.041683201919665146,"50":-0.0037565499387873943,"51":0.007366903469545736,"52":0.02113073545986313,"53":0.0633186933516427,"54":-0.05208301530772478,"55":0.0024374913836750045,"56":0.06470170235350242,"57":-0.014614195655794,"58":0.024553880411009848,"59":0.0013254746624194935,"60":-0.004874470369306021,"61":-0.04416516590325937,"62":0.03626554539593321,"63":-0.009720133269159542,"64":-0.024223372837364535,"65":0.017276494935343396,"66":-0.006434960739606088,"67":-0.016347559334075074,"68":-0.03310057514612982,"69":0.014521192319684628,"70":0.028506054848620333,"71":0.06332876487729563,"72":0.027687724077475467,"73":-0.007428547589196306,"74":0.017702994240712405,"75":-0.01073424259898232,"76":0.00653778056167238,"77":-0.054250670984440696,"78":0.031989973876996904,"79":0.007480631108970513,"80":-0.007649779964657769,"81":0.016695715089334866,"82":-0.02318786869430953,"83":0.02284381627156005,"84":0.06642389439433996,"85":0.00935868726961797,"86":-0.06966718039374471,"87":0.06375793754259416,"88":-0.00031479745100434993,"89":0.052166431749945265,"90":0.01835138937717397,"91":-0.011297175822206807,"92":0.008674403911227152,"93":-0.029674426719507506,"94":-0.018851855600457514,"95":0.009323437604736787,"96":0.06070956900575045,"97":-0.016480623628079796,"98":-0.011425219548429271,"99":0.012038515619303058,"100":0.05556399846338382,"101":-0.011451488995318651,"102":-0.00196152153939359,"103":-0.02939616922337739,"104":-0.013119271958597585,"105":-0.0013974367262983734,"106":-0.0007966970617026352,"107":0.0004956081903972052,"108":-0.02667951166594139,"109":-0.021842220965404106,"110":-0.023914647581706982,"111":-0.018657082387350536,"112":-0.016652417962180772,"113":0.003916383409090219,"114":0.05696920466318809,"115":0.01074962708334346,"116":0.015308467438389057,"117":0.007689325969835877,"118":-0.0038843200680011066,"119":-0.03159255410256461,"120":0.007479126352336247,"121":0.033340269483451215,"122":0.008130586683296196,"123":0.013318336291101662,"124":-0.022760055707533262,"125":0.03358377411921865,"126":-0.05342108900196446,"127":0.01943560524766835,"128":-0.011494020424254084,"129":-0.06454639533481372,"130":-0.01825809746702134,"131":-0.005767463595532915,"132":0.0006711020258622024,"133":0.02878223813764404,"134":-0.031579948186145526,"135":-0.004329658463909308,"136":-0.005186483972666097,"137":-0.01170799757590659,"138":0.046893806038162206,"139":-0.02187829001808307,"140":-0.004044566161877347,"141":-0.02832276530244698,"142":0.027312685984277735,"143":-0.04572626239443184,"144":0.03330272771508265,"145":0.022151255087546437,"146":-0.0016466207908278473,"147":-0.024846048362023677,"148":-0.008425272788132663,"149":0.004710857237822082,"150":-0.014422302102045195,"151":0.033337415569483504,"152":-0.03311919517157555,"153":-0.04421797640062081,"154":-0.015486241713700189,"155":-0.024441456131681284,"156":0.08611254371692663,"157":-0.0021034096451258335,"158":-0.08695937786864046,"159":0.005773698685221884,"160":0.013089736998764352,"161":0.025002885595426867,"162":0.003830113630537523,"163":0.027792548090703886,"164":-0.013887647023330228,"165":0.002738627172431043,"166":-0.0002620013691457695,"167":-0.04999514274112242,"168":-0.011186255587165192,"169":-0.04901739250169561,"170":0.016677756043325526,"171":-0.03761769960342818,"172":-0.026703058532058514,"173":0.03947147236935104,"174":-0.00017026012195434122,"175":0.02152643027035623,"176":-0.03414826652106977,"177":0.006447356208211987,"178":-0.021120695132280407,"179":0.01840859761097821,"180":0.028961528781694033,"181":0.009504347855354605,"182":0.004972711543553238,"183":-0.0491943510330791,"184":0.03315065781979372,"185":-0.013392967645428452,"186":0.021770380337066554,"187":-0.014019433208314384,"188":-0.007036550397738868,"189":-0.02210661057922289,"190":0.010820362176046509,"191":0.01795502211428877,"192":0.053678049406372184,"193":-0.02645483724878297,"194":0.05532305548657229,"195":-0.02291479383516249,"196":0.049415592244308054,"197":-0.0416716400852755,"198":-0.07180516798389108,"199":-0.04726397875933458,"200":-0.012086853149239771,"201":-0.00006464750852307573,"202":0.027038594052210728,"203":0.05256513829103046,"204":0.012446268242502325,"205":0.003366821365144778,"206":0.02951991632362385,"207":0.01402523087005431,"208":0.007955612935385385,"209":0.0454656918299714,"210":-0.016457040291076433,"211":0.03842202738799006,"212":-0.02854588106859501,"213":0.0061283423783126,"214":0.03496566452965946,"215":0.04170686532399054,"216":-0.04737305671481181,"217":0.027123472118631666,"218":0.024123390867241613,"219":0.002361938666640865,"220":0.0053572857847785935,"221":0.03314281435124634,"222":-0.02071783119331017,"223":-0.026525388125100267,"224":0.06700991569043692,"225":-0.02068103227681996,"226":0.017147952088417753,"227":-0.03143004182220642,"228":0.020776630425644906,"229":-0.023585989430216524,"230":0.053157137185215364,"231":-0.01700192749532694,"232":-0.0405708215478734,"233":0.011174954622141619,"234":0.04173329569994403,"235":0.017542817640459965,"236":-0.011496458207302673,"237":-0.02124449008915075,"238":-0.0015162290260693108,"239":0.00994458271089142,"240":-0.0381126361588751,"241":0.010464687091080728,"242":0.03652914442288651,"243":-0.009489826035773611,"244":-0.014597890263207841,"245":0.05711405259636591,"246":0.03080919370439504,"247":0.03160116913014489,"248":0.053112418742126896,"249":0.03130413432096734,"250":0.019249384994444205,"251":-0.018724441603590707,"252":-0.0019427721437400565,"253":-0.05971877357741802,"254":0.006348482574270591,"255":-0.03703705723850018,"256":0.003760472832931952,"257":0.018407140742517144,"258":0.011692331127311177,"259":0.038304004076870735,"260":0.013182683969894773,"261":0.055272658843353174,"262":-0.010684044703281562,"263":-0.017513737018847786,"264":0.021454226378640397,"265":0.06727255597549169,"266":0.0517916705829903,"267":-0.035580524580288354,"268":0.024346089307251413,"269":-0.058153563243570044,"270":-0.008899847276178362,"271":-0.08355879075975958,"272":0.06879599103007177,"273":0.027880598032296852,"274":-0.03742086003252391,"275":-0.0014343902602048067,"276":-0.023995449897499525,"277":0.002910963667477834,"278":0.03181319134773719,"279":-0.0018865787763855369,"280":0.029566056441361687,"281":-0.05187866359152729,"282":0.02688949293959088,"283":-0.0415452506316963,"284":-0.026916898128830292,"285":0.037769512037687504,"286":-0.01807059146152597,"287":0.01667420890546252,"288":-0.03826674663733266,"289":0.06517231333639448,"290":0.02142119045028828,"291":0.009906038360722262,"292":0.016003137326839143,"293":0.01349759484131019,"294":0.041393097356562644,"295":0.022764083201540945,"296":-0.030247116233160256,"297":0.03433364505255374,"298":0.04245957043819325,"299":-0.009037112456201672,"300":0.024173610583185668,"301":-0.005078914066146493,"302":0.013898409985447936,"303":0.008114870203769222,"304":-0.0063949540263910955,"305":-0.021908727937621254,"306":-0.004302743384789815,"307":-0.007235193666988697,"308":0.02010963257552706,"309":-0.027565705541115537,"310":0.002162407302049966,"311":-0.0019322763576003308,"312":0.014892656360206934,"313":0.01750119608389652,"314":0.028294651500365593,"315":0.006750019365174962,"316":0.04917858734180407,"317":0.034370111445286795,"318":0.04676123788479668,"319":-0.03673894121376911,"320":0.025050971481993492,"321":0.026699197124517945,"322":-0.07904148746603541,"323":0.024202529383330874,"324":-0.04746094259895928,"325":0.025898520587750322,"326":-0.05239247665951523,"327":-0.007584483079759977,"328":0.024205745169114952,"329":-0.05144602731653383,"330":0.014818424070948256,"331":0.005930415884281671,"332":0.003794453246731137,"333":0.011976236962663674,"334":-0.00921918590746804,"335":-0.0013256919910093561,"336":0.029193582100772136,"337":0.004218143132615335,"338":-0.008582350177339179,"339":0.013512624492151385,"340":-0.02681981335523801,"341":0.031733483191084495,"342":0.01390308483865572,"343":0.02026925284921775,"344":0.009968900894391258,"345":0.007083813482357034,"346":0.0116502589066873,"347":0.002914273676787167,"348":0.03750645129836249,"349":-0.007535235997426684,"350":-0.06820762515695258,"351":0.0015365702898001653,"352":0.012494672999402854,"353":0.03675126390651456,"354":0.02288633978671184,"355":0.0036034196911749767,"356":-0.014621201761330782,"357":0.010167861950462055,"358":0.05388730863751103,"359":0.039397271900785125,"360":0.028558963448521338,"361":0.009113745779759326,"362":0.0027330223448053474,"363":0.00020719682587023083,"364":0.019773159057391385,"365":0.02643298437874203,"366":0.004225227313863131,"367":0.001540012179089271,"368":-0.02277859605746095,"369":-0.05169866498248417,"370":-0.0056625630680782815,"371":0.00717280786607378,"372":0.013316100762637376,"373":0.04291809476100153,"374":-0.000691091763458529,"375":0.02746580537639069,"376":-0.024700504280948745,"377":-0.02585488936679366,"378":0.016916687219413053,"379":0.022748064381437404,"380":-0.01688000540188404,"381":-0.059102886059379856,"382":0.026443886895750807,"383":-0.06800258594099763,"384":0.022005423293694013,"385":0.01704889488454327,"386":-0.049364111684214465,"387":0.0036192500472034535,"388":0.012414555673563605,"389":0.0055587922392011406,"390":0.05916075576729255,"391":0.0323042834432104,"392":-0.0016324684118589317,"393":-0.05266906939665625,"394":0.017449465840952687,"395":0.0025771248230654874,"396":-0.035584708535907214,"397":0.031132125991879263,"398":-0.004061054883492983,"399":0.00016232698372356427,"400":0.02581026595798374,"401":-0.02225654389261187,"402":-0.007066501017539133,"403":0.004686408857896669,"404":0.03227289532373736,"405":-0.04766115153144179,"406":-0.036314416951108056,"407":0.012663547798935058,"408":0.00934629643993357,"409":0.014326359130357085,"410":-0.02655909411610684,"411":0.05328212622851681,"412":-0.006544132254938774,"413":0.0018339337319617233,"414":-0.02349340196466727,"415":-0.016594740322510956,"416":0.017628224016013723,"417":-0.04586388046613782,"418":-0.025915876397225417,"419":-0.02704556443389492,"420":-0.0039968828514247035,"421":-0.011090997777910781,"422":-0.0329076038562448,"423":-0.0318201543128379,"424":-0.003286525115361993,"425":0.020699727856295223,"426":-0.006259439766403956,"427":0.006150200477534908,"428":0.03519131307838053,"429":0.009566911878119812,"430":0.025665702883313497,"431":0.02465519218995123,"432":0.07836785845279305,"433":-0.006877952957620496,"434":0.00271665244718499,"435":0.019757517734469453,"436":-0.05580995182055293,"437":-0.052427571385826384,"438":-0.023865321460670177,"439":-0.01819213320462828,"440":0.02279887998019521,"441":0.004853464602214932,"442":0.01260033141520421,"443":0.04579619007416183,"444":-0.029999954361854205,"445":-0.0767020263305311,"446":-0.031174863362576067,"447":0.0032018040175597695,"448":0.015881941453539203,"449":-0.02827323062341655,"450":0.03811198157468199,"451":0.047876413950325075,"452":0.018284205526735375,"453":0.002908132337251773,