//<![CDATA[

// a few things don't have var in front of them - they update already existing variables the game needs
lanesSide = 3;
patchesAhead = 5;
patchesBehind = 5;
trainIterations = 20000;

// the number of other autonomous vehicles controlled by your network
otherAgents = 0; // max of 10

var num_inputs = (lanesSide * 2 + 1) * (patchesAhead + patchesBehind);
var num_actions = 5;
var temporal_window = 1;
var network_size = num_inputs * temporal_window + num_actions * temporal_window + num_inputs;

var layer_defs = [];
    layer_defs.push({
    type: 'input',
    out_sx: 1,
    out_sy: 1,
    out_depth: network_size
});
layer_defs.push({type:'fc', num_neurons: 32, activation:'relu'});
layer_defs.push({type:'fc', num_neurons: 32, activation:'relu'});
layer_defs.push({
    type: 'regression',
    num_neurons: num_actions
});

var tdtrainer_options = {
    learning_rate: 0.001,
    momentum: 0.1,
    batch_size: 128,
    l2_decay: 0.1
};

var opt = {};
opt.temporal_window = temporal_window;
opt.experience_size = 3000;
opt.start_learn_threshold = 500;
opt.gamma = 0.7;
opt.learning_steps_total = 10000;
opt.learning_steps_burnin = 1000;
opt.epsilon_min = 0.0;
opt.epsilon_test_time = 0.0;
opt.layer_defs = layer_defs;
opt.tdtrainer_options = tdtrainer_options;

brain = new deepqlearn.Brain(num_inputs, num_actions, opt);

learn = function (state, lastReward) {
brain.backward(lastReward);
var action = brain.forward(state);

draw_net();
draw_stats();

return action;
}
/*###########*/
if (brain) {
brain.value_net.fromJSON({"layers":[{"out_depth":145,"out_sx":1,"out_sy":1,"layer_type":"input"},{"out_depth":32,"out_sx":1,"out_sy":1,"layer_type":"fc","num_inputs":145,"l1_decay_mul":0,"l2_decay_mul":1,"filters":[{"sx":1,"sy":1,"depth":145,"w":{"0":-0.008511903872019685,"1":-0.02021610550932962,"2":-0.039317219493948494,"3":-0.16154200339720987,"4":-0.15363799105844844,"5":-0.08478139518696477,"6":-0.05571875391526323,"7":0.1331552969590191,"8":0.05950131884580943,"9":0.08832702080078411,"10":-0.1842442054188548,"11":-0.11264400799738344,"12":-0.08278586853218953,"13":-0.15039291317474618,"14":-0.016178539171009157,"15":-0.11728216566757406,"16":0.026182797086240755,"17":0.06582647945321463,"18":0.04490020494240846,"19":-0.13144728595229918,"20":0.0661281278194419,"21":-0.07618293725130594,"22":-0.09739728075561349,"23":-0.010953826521788368,"24":-0.00854522549519004,"25":0.056550983291648003,"26":-0.010578280504668174,"27":0.06912132227868986,"28":0.1444248623251055,"29":-0.026892448052008477,"30":-0.07038595232541799,"31":0.035759412666849275,"32":0.025265593787651603,"33":0.024838176459811682,"34":0.04952233636830782,"35":0.003529108665568934,"36":-0.016618837122847605,"37":-0.04312335843959883,"38":-0.012986844788809996,"39":0.07086379421593093,"40":-0.016101487494787514,"41":0.03891090322230363,"42":-0.012921754748121725,"43":-0.10978033333844228,"44":0.08099354448165746,"45":-0.03373328320902789,"46":-0.11677071830219166,"47":0.01740272719225853,"48":-0.014766000694793117,"49":0.15924480860373133,"50":0.11188785340996757,"51":-0.23467209909340314,"52":-0.09943141660213538,"53":-0.030513923886577393,"54":0.03936250405826543,"55":-0.0354179302444675,"56":0.15769269740258765,"57":-0.14877429218902255,"58":-0.13447822825256164,"59":-0.021274046401991317,"60":-0.062309024377441166,"61":-0.06444343844512249,"62":-0.10641704518588674,"63":0.003877073548540734,"64":0.021946699222054396,"65":-0.03347698215897578,"66":0.0971403952641633,"67":-0.003229301791344353,"68":-0.00629582709063439,"69":-0.00967613306136165,"70":-0.09227455252460535,"71":-0.041975194605448185,"72":0.07546303535082456,"73":-0.4025650200457101,"74":-0.05419181091707025,"75":0.023667862104844978,"76":-0.017957707466835,"77":-0.11247672431776613,"78":-0.03279871631164618,"79":-0.07036881010195825,"80":0.11094120588207478,"81":0.09830765183517456,"82":-0.10906017460370074,"83":-0.07909274347678583,"84":-0.02837584791500065,"85":-0.12139093633883348,"86":-0.11621517764802591,"87":0.16691086643396982,"88":-0.062188073896505255,"89":-0.20027605696071707,"90":0.12251950796679476,"91":-0.03535360917700277,"92":0.016974244215495773,"93":-0.08718889308780432,"94":-0.07491076681733018,"95":-0.1622041403101003,"96":-0.05537470888648874,"97":0.00217704104049323,"98":0.01883140588630905,"99":-0.11582146504926293,"100":0.0017926624461030599,"101":0.09926008993315373,"102":-0.09781458388979106,"103":-0.22275644248009818,"104":0.028405968641225986,"105":0.026437227897907555,"106":0.041027289414613984,"107":-0.08742193459946142,"108":-0.11041368265064608,"109":0.018124132010879285,"110":-0.0010930788911147219,"111":0.04018410386643077,"112":0.021070321458940718,"113":-0.015328386345378631,"114":0.040401656824385596,"115":0.032707528373136674,"116":0.049482144085274196,"117":-0.07206411631580298,"118":0.09149432040928072,"119":0.11739073858584001,"120":-0.009015633654302331,"121":-0.15106387283741193,"122":0.043466475560206046,"123":-0.020302314597525795,"124":0.009636515208046816,"125":0.04547739751473705,"126":-0.12991831699498235,"127":-0.006292821826814768,"128":0.021463631811931932,"129":0.026246438070311087,"130":-0.16208619721883982,"131":-0.06221971816225316,"132":0.1838627601507537,"133":-0.001201883863169155,"134":0.08582181949286534,"135":0.01674153216636244,"136":-0.0936916150434717,"137":0.08467985720164906,"138":0.007577264581048839,"139":-0.08157874850301905,"140":0.056489962590099176,"141":-0.06851446246605804,"142":0.12398168410601734,"143":-0.03449591965816781,"144":-0.06638784628481266}},{"sx":1,"sy":1,"depth":145,"w":{"0":0.06282260549489355,"1":0.0016890095258096454,"2":-0.06839918035542392,"3":0.04539769659374843,"4":-0.031053566830297433,"5":-0.0002400122384185165,"6":-0.03057659961041191,"7":0.07337039129668854,"8":0.06280252058829197,"9":0.07680733892330431,"10":-0.01665090968707322,"11":-0.027303502844137222,"12":-0.034264689898719086,"13":-0.17983177895135374,"14":-0.1293252924030561,"15":-0.10908386696115976,"16":0.07921454629396077,"17":0.0912908909346046,"18":0.06007439765137903,"19":-0.018893635229727094,"20":-0.08981876337769042,"21":-0.01201376862563195,"22":-0.022184158944307617,"23":0.06186523645054865,"24":-0.13715453205244976,"25":0.1257187434039645,"26":0.000869880765702005,"27":0.0708221105994505,"28":0.13992062698865282,"29":-0.016009740778096693,"30":-0.01567314640889094,"31":-0.005785803108914242,"32":0.04060198481683902,"33":-0.02260165000260714,"34":0.13482169819318093,"35":-0.10188333202246189,"36":-0.017840344667445805,"37":-0.10689505270424474,"38":-0.09141898596391373,"39":0.02307708793589598,"40":-0.2474466932655251,"41":0.09511699618514843,"42":0.05937027874790451,"43":0.02081449236252302,"44":0.10777472690769183,"45":0.0721850725198559,"46":-0.05517480309362735,"47":0.01898262221959811,"48":-0.02763256959376549,"49":-0.021398946033752368,"50":-0.06563289966221428,"51":0.2802615497448545,"52":0.00030606452909371566,"53":-0.04115239849290779,"54":0.029866936911814308,"55":-0.135351966658973,"56":0.022654397571004493,"57":-0.03510767596284004,"58":0.009542948437707996,"59":-0.03857313123120513,"60":-0.058342771423527014,"61":0.13633801050704322,"62":-0.10213433497774779,"63":-0.045173884699058545,"64":-0.03432863322803626,"65":-0.06941961334812594,"66":-0.08037264593585891,"67":0.020839954451004932,"68":-0.06088182072036725,"69":0.14693192187705373,"70":-0.053169560122899126,"71":-0.05316189823176909,"72":0.12661729207100306,"73":-0.030525209035738087,"74":-0.02852760100528546,"75":-0.05846903359351184,"76":-0.1477662368921785,"77":-0.1144481779585717,"78":-0.032958801967540356,"79":-0.012121135363610275,"80":-0.01648780976535092,"81":-0.0431969495691799,"82":0.006016049183325887,"83":0.15757732388520285,"84":-0.12372496393688837,"85":0.04781361258202211,"86":0.03449831215789156,"87":-0.11223201892610303,"88":-0.0929579752782311,"89":0.1028775678317986,"90":0.15960472056426084,"91":0.08838313195420497,"92":0.09466243028618052,"93":-0.14845649564903607,"94":-0.07216303598765224,"95":-0.0729255061499758,"96":0.08849813947115771,"97":-0.08865939768057751,"98":-0.04091393584215102,"99":-0.03478585635304468,"100":0.035934423194129594,"101":-0.14319088826098567,"102":-0.03707705158518974,"103":0.0822039840052715,"104":-0.052551237432145424,"105":0.07340340837220893,"106":0.1305660126012657,"107":-0.0544848923273579,"108":0.028484937059454096,"109":-0.03146923657107962,"110":0.051512439803325046,"111":0.0398977707758512,"112":0.0334051222984399,"113":-0.036965407423676565,"114":-0.040414584292512074,"115":-0.02573798977957643,"116":0.054249526317127456,"117":0.19343895964147864,"118":0.07309131532779109,"119":-0.05898813080495146,"120":-0.03357988301329857,"121":0.09632284629823229,"122":-0.027974486523776387,"123":-0.08099387629502898,"124":-0.07676022156402054,"125":-0.09388769755873312,"126":0.0006171897294536189,"127":0.029673133138164894,"128":-0.07077044015142729,"129":-0.04847980524641415,"130":-0.12567057208500912,"131":-0.03690936516305428,"132":-0.04074698389447386,"133":-0.09201545237386163,"134":0.09894804617210817,"135":-0.10178920010310666,"136":0.04460835191969523,"137":-0.12609242768714068,"138":-0.1375474126163942,"139":-0.12307208954952958,"140":-0.07505304366046478,"141":-0.012679486602058419,"142":-0.0018879397266008844,"143":-0.004191710714178189,"144":-0.018809671348839634}},{"sx":1,"sy":1,"depth":145,"w":{"0":0.14279121288324223,"1":-0.0978931681979365,"2":-0.12261050792429114,"3":-0.021330310565199084,"4":0.08116732383112932,"5":-0.08129413461096704,"6":-0.029819011649038052,"7":-0.09555129464645556,"8":-0.043367909910231386,"9":0.10016280127344672,"10":0.25086151410921226,"11":0.024363677919939094,"12":-0.02598522494779052,"13":-0.09725900708323863,"14":0.112845652369804,"15":-0.08575811661170449,"16":-0.10397063328997111,"17":0.025784974248397874,"18":-0.06418550835874923,"19":-0.011815732011485124,"20":0.11709495548466435,"21":-0.0857388676627771,"22":-0.00838581044787768,"23":-0.021967184442286694,"24":0.0323571476300994,"25":-0.005997101735939132,"26":-0.10382728659568237,"27":-0.0005411616328721492,"28":0.15453416418293653,"29":-0.09749715893939337,"30":-0.05116625159559927,"31":-0.16383641100642612,"32":0.05982867354578838,"33":-0.1204460449058663,"34":-0.08627357300651461,"35":-0.007030493348836695,"36":0.020483223607496083,"37":0.040681462192847774,"38":0.04201009699947761,"39":-0.07690672937463443,"40":0.034208224203798786,"41":-0.05196549490645265,"42":0.07295934237520914,"43":-0.030493439481173067,"44":-0.048907806798464196,"45":0.11682313562458821,"46":0.15899681479548272,"47":0.11029666011727365,"48":0.04877660001013512,"49":0.10134513365583055,"50":0.12126404161184023,"51":-0.05555342164818696,"52":-0.023050145847277416,"53":-0.08876999769707004,"54":-0.0070262653264935755,"55":0.07973788735449865,"56":-0.0141059141872604,"57":-0.040829843593136204,"58":0.042947132112722636,"59":0.11279531465556016,"60":-0.04945939683901867,"61":0.03170758088942423,"62":-0.07971078718691245,"63":0.058063099815883944,"64":-0.17649717918901567,"65":0.01422419176853628,"66":-0.03687150473165184,"67":0.07095350906068941,"68":0.044759999954884694,"69":0.09308934358959857,"70":-0.007249936825671499,"71":-0.09717670880040813,"72":0.05956517390873926,"73":0.12172020607909144,"74":-0.08195297867139607,"75":0.04694295623429889,"76":0.09149210762112499,"77":0.10345225434233055,"78":0.09816021107413071,"79":0.023279757925215694,"80":0.16405783690368095,"81":-0.05121532304004502,"82":0.01590246551622124,"83":-0.11970128037080585,"84":-0.02362300001461638,"85":-0.07810887111751799,"86":0.06132859105691592,"87":0.08876762304262086,"88":0.02643994566610391,"89":0.006076793554456376,"90":-0.025769188204613783,"91":0.04515869897713969,"92":0.14666380603401197,"93":0.07280914146381963,"94":-0.03636128213967433,"95":0.03497005081294635,"96":-0.1551029151958989,"97":0.11023711478039197,"98":-0.03731349280281906,"99":0.21781044245168707,"100":0.09098060929506624,"101":-0.08965828165791319,"102":-0.03587197503402078,"103":0.07558897510086968,"104":0.18792734562273508,"105":0.00039763375917108536,"106":-0.08194855711542542,"107":-0.06786963605266054,"108":-0.030688147269600275,"109":0.03259339737493424,"110":-0.08442674402618122,"111":0.07995247694998119,"112":0.10701019006752736,"113":-0.10678762406560062,"114":0.09264258435271903,"115":-0.15107596411988117,"116":0.07615857125247293,"117":-0.06031296412378354,"118":-0.12111684196433656,"119":0.07987843046546668,"120":-0.10754062599669634,"121":-0.019930418856083307,"122":-0.04994317094594068,"123":0.05138355109186866,"124":0.013655905658441665,"125":-0.04790081455946728,"126":-0.02081676546598989,"127":-0.029037719592170427,"128":0.014165833952293374,"129":-0.009072833216313176,"130":-0.06571153970971093,"131":0.10818218576430262,"132":-0.010297595201350337,"133":0.08082442172055047,"134":0.007230160708949987,"135":0.15070623434883113,"136":0.00971600110042373,"137":-0.1082171622927847,"138":0.04657411637648313,"139":-0.08181649211141194,"140":0.042957559322087106,"141":-0.04171305164289141,"142":0.0799380112671516,"143":-0.11046778745501618,"144":-0.02515051684272702}},{"sx":1,"sy":1,"depth":145,"w":{"0":-0.17900114202534745,"1":-0.10470728299929033,"2":0.0205334145275206,"3":0.013878677526939302,"4":0.0918997845477268,"5":0.17105559920142144,"6":0.016648376795512777,"7":0.08728006414325686,"8":0.03880237604930499,"9":0.11017142483591127,"10":0.07075006960951416,"11":-0.11515205034262202,"12":0.006285452583726299,"13":0.020366521918243275,"14":-0.03669973997544067,"15":-0.04890444337581639,"16":-0.03471393063188112,"17":-0.04817178057268187,"18":-0.0576164746487508,"19":-0.09672643117004885,"20":-0.18263844397693338,"21":-0.07412192757342353,"22":-0.09190335172756701,"23":0.08308947545645452,"24":-0.0490123353783788,"25":0.01588517171430251,"26":-0.2269369955350207,"27":-0.10330992637836388,"28":0.10465417134100365,"29":0.12546675109025326,"30":0.019779960008096537,"31":0.07590668742967756,"32":0.018030765794811134,"33":0.052222391946089596,"34":-0.008707996839880048,"35":-0.07068153707578065,"36":-0.0640228903888326,"37":0.0490374857866148,"38":-0.0741303573379978,"39":0.12214563295869924,"40":0.14350842341207637,"41":-0.10672166740179259,"42":-0.06808597089293594,"43":-0.015604815190546163,"44":0.005666365174990687,"45":0.03603168318516449,"46":0.08093205617952202,"47":0.05102828663094238,"48":0.04659819085357467,"49":-0.026528204658956084,"50":0.11471046989663793,"51":-0.013348873878050204,"52":-0.025555523691843985,"53":0.03009719001906986,"54":0.16637235304490922,"55":0.12426000594691078,"56":0.007225149517442542,"57":0.007109305495908968,"58":-0.026417066879899295,"59":-0.02852310887648369,"60":0.13510834562435414,"61":-0.060903822753864904,"62":-0.10038299215159938,"63":-0.00047031738425026766,"64":0.024786796208874737,"65":0.09322815983555045,"66":-0.05068984391122695,"67":0.052050054002372156,"68":-0.007088113089149501,"69":-0.021214290524117677,"70":-0.0936102160994133,"71":-0.09404574868625137,"72":0.026188316755693032,"73":0.17491417791744449,"74":0.07957772742874275,"75":0.03594443829268002,"76":0.12094199115111824,"77":-0.03535763239517388,"78":-0.02859182831120339,"79":0.10134708887386644,"80":-0.06628573292087624,"81":0.09651885499978999,"82":0.04712550941022301,"83":0.06450679212546825,"84":-0.011554168526287253,"85":-0.06060523171533342,"86":-0.0016947708098073045,"87":-0.12692722329639028,"88":0.046337140996637466,"89":-0.08877372200074685,"90":0.06755471227115989,"91":-0.0014439113870755797,"92":-0.020258032894650932,"93":0.13302448025400626,"94":0.07164219993132773,"95":-0.05129030162552421,"96":0.047190380861097406,"97":0.133106994471537,"98":0.018431928588579373,"99":0.020543000264099335,"100":-0.2005468060178898,"101":0.04685091330171439,"102":-0.16220633961213443,"103":0.06110418080752342,"104":0.11011681454521657,"105":-0.04792899923996066,"106":-0.022707513819763395,"107":0.06804008914879155,"108":-0.030816901366342565,"109":0.08292223805540037,"110":0.09436345445212821,"111":0.013252963057705517,"112":-0.08838879235916795,"113":-0.04605634131109496,"114":-0.01099629138546503,"115":0.07177738247625395,"116":0.07084733423319702,"117":0.14637599508586596,"118":-0.006537991012397135,"119":-0.062174265674398564,"120":-0.1120554046877924,"121":-0.0058456523928699855,"122":-0.12846690417213766,"123":0.09785456970974019,"124":0.0312737009550285,"125":0.11205755947868366,"126":-0.11328518761353458,"127":0.08121862436879419,"128":-0.08184788727957601,"129":0.07857620982593923,"130":0.032120904300809515,"131":0.09631722021166964,"132":-0.026772290382247314,"133":0.09151636394706991,"134":-0.09156505458084498,"135":-0.06529665381374426,"136":0.1540111426262828,"137":-0.05277243077798442,"138":-0.0024277999138018654,"139":-0.05617102730870116,"140":0.044907716977991015,"141":-0.07015530868537992,"142":-0.048659929348728564,"143":0.10045746203397732,"144":-0.05152621899244173}},{"sx":1,"sy":1,"depth":145,"w":{"0":0.03938144708040802,"1":-0.08258365320140215,"2":-0.08777671711086985,"3":0.01932521131003376,"4":-0.07772258683400908,"5":-0.021121942894324706,"6":0.0668312145633168,"7":-0.069926610220481,"8":-0.2283462360741574,"9":-0.0073540585180154276,"10":0.21711011779678885,"11":0.06957381540751467,"12":0.002449563266827426,"13":-0.03787388180905962,"14":-0.014449408863415192,"15":0.019661218798221258,"16":0.06666835636775172,"17":0.0516048159117491,"18":0.1297336160782934,"19":0.012192849331200496,"20":-0.03789368986041132,"21":0.02417558324222286,"22":-0.08393751382985874,"23":0.07764586700446831,"24":-0.058965122742121574,"25":0.04246247755322454,"26":-0.1495458144878266,"27":0.04039341573598482,"28":0.04348542259874434,"29":-0.00861053157058787,"30":-0.0584842829997001,"31":0.07355977320890045,"32":-0.015899203370222274,"33":0.20023030518264587,"34":-0.07187582801054147,"35":-0.024373508220795675,"36":-0.08716197150174855,"37":-0.011773299035398454,"38":0.1388518590079641,"39":-0.0776822119490375,"40":-0.03884358062040607,"41":-0.06467867829049255,"42":0.0748107722528235,"43":-0.007438630680134881,"44":0.0023590656959113524,"45":-0.0905057304572214,"46":-0.027068059200612206,"47":0.061350016284449464,"48":0.08677195960720056,"49":0.025549212613079228,"50":-0.07463951353947688,"51":-0.16127706727061364,"52":-0.1117574681441774,"53":-0.10878449106017708,"54":0.002238007561456554,"55":0.0045451454302949,"56":-0.16583413920493023,"57":-0.07832453630237406,"58":-0.019030206322578402,"59":0.016548827719668077,"60":-0.08418759988017499,"61":0.06722158719205518,"62":0.1293766195454539,"63":0.06056950530722025,"64":-0.08001925596454985,"65":-0.07838173758609564,"66":-0.014882690759803507,"67":0.07264956064871572,"68":0.021999292643534733,"69":-0.006647067570430258,"70":0.04920710288977044,"71":-0.032326811195500495,"72":-0.05179610591775708,"73":-0.08959909888979281,"74":0.06519401568518013,"75":0.11091220285582586,"76":-0.044762763708710455,"77":-0.06386744339031075,"78":-0.08981636089953283,"79":-0.18368364407400548,"80":-0.052262157934126495,"81":-0.07394426985504933,"82":-0.04660669087297694,"83":-0.0589285564776869,"84":0.2210211646932963,"85":-0.025096284382765014,"86":-0.10209549689739046,"87":0.0477167664837578,"88":-0.0639350630165964,"89":-0.014254290177898076,"90":-0.017745354214209478,"91":0.041821444122356756,"92":-0.1182661135421128,"93":0.0023824765420550195,"94":0.08830951927453634,"95":0.012400305283417037,"96":-0.041335200251876994,"97":0.04684465736101299,"98":-0.01103612618083722,"99":0.044363071433832335,"100":0.044567783733891427,"101":0.0045589381953544915,"102":0.10347814704063836,"103":-0.06667388394943909,"104":-0.05583009676245503,"105":-0.020658528117948168,"106":0.06121974356063329,"107":0.08000704738757881,"108":-0.07550227501006126,"109":0.16449731280857693,"110":0.05058055056891236,"111":-0.05291745498454283,"112":0.05049264249654735,"113":0.03902165138524331,"114":-0.03704957033741058,"115":0.04437177465330748,"116":0.0668255643916232,"117":-0.06178438457253667,"118":-0.04348860429181836,"119":-0.014084257132307095,"120":-0.11758072436758193,"121":-0.10409480811714238,"122":-0.02604896449696695,"123":-0.06735409837257617,"124":-0.12199363884825429,"125":0.14584522485016843,"126":0.06892146918518849,"127":0.15654830737325837,"128":-0.16490193496248023,"129":-0.05117256072957702,"130":-0.07726343403537483,"131":0.01801986941370447,"132":-0.06551787229287764,"133":-0.04468301247321572,"134":0.019230325035871385,"135":-0.07037822985110807,"136":-0.04470707274142805,"137":-0.01873776206746684,"138":0.07660183636500255,"139":0.045898643201425095,"140":-0.012267264233618132,"141":-0.014114646209963609,"142":-0.02246808513771831,"143":-0.03373014440800027,"144":-0.04672592161145729}},{"sx":1,"sy":1,"depth":145,"w":{"0":-0.010252811374477032,"1":-0.1006743128924457,"2":0.15469846112961644,"3":0.013012208120301058,"4":-0.022156648672058393,"5":-0.08345314942923412,"6":0.02031245966933788,"7":-0.024178758801006155,"8":0.12843075475350013,"9":-0.09221325112641081,"10":0.09715341672282277,"11":0.026367229557393918,"12":-0.02981968466368372,"13":-0.0063234342985569155,"14":0.04499078234020438,"15":0.015348627016796547,"16":-0.012755517475414486,"17":-0.06624158203795501,"18":0.00664008867995041,"19":-0.010770645308111618,"20":0.038853458631489465,"21":0.1756922536658361,"22":-0.027876105643269256,"23":0.08320211701478684,"24":-0.022184497940685645,"25":0.05660138990612179,"26":-0.02995601829440037,"27":0.0525999281143556,"28":0.007845387446136528,"29":-0.0761497467940975,"30":-0.0005676151409630351,"31":0.021030671435216267,"32":-0.005580183837237513,"33":0.05485877965508642,"34":0.010449881447436513,"35":0.07211598713287787,"36":0.05186105781049605,"37":-0.005438882277141804,"38":-0.01701110906103938,"39":-0.04301782537938982,"40":0.052683534160097106,"41":0.08911624663877658,"42":-0.02762019645855346,"43":-0.07581842358235524,"44":0.0673518029663683,"45":0.010044407862321978,"46":-0.003480411319779339,"47":0.007085051406206371,"48":0.043132963058000975,"49":-0.036052517250350254,"50":-0.06133273478838179,"51":-0.03131953724758006,"52":0.12933990073162488,"53":0.08646138828323069,"54":0.08217260089964888,"55":0.12708202823167797,"56":0.025924726843783764,"57":-0.10089166878275115,"58":0.048634964685410426,"59":-0.0757991977858975,"60":0.00570317338655762,"61":0.015836956547642864,"62":0.12321214488230325,"63":0.02174818152351506,"64":-0.07427394693919709,"65":-0.05260857362343475,"66":0.13295377160709088,"67":0.03497940355956482,"68":-0.05915258712351042,"69":0.0433896195193566,"70":0.07089973085242872,"71":-0.01248162782410954,"72":-0.13996054893006132,"73":-0.18642296818804005,"74":0.07110917256053195,"75":-0.048682595503107384,"76":0.043007023789804255,"77":-0.04398022004016409,"78":-0.10843067947351999,"79":0.11264728561152627,"80":0.07213668567255106,"81":0.0032051845853346057,"82":-0.07200694227367628,"83":-0.05950033261175065,"84":0.0811500623155036,"85":0.025969590388476932,"86":0.0557434173425888,"87":0.11469153091959498,"88":-0.05232969734488214,"89":-0.09542853069032918,"90":0.19865577878770085,"91":0.00857503973724743,"92":-0.03730083321232338,"93":-0.06213514293831094,"94":0.03173056795129933,"95":-0.1711550650153376,"96":-0.016697105104341026,"97":0.000988447078965603,"98":-0.04677922427778656,"99":-0.11648739267186642,"100":0.009842442815488815,"101":0.12353796820969888,"102":0.1065860874967429,"103":-0.07960003893384927,"104":0.053928308090440046,"105":-0.03590842046588489,"106":-0.03115977063604105,"107":-0.1571679327857298,"108":0.14783563021885088,"109":-0.10478093320137913,"110":0.0700856673729038,"111":0.007681860360230151,"112":-0.0370655557938474,"113":-0.01021847703635693,"114":-0.03451697867234094,"115":-0.10644153451098222,"116":0.012394214901526632,"117":0.09454775494812949,"118":-0.060060090812659075,"119":-0.18715448141964977,"120":-0.03853374265576386,"121":-0.0753128739778451,"122":0.010851772969274214,"123":-0.04806696905042315,"124":0.046037191312891475,"125":0.11705150456205769,"126":0.15618667908216818,"127":-0.04623775033128694,"128":-0.024928418062376854,"129":0.09437671567273712,"130":-0.05859919031696292,"131":-0.1695331318368334,"132":0.08280344811653895,"133":-0.06361562837566087,"134":0.07109344255560075,"135":0.08590428881825965,"136":-0.036156938876201014,"137":0.01806488789178561,"138":-0.033097083410311604,"139":-0.08445684378619892,"140":0.01160887450759148,"141":-0.01722452209269413,"142":-0.07232939171555486,"143":-0.006614348542206903,"144":-0.13937452276451479}},{"sx":1,"sy":1,"depth":145,"w":{"0":-0.01268250911453054,"1":0.08133404796273438,"2":0.18670198602182458,"3":-0.04393408335287304,"4":0.04999645058322678,"5":0.07637110444083843,"6":0.07822277974497278,"7":-0.053260252632242384,"8":-0.08508167156814539,"9":0.10272352172474909,"10":0.008531080482092689,"11":0.051522983549610706,"12":-0.05998128573698789,"13":-0.04368295861812335,"14":-0.07249420467380843,"15":0.07681361605601586,"16":-0.036683772521741966,"17":0.05563429444908752,"18":-0.11320933594055445,"19":-0.1454780840830267,"20":-0.03126925223858896,"21":0.10514370031855266,"22":0.071910620209578,"23":0.04100100771046293,"24":-0.009463747469849898,"25":-0.16764600832007034,"26":0.06014231746222617,"27":-0.15701498700442795,"28":0.008830341934343436,"29":0.12411862467838586,"30":-0.0021761011236112212,"31":0.10370263268949965,"32":0.08256334090873076,"33":-0.045892382115055134,"34":-0.05490601427578197,"35":-0.04782751552086547,"36":-0.002728218532968901,"37":0.0018633588019047864,"38":0.053313697310955394,"39":-0.011486386347015274,"40":0.08104629362222206,"41":0.005487447720599563,"42":-0.003997204087558522,"43":0.04770778543378702,"44":0.10678301277861323,"45":0.05567035451979923,"46":0.07887799881752026,"47":-0.060611586625234234,"48":-0.09539766101267164,"49":-0.06528087313837687,"50":-0.03624582431900161,"51":0.049668324849693295,"52":-0.0058818633245540115,"53":0.11606313508420511,"54":0.020484673741219317,"55":-0.029116949300448693,"56":-0.03012224956707412,"57":0.04398762005273399,"58":-0.048235166348917495,"59":-0.19678668005544178,"60":-0.0014078266083186563,"61":0.19029293632940034,"62":-0.02231244991172324,"63":0.01117109400646104,"64":-0.051677757695125906,"65":0.05875820198649077,"66":0.07403460050965667,"67":0.027718267859409788,"68":0.010918371175713485,"69":-0.02270359205466892,"70":-0.01802217341744151,"71":0.025075321430274654,"72":0.041896645146797855,"73":-0.014575977122521778,"74":0.0750473239451455,"75":-0.006829828208740481,"76":-0.09949575382314595,"77":-0.031373981243125584,"78":0.008033626263086017,"79":-0.04399119032809035,"80":-0.02827112498458166,"81":-0.10056532795871562,"82":0.08641400584999422,"83":-0.033075866442886744,"84":-0.023204971340288896,"85":0.01810662264945726,"86":0.005294892715977315,"87":0.06526755661166973,"88":-0.09399945459775084,"89":0.037749872705062394,"90":0.025683717117250388,"91":-0.11671206451934445,"92":0.1815939150448814,"93":0.14859747004745208,"94":-0.08624114820487551,"95":0.19766567385423736,"96":-0.09595274061163805,"97":-0.009286705587978044,"98":-0.055231488894269896,"99":-0.03263235395936507,"100":-0.08990979238255871,"101":-0.031966952202856454,"102":-0.17315285048977117,"103":-0.08311949571678053,"104":0.07466445397641845,"105":0.01591991110385044,"106":-0.04125173322361616,"107":0.01656037442599764,"108":-0.09775845369258405,"109":-0.03666265343188067,"110":-0.06226371587484763,"111":-0.027444203415834752,"112":-0.0829870202668034,"113":0.01146211196689594,"114":-0.11305811670742379,"115":-0.05806144745081823,"116":0.17616368199411125,"117":0.010375905031205357,"118":-0.16370287366625064,"119":0.2214525459280324,"120":-0.021232686198818178,"121":0.06102700168958223,"122":-0.015216902803491144,"123":0.04865486302154547,"124":-0.035044163427550484,"125":0.010031916177754714,"126":0.02456206885536414,"127":0.1250904108014637,"128":0.05787655166818689,"129":0.05649697937068638,"130":0.042151131438198694,"131":0.07697734462454404,"132":0.1632102673036468,"133":0.019044992356731044,"134":-0.009940917649003813,"135":0.0013047209246139428,"136":-0.07874088350942118,"137":-0.10881716630764768,"138":0.076972435940116,"139":-0.0660016870278099,"140":0.04844689075727791,"141":-0.12765708726103206,"142":-0.04473550645099111,"143":-0.14657528879110232,"144":-0.16683498640492628}},{"sx":1,"sy":1,"depth":145,"w":{"0":-0.04828435081667366,"1":0.14039752919452564,"2":0.06570882795631518,"3":1.0795240115681364,"4":0.20329062582700905,"5":-0.00046303702849338107,"6":0.05382612583549126,"7":-0.056215980357576883,"8":0.0011890950231105073,"9":-0.028736626585671388,"10":0.780018798084689,"11":0.09941474304042994,"12":-0.05404899248055006,"13":0.015819109688617727,"14":-0.10384034445116155,"15":-0.03296041154936673,"16":-0.015730995223030817,"17":-0.026555352552391557,"18":0.0457357001938742,"19":0.014347016562144647,"20":-0.024487262773739107,"21":-0.10439665036958438,"22":-0.058338469084680225,"23":0.0718288874642744,"24":0.026331151837106787,"25":0.1255545291179475,"26":-0.026716815602017687,"27":0.013666200011526908,"28":-0.1629422625901834,"29":-0.05752769890629349,"30":0.20043514701023982,"31":0.0004722643179384579,"32":0.13900756802117653,"33":0.016494495351174403,"34":-0.06119954807288505,"35":-0.006733472489739811,"36":-0.13945013554255598,"37":-0.033773311583791744,"38":0.047496090275168185,"39":0.06206382673485181,"40":0.00846095798227114,"41":0.0996548815973284,"42":0.08470712356185081,"43":-0.040772223614275904,"44":-0.057314984131272693,"45":0.03375666084466554,"46":0.11637269934987642,"47":0.05149530237511908,"48":0.0052967567049186344,"49":-0.00821409867484319,"50":-0.03114007730557563,"51":-0.14563176780300602,"52":0.019874330855886052,"53":0.09412784908046852,"54":-0.0017129785414686937,"55":-0.03100794013794617,"56":0.0033568143321592477,"57":-0.08171604075290344,"58":0.019032041203984697,"59":0.14001411099084965,"60":0.0695619529780641,"61":-0.02220847713351154,"62":0.10938094294811596,"63":0.07805632899766106,"64":-0.01977909566473474,"65":-0.07397230003613446,"66":-0.03638969289581698,"67":0.004233254790253214,"68":0.004840626690518451,"69":-0.11135984660418186,"70":-0.10201132137793244,"71":-0.03116599056206877,"72":0.022902166999159767,"73":0.3445334709901376,"74":0.1299543837386319,"75":-0.03604403056733018,"76":0.08685420649104605,"77":0.13261639025735472,"78":0.00833641215301455,"79":0.12276873989095943,"80":0.29690300880304227,"81":0.11563437551742127,"82":-0.023569581459144763,"83":-0.028043512473261076,"84":0.06432194920312835,"85":-0.04185911831346494,"86":-0.009264223101378671,"87":0.11940371292314424,"88":0.08895682931790296,"89":-0.0031524410790832297,"90":0.14700218527357117,"91":-0.0696072895617749,"92":-0.14446809077483777,"93":0.10863255445550699,"94":-0.048279916602926715,"95":0.02000838496727383,"96":0.11356295856764044,"97":0.018286173112051905,"98":0.09353835960148427,"99":0.05134833170829992,"100":0.06278813008190741,"101":-0.016268229626333047,"102":-0.006144310691093243,"103":0.01993153769998334,"104":0.07874554383451349,"105":0.11690614593533483,"106":0.03037522205162501,"107":-0.05086673139294677,"108":0.00623477376647099,"109":0.15302530621937768,"110":-0.13447250922890513,"111":-0.07037502647141128,"112":-0.17941540885682308,"113":-0.004018634135102095,"114":0.0038094279591191996,"115":-0.058631123133531346,"116":0.02872845087439738,"117":-0.10351614184567429,"118":-0.07733344712471867,"119":0.11460207802091162,"120":-0.058332691766443005,"121":0.01728553670994281,"122":0.03898289412630548,"123":0.09998809167718015,"124":-0.03861319102995367,"125":0.014888594542309624,"126":0.02092882546206533,"127":0.07259418835466103,"128":0.03852662218609224,"129":-0.008322271885927277,"130":-0.05531053935044969,"131":-0.060043304682272265,"132":0.0907192121706273,"133":-0.021249552281938096,"134":0.058590739598640265,"135":-0.051975102771155406,"136":0.024371284527211195,"137":-0.11770453815644076,"138":0.04652218654969661,"139":0.12367875407122311,"140":0.044339799127461464,"141":0.007681873914358461,"142":-0.17141369921782487,"143":0.05781363169702665,"144":0.057817957918699626}},{"sx":1,"sy":1,"depth":145,"w":{"0":0.11521629674411579,"1":-0.15780704373740143,"2":-0.10306671842337796,"3":0.016741178095810678,"4":-0.028885873067546915,"5":-0.006371185163719607,"6":0.012437926382429342,"7":0.03555697020950404,"8":-0.015646831741150984,"9":0.055174121538584024,"10":0.16978868026776062,"11":0.0686763690057363,"12":0.02947595614182391,"13":0.11526760438095414,"14":0.08598820804268467,"15":0.1562254409081154,"16":-0.040867642793773556,"17":0.13206079216690395,"18":0.1488087807945244,"19":0.05904309407884186,"20":-0.04683637323784258,"21":-0.04307934755667924,"22":-0.04000670687211482,"23":0.040859691632939205,"24":0.04448277383267668,"25":0.08145891451091077,"26":-0.13100716069085053,"27":0.036907172479505576,"28":-0.004954253318572859,"29":-0.12469740860514548,"30":0.053242806672989536,"31":0.1804634601328885,"32":0.0343147493974955,"33":0.03321826008141255,"34":-0.08854670838062388,"35":-0.06102395037927181,"36":0.04169843327190172,"37":-0.05198334835628357,"38":0.009337327391594007,"39":0.024725214018206817,"40":0.04984828806479976,"41":0.10528282397004318,"42":-0.09343833300760726,"43":-0.15881008949922304,"44":-0.05364594463454801,"45":-0.13196603085742387,"46":0.044944298409119544,"47":-0.02359755001573618,"48":0.13517752641804603,"49":-0.2501040051051216,"50":0.0504601751119837,"51":0.06384278076125488,"52":0.07017871270206617,"53":-0.046767093466926715,"54":-0.008249630078740801,"55":0.08894080446004901,"56":-0.18373249603320316,"57":0.0668408223156599,"58":0.028178192851853676,"59":-0.12776262135553815,"60":-0.01224968582715235,"61":-0.10980885464277716,"62":-0.005847400088045605,"63":0.06989254579351635,"64":0.01111763535327533,"65":0.1240271324455472,"66":-0.018619578958040728,"67":-0.08146906624445972,"68":-0.04632459323011505,"69":-0.061192400168999656,"70":0.0898787851720729,"71":0.030408207397758256,"72":-0.10168065311658277,"73":-0.031075209447426477,"74":0.10864011183882223,"75":-0.03931643379677464,"76":-0.1264645626910363,"77":0.058560504659268944,"78":-0.014371933428080888,"79":-0.08384359629562903,"80":0.12214926734073014,"81":-0.09867182728640067,"82":-0.0015673837196858561,"83":-0.024203390210066032,"84":-0.010614990176456169,"85":0.10603560594501416,"86":0.007040709099782703,"87":-0.0014308203860887475,"88":0.02747667965132285,"89":-0.013531587976117409,"90":0.03672758906906879,"91":-0.02637941710543628,"92":-0.01762829323175906,"93":0.05750930497579114,"94":0.1316684673474336,"95":0.008154851570066806,"96":0.062118598794695855,"97":0.012652203537277359,"98":0.1045207857097797,"99":0.06902739462499145,"100":0.059641893302279404,"101":0.02983300688583157,"102":-0.008971910509630017,"103":-0.07953066535482121,"104":0.11924342053311435,"105":0.004547550046497879,"106":0.08561821178100108,"107":-0.013252141902344246,"108":0.09267877087085861,"109":-0.09449892822856625,"110":0.06563992058630916,"111":-0.04293871429377887,"112":-0.023916825336010927,"113":-0.016616821867953088,"114":-0.034453150107585116,"115":0.025688653326016723,"116":0.04453860740797438,"117":-0.01704599484901594,"118":-0.02662209907403265,"119":0.04307205018006335,"120":-0.11845589348197981,"121":0.009396829684571662,"122":0.042895895341213325,"123":-0.01873157624172768,"124":0.008547451919600444,"125":-0.12413797762887699,"126":-0.02794011340479126,"127":-0.023127742701397568,"128":0.03431858172586295,"129":0.00317026398346341,"130":0.07016224837413146,"131":-0.08256062045711733,"132":-0.06227611007486535,"133":0.019534107916542875,"134":-0.03259731419043043,"135":-0.08234658405086434,"136":-0.07070474604735773,"137":0.04037029104166782,"138":-0.025420954017499598,"139":0.08100373711823403,"140":-0.014138107652898736,"141":-0.03309997334564993,"142":-0.07276880590541913,"143":-0.1688500377737752,"144":-0.2058668458729686}},{"sx":1,"sy":1,"depth":145,"w":{"0":0.14669625017320656,"1":0.0636263815472605,"2":0.09443840919073883,"3":0.04533186093970847,"4":0.22302510514379628,"5":-0.043503912613643926,"6":0.13795559517848688,"7":-0.08101136275424908,"8":-0.014622209487106606,"9":-0.03274997099852284,"10":-0.001275863361601011,"11":0.001810069364490873,"12":-0.09566577912840027,"13":-0.11861835721910752,"14":-0.1412627381433216,"15":-0.2045558085268873,"16":-0.004738644129732045,"17":0.10685552980161862,"18":-0.14801181128379795,"19":-0.16369211432516392,"20":0.08159232563874716,"21":-0.05378561311177059,"22":0.038073062943902135,"23":0.12771645592528785,"24":-0.049256340856970074,"25":0.015764034441734926,"26":0.05321388816100232,"27":-0.040196238034129465,"28":-0.006530240977637006,"29":0.09431967663120303,"30":-0.040941954069707805,"31":-0.012536159310326722,"32":-0.04167191016949365,"33":-0.013063821381589834,"34":-0.030628996970681468,"35":-0.050008305063232554,"36":0.17175525900303487,"37":-0.03308416361341954,"38":0.023791929218717374,"39":0.05060848079362861,"40":-0.06635888840641203,"41":0.05017101857916752,"42":-0.024799010678856183,"43":-0.09317372116754374,"44":0.06001156747724707,"45":-0.02741923608498859,"46":0.08290082021557786,"47":0.13776068046911208,"48":-0.04444105741765842,"49":-0.029611035168418353,"50":0.021758282337895094,"51":-0.0481284673710941,"52":0.0756679211060517,"53":0.0836222420259924,"54":-0.027846401405851092,"55":0.004586052667963293,"56":-0.03889837367386192,"57":-0.15661955671339656,"58":0.03959296263828713,"59":0.06832165322592325,"60":-0.0013724990190922648,"61":-0.02811833802612473,"62":-0.004032054779925533,"63":-0.06426321667019916,"64":0.15084561485795006,"65":-0.08919501858496394,"66":-0.14331771042448607,"67":0.01944657811775441,"68":0.14958525436260453,"69":-0.03889495647341202,"70":-0.12141107749824351,"71":0.07006546063691002,"72":-0.10614374556164391,"73":-0.13015529556510813,"74":-0.0060235004330420824,"75":0.0034259131215566532,"76":-0.0077640967187398375,"77":0.028924740060745805,"78":0.06390071238539069,"79":0.04427186972953286,"80":0.011607282207041056,"81":-0.07502906032002192,"82":0.056996505967372275,"83":0.04996145953991367,"84":-0.010267613686709478,"85":-0.07299950079298352,"86":0.08075644427972167,"87":-0.016760349837021814,"88":-0.02450429725576963,"89":0.09589955456701188,"90":-0.036571805123815276,"91":0.06869873965618016,"92":0.09114052251847524,"93":0.038482872099307536,"94":0.015666124229848654,"95":0.12126718740781446,"96":-0.11139058665516212,"97":-0.07153731850017003,"98":-0.005728655100787546,"99":-0.10142542128960871,"100":-0.040111098824557816,"101":0.14601022022003118,"102":-0.1334566434622139,"103":-0.005299166858233887,"104":-0.16375170059376723,"105":-0.006624760670437731,"106":0.10023134243443163,"107":-0.1440669410674417,"108":0.0035257445124925336,"109":-0.09394264417782791,"110":0.06754827092217662,"111":0.006889310850475704,"112":-0.046090667783363945,"113":-0.023310763665892055,"114":-0.15471474551664244,"115":-0.020928943392251872,"116":-0.009903144038860674,"117":0.05664905596076908,"118":-0.07269843009495297,"119":0.0061214203742241974,"120":0.1147551069846521,"121":0.10089521083523831,"122":0.1259016038454767,"123":-0.1249410706531054,"124":-0.06901027145273964,"125":-0.021250490929980752,"126":-0.000848720522751799,"127":0.08166776212890559,"128":0.021813720570921312,"129":-0.1091967450084072,"130":-0.08507905326669986,"131":0.06569758189101675,"132":-0.04396888560922355,"133":-0.0050375423377947166,"134":-0.023986852006606583,"135":0.056737195535361426,"136":0.007385851107192769,"137":-0.12328212247945423,"138":0.07559764027959683,"139":-0.08751597097338275,"140":-0.023754787759758714,"141":-0.018557821317512515,"142":-0.09685928566762969,"143":-0.1063578885433404,"144":0.031993913565702956}},{"sx":1,"sy":1,"depth":145,"w":{"0":-0.05409699220558673,"1":-0.035371807099307984,"2":0.02259019209729931,"3":0.11080421321615294,"4":0.06588351919409209,"5":-0.02297254060137443,"6":-0.03728175901112265,"7":-0.019079920672741862,"8":0.10432977126562927,"9":0.0017683278966943014,"10":0.24070418750458922,"11":-0.014191637628356776,"12":-0.02636490259075019,"13":-0.011406082779056956,"14":0.09306907997089348,"15":0.07499648848942181,"16":-0.04621715155881449,"17":-0.1676444288157373,"18":0.13478373054436496,"19":0.17899525684053225,"20":-0.11839309892507732,"21":0.014235279588859819,"22":-0.1264303192387911,"23":0.12203066479418048,"24":-0.02251997550915175,"25":0.10757391877796749,"26":-0.1127892106340906,"27":-0.08126477146887312,"28":0.08902424563366063,"29":-0.12641645677537458,"30":-0.0012684923904800738,"31":0.026979428751444816,"32":-0.048784419535917965,"33":0.004353594548178148,"34":0.04572223951674514,"35":-0.032528774848212615,"36":-0.028039332573169675,"37":0.06046259270618011,"38":-0.12615365729868883,"39":-0.09106158429354916,"40":0.05256146290581028,"41":-0.053745223576580445,"42":-0.06786246914719286,"43":-0.03337679904383881,"44":-0.08552231274791298,"45":-0.1305083004192773,"46":-0.10867605988458183,"47":-0.05540432252595641,"48":0.12959764983131353,"49":-0.10160420106276592,"50":-0.01836912971322517,"51":-0.1360052622816002,"52":-0.010320997592674101,"53":-0.07494608610168527,"54":0.0754498592022313,"55":0.07752611884462929,"56":-0.043001283119958746,"57":-0.070829470716238,"58":-0.05246810007115353,"59":-0.12717635039923278,"60":-0.09248931645468066,"61":-0.037920863541159915,"62":-0.055671133388509694,"63":-0.05358888719502086,"64":-0.03581767799413228,"65":-0.02078854328728306,"66":0.0570466180784704,"67":-0.031138208753931633,"68":-0.06813876547691233,"69":0.06468238635391897,"70":-0.1276402012475782,"71":-0.06222361626271689,"72":-0.02435980311457743,"73":-0.08783080076700882,"74":0.048284224739496326,"75":-0.01567640071597892,"76":0.21946623857979625,"77":0.03977749314783286,"78":0.04202081168677223,"79":-0.06641552311065625,"80":-0.014457006786311724,"81":-0.12653741821769376,"82":-0.07842411030646113,"83":0.14623437345915172,"84":-0.12561757743511345,"85":-0.009071906561228403,"86":0.07414360969709538,"87":0.05409061437645084,"88":0.06678181255122441,"89":0.04327069876339801,"90":-0.017162707933549296,"91":0.11296377322129714,"92":-0.003915303570466156,"93":-0.10009422436425829,"94":-0.12532791918726305,"95":-0.038682197467551215,"96":0.07403561716361404,"97":0.0351082150795382,"98":-0.09897184472508666,"99":0.12344090886470543,"100":-0.08534306165674402,"101":0.06292046938564093,"102":-0.06455278200474385,"103":-0.10417468848285198,"104":0.07268391773032051,"105":-0.11734023660595487,"106":0.03763535250686825,"107":-0.07068873578887366,"108":-0.075500881784435,"109":0.04495360480764712,"110":-0.1595882682538084,"111":0.0324647270333261,"112":0.0009859842365779936,"113":-0.025905102191435627,"114":0.15585203973884393,"115":0.04127486592874271,"116":-0.041759596912002116,"117":-0.059855342686089184,"118":0.03434419176722107,"119":0.16068439011670502,"120":-0.002429991543844884,"121":-0.005223795724147283,"122":-0.053146665378649,"123":-0.006495620041873064,"124":0.12332876205499947,"125":0.1506457056286825,"126":-0.11984414320090002,"127":0.09861086514315569,"128":0.06867736252611466,"129":0.02396335347088298,"130":0.09635853223671574,"131":-0.11593532531554955,"132":-0.013773976082093253,"133":-0.07448146455622849,"134":-0.022452066706626646,"135":0.0641897089930585,"136":0.09619197155290772,"137":0.13050889922734377,"138":0.018461564854127192,"139":-0.1288486222429499,"140":-0.022744497223126773,"141":0.0603071608777287,"142":-0.054335517015899976,"143":-0.15666006629539742,"144":0.10426428621852335}},{"sx":1,"sy":1,"depth":145,"w":{"0":-0.0656240316352186,"1":0.025537617246424005,"2":-0.08814595053095474,"3":-0.1310534722847183,"4":0.11136129964728751,"5":-0.019239752471233326,"6":0.08383828659858861,"7":-0.10974037227052487,"8":0.017745660357028195,"9":0.14437977158910695,"10":-0.044904613657966407,"11":0.02570701378080165,"12":-0.06248044152299657,"13":0.16184379071647034,"14":0.04317451923100251,"15":-0.14456704166648768,"16":-0.018742282184114223,"17":0.04941257065082602,"18":0.22933270063204775,"19":-0.11921434327374139,"20":-0.03610719762730098,"21":0.039439378153493514,"22":-0.008352358361416288,"23":0.07175875228915922,"24":-0.08056249502365179,"25":0.09612915411427983,"26":0.0019249743395434388,"27":0.01895814402344915,"28":-0.1523046346895646,"29":-0.09920247123413174,"30":-0.07681561401665737,"31":-0.06428970753041376,"32":0.00884771930610812,"33":-0.007586068937251961,"34":0.015973775225743243,"35":0.006957826539013503,"36":0.10827478399501567,"37":-0.01568996368329529,"38":-0.07118884369010617,"39":-0.04373270255652621,"40":-0.029068307053473335,"41":0.03910802660770519,"42":0.07710308680022428,"43":-0.14071910607295188,"44":-0.07099650071939223,"45":0.07977378399980582,"46":0.049007798563593996,"47":-0.0067786825505528475,"48":-0.11281527350428573,"49":-0.09377493360202076,"50":0.021863463874858546,"51":0.004522768049254634,"52":-0.13177108175853663,"53":-0.025654988781502935,"54":0.027902981912250616,"55":0.08728116123303148,"56":-0.028541871848925617,"57":0.021586111930078575,"58":0.08266470516808225,"59":0.10316400614643013,"60":0.002505051715414219,"61":0.10792248046585591,"62":-0.06904927735496721,"63":0.0037294095261393976,"64":0.0020362144975996097,"65":-0.01684786464765422,"66":-0.01240332348654079,"67":-0.02147481417736376,"68":0.06140297591065471,"69":-0.03919053271923195,"70":-0.1292249378829488,"71":-0.018037379785721508,"72":-0.03502582465738362,"73":0.10178731191599133,"74":-0.056589738610743005,"75":0.012936982379363,"76":-0.0009760046142724665,"77":0.00580890789486288,"78":-0.08620496072961695,"79":0.05523620413769883,"80":-0.16746575140543288,"81":0.12906911487809736,"82":-0.1412727017121872,"83":0.013206200788419402,"84":-0.030079271172387564,"85":0.2173910354406891,"86":-0.002095919721621385,"87":0.13603365616811033,"88":0.019862291032273497,"89":-0.12083298609646993,"90":-0.14866686405138999,"91":-0.041360636602200254,"92":0.1349427739302913,"93":0.13397133691307841,"94":-0.05597414473063299,"95":-0.038485365623895956,"96":0.09983698727203488,"97":-0.03858256195895428,"98":0.05111691722330257,"99":-0.004634161429559487,"100":-0.010623857079003799,"101":-0.024134332491471813,"102":-0.039548455928437275,"103":0.012685573991309148,"104":-0.07521024254246757,"105":-0.032230294442302895,"106":-0.06158028309724548,"107":-0.13258451461734092,"108":0.03656121973995936,"109":-0.044784155485365004,"110":-0.012879785564173147,"111":0.16597934598003855,"112":0.11917070626231732,"113":0.09189602328065205,"114":0.11513386488300457,"115":0.11408020240801538,"116":0.005071849455861344,"117":-0.0757257948478019,"118":-0.13635143636170974,"119":-0.1738107558759603,"120":-0.026918128562351647,"121":-0.06954756319468153,"122":-0.17488396970494272,"123":0.1949170859394786,"124":0.0013203146698589146,"125":0.020491425102426096,"126":-0.08838555812761038,"127":0.07487902093057382,"128":-0.05804491298779296,"129":-0.02896284942117317,"130":-0.0018780770575087527,"131":-0.11476790537777096,"132":-0.0004476623860020542,"133":-0.10919069419093237,"134":0.0340805200086289,"135":0.06120130878280097,"136":-0.06908139593907803,"137":-0.06062116244803197,"138":0.0820619545979504,"139":-0.19259426296812332,"140":-0.007361131984445762,"141":0.1752630606394881,"142":-0.1321884759401735,"143":0.05429007755159422,"144":-0.09943500993587492}},{"sx":1,"sy":1,"depth":145,"w":{"0":0.06265573617412926,"1":0.0011100318450416953,"2":-0.08419420670892701,"3":-0.10527490831637393,"4":-0.11905986164785759,"5":-0.06820017281387146,"6":0.02462131838475449,"7":-0.01593321417315511,"8":-0.05618501490115234,"9":0.18207013008300568,"10":-0.0038107727968252933,"11":0.05852318636071305,"12":-0.14921053487306854,"13":-0.1257670142731559,"14":-0.019555337103073382,"15":0.011297517304133144,"16":0.017655723573327387,"17":0.164815590757423,"18":0.08560806473477127,"19":-0.15122721507367518,"20":-0.08659466039887184,"21":-0.09935379021691945,"22":0.007371028163612464,"23":0.10444904826479154,"24":-0.007033013056564553,"25":-0.011711859952546505,"26":-0.022448093119538336,"27":0.05251502630587058,"28":-0.1280265836275056,"29":0.048996732527909585,"30":0.15932396467443102,"31":0.06498094548752031,"32":0.09654329306422395,"33":-0.026741961853986914,"34":-0.07874316506820053,"35":0.03879606972468817,"36":0.0056060823095434135,"37":0.07854907366595872,"38":-0.003090201050239665,"39":-0.05157569433437356,"40":-0.052646174472862746,"41":-0.03973750552799121,"42":-0.07497194814847916,"43":0.11249165460688186,"44":-0.04540902374950961,"45":0.03472284291503837,"46":-0.059215642454306855,"47":0.07053910466006433,"48":0.003972597650721297,"49":0.08679408080048699,"50":-0.00024383506110819394,"51":-0.06115686721002154,"52":-0.12451232946160888,"53":-0.05244974058016358,"54":0.050673983788828945,"55":0.16713734028401805,"56":-0.023606269365468738,"57":0.03765318122648689,"58":-0.04048410910939179,"59":-0.015388640521808241,"60":0.007474182270800617,"61":0.02043771752721923,"62":-0.005325219304412989,"63":-0.0617670210689902,"64":-0.14053772789601116,"65":0.03005228844425251,"66":-0.0553269908190951,"67":0.015575733056346144,"68":-0.04763901755918462,"69":-0.19996012440210043,"70":0.16739929530666484,"71":0.05635543289308196,"72":0.0012948275993515724,"73":-0.09992599965901078,"74":-0.04347921656073723,"75":0.010053584215354046,"76":-0.06306868753871114,"77":-0.06275129054150583,"78":-0.08148068945468125,"79":0.0443006449864743,"80":-0.07450731887947776,"81":0.027331889202371795,"82":0.04756941944892363,"83":0.00924378074098718,"84":0.03391821841406462,"85":0.1167910824042733,"86":0.007744798522711265,"87":-0.01999795800423796,"88":0.1090018545692587,"89":-0.06739654903505102,"90":-0.06729656593536505,"91":0.00508780736897722,"92":0.038439581031166,"93":-0.024412670462432163,"94":-0.08571317867893134,"95":0.09375733885804532,"96":0.018849601403506975,"97":0.04594743639210149,"98":-0.16208156358370301,"99":-0.09101027246235062,"100":0.045266621339037985,"101":-0.026913458702792277,"102":-0.012343885174514218,"103":-0.051754821771884105,"104":0.016136559848804036,"105":0.24605618423695777,"106":0.1602899573694337,"107":-0.002619130543710215,"108":0.03840996041566449,"109":0.04372929083124362,"110":0.01777552072225929,"111":0.05906453385731341,"112":-0.2071443698420885,"113":-0.0027003229946561277,"114":-0.1472162989146779,"115":0.10270012470192903,"116":0.035897010035426176,"117":0.020069135839105457,"118":0.06187543565788225,"119":0.039203078484750825,"120":-0.11272385468625591,"121":-0.03287858216877549,"122":-0.11233052013222178,"123":0.03582913041245374,"124":0.07490021305311222,"125":0.14969884175567635,"126":0.05512271422081483,"127":-0.01238994347479736,"128":0.011193295834070704,"129":-0.0019161600855125969,"130":0.019547264541444676,"131":-0.06426790447994339,"132":0.010135309115361441,"133":0.04739775570235831,"134":0.07887266182901909,"135":-0.06118515402524342,"136":-0.003967815226090862,"137":0.018099083399869424,"138":-0.03511197076333016,"139":0.11714259543455037,"140":-0.03315960758700645,"141":-0.07515862388876757,"142":0.000025618458991819972,"143":0.04008906754824513,"144":-0.017142027436234553}},{"sx":1,"sy":1,"depth":145,"w":{"0":0.04509389664835144,"1":-0.13005330035123067,"2":-0.04513549229979342,"3":0.0862747085996038,"4":-0.08006116340038286,"5":0.00667266553046274,"6":0.10833478501534254,"7":0.05287672843034946,"8":-0.18984225110980257,"9":-0.023124385022177094,"10":0.05775754199412051,"11":-0.06418778142919944,"12":-0.06749482260569296,"13":-0.042050222958735166,"14":0.1155174941373469,"15":-0.016478213741292352,"16":0.00028132509478884465,"17":0.05292650325234218,"18":-0.01299097797288383,"19":0.015119357404674095,"20":-0.0018875363642605063,"21":0.2272177014229811,"22":-0.07995448809977848,"23":-0.044613028200925345,"24":0.17913363796503778,"25":0.016920195739100145,"26":-0.05204712519412256,"27":0.034938338049138054,"28":0.09120807039634496,"29":-0.11554327021371717,"30":-0.02148043762677869,"31":-0.023901318181401877,"32":-0.19900347354286543,"33":-0.043555895186701776,"34":-0.10734609600323236,"35":0.13175023930512939,"36":-0.0006346237282947809,"37":-0.00401424884674069,"38":-0.0015208972014914594,"39":0.2725063459559865,"40":-0.022414621597259345,"41":-0.023675806066336,"42":0.07073880543387005,"43":0.03359845904926867,"44":0.025016655206097256,"45":-0.1194263518033859,"46":-0.15941736775487717,"47":0.052517080779086275,"48":-0.0006587288713930868,"49":0.021809784558918965,"50":0.09562113788503888,"51":0.11222825802054118,"52":0.03645850547374395,"53":-0.041834407001602625,"54":0.021108223736370706,"55":0.09884540148431747,"56":0.0512534364979615,"57":-0.035741743497954045,"58":0.002394478526766908,"59":-0.09225336398280415,"60":-0.14967817061128247,"61":0.0009670627369139531,"62":-0.04580564951559336,"63":-0.037088916353993306,"64":0.005629856237432777,"65":-0.12204393961814974,"66":-0.12876894929377278,"67":-0.19603189076641866,"68":0.01667999263743073,"69":-0.055995707645169056,"70":-0.07947250189391261,"71":-0.18596881330772627,"72":-0.04215584358531381,"73":0.08185327647966832,"74":-0.050962935597060714,"75":-0.15350938161037006,"76":-0.05905687334933066,"77":0.05341058240348675,"78":-0.025057320097379248,"79":0.05532608099382208,"80":0.02716536440103181,"81":-0.18719236774677925,"82":-0.0950253389510471,"83":-0.12285117551084271,"84":0.034755578407414084,"85":0.04062464447372769,"86":-0.030324101268803236,"87":0.04761190869702825,"88":-0.15767309701919008,"89":0.022944107599242397,"90":-0.00849413974465009,"91":0.07652587139145355,"92":-0.13176398157913166,"93":0.051658857194922234,"94":-0.11112663960673874,"95":0.005360545217764867,"96":0.010818157909479232,"97":-0.09437399910974248,"98":-0.02130911865354372,"99":-0.04882380963110899,"100":-0.13997666853655488,"101":-0.026916656245468604,"102":-0.01355006303657494,"103":-0.011107767455783577,"104":0.12372757579596431,"105":-0.1307194746279932,"106":0.002273512780152911,"107":-0.04892934848284496,"108":0.04104972485607483,"109":-0.08081743148681242,"110":-0.12269193764385747,"111":0.013458821128891046,"112":0.052200484849537106,"113":0.039321297865371994,"114":0.016628282309788703,"115":-0.032021300409546025,"116":-0.03870373481756419,"117":0.0521066793553885,"118":-0.044040472164814944,"119":0.016683328180569595,"120":-0.012372037693462139,"121":0.03796035304773405,"122":0.052235899435832435,"123":-0.01188684846626508,"124":0.14412938345052304,"125":0.014598843792925583,"126":-0.058803850418866134,"127":0.02257354907647853,"128":0.01852773067047775,"129":-0.0743038777926084,"130":0.14264531595629962,"131":-0.1058348687475708,"132":0.013944156857504593,"133":-0.06709303645138325,"134":0.16635043248387602,"135":-0.023672827400016604,"136":0.011950554795900405,"137":0.08057574832632966,"138":0.07891856126842613,"139":-0.0037164368950932726,"140":0.0783541978456446,"141":0.04788038932411837,"142":-0.059004375127318695,"143":-0.13275714784626858,"144":0.059249481931293084}},{"sx":1,"sy":1,"depth":145,"w":{"0":0.020262607780680227,"1":0.07292351019997373,"2":0.032177992299346245,"3":0.39386644940660676,"4":-0.0981130872523935,"5":0.1194737704473376,"6":0.12859510110723013,"7":0.03299529856367095,"8":0.10403300129964542,"9":0.3041930119399719,"10":0.3605584547999887,"11":0.03166720708976149,"12":0.020118943602410573,"13":-0.05157798506194472,"14":0.09107258363317208,"15":-0.10646999243023826,"16":0.021895995402854605,"17":0.1392867308085242,"18":0.14817098448044008,"19":0.11164897275719311,"20":-0.06130730607376257,"21":-0.058057388875445044,"22":0.080002537544842,"23":0.06937744422409194,"24":0.06258008999162311,"25":0.1963634938485833,"26":-0.03514414327597632,"27":-0.04418936945172929,"28":-0.09032729380839712,"29":0.04432755759342555,"30":-0.028765200391241516,"31":0.03294461152234237,"32":0.050968806244951106,"33":-0.023913581346256426,"34":0.08886701302306672,"35":0.08733371559889186,"36":-0.03535801200950371,"37":0.03652786346537882,"38":-0.15681051577983293,"39":0.0658510965703644,"40":-0.04472801084707409,"41":0.04585550324976344,"42":0.06940073113892674,"43":-0.05002194473042811,"44":0.1003891209612997,"45":0.029148058426185636,"46":-0.008009402549174656,"47":0.11420578746504706,"48":0.022255306797680452,"49":0.04801629540028378,"50":0.0010533400338774692,"51":-0.04322789577002181,"52":0.012634591765408855,"53":0.08363789227576048,"54":0.1265063166303275,"55":0.011659697865553178,"56":-0.019204766977325458,"57":-0.08035632663828313,"58":0.11035513792900822,"59":0.0810600497316161,"60":-0.0032044521912416185,"61":-0.02000847933116882,"62":-0.07913765541647028,"63":-0.17140440095542564,"64":-0.057766027792092334,"65":0.05712494641338293,"66":0.006667558735377074,"67":0.04068816060958366,"68":0.1551900378764467,"69":-0.030069434630644376,"70":0.0003323051220239492,"71":-0.00851926819364727,"72":0.06686693058601825,"73":0.22510351462384032,"74":0.07912353268655206,"75":-0.053865112206547834,"76":-0.13756277026513097,"77":-0.017082123490022673,"78":-0.041772306411360906,"79":0.13741800511940028,"80":0.15221540823838378,"81":0.04205071920296687,"82":-0.03900625743686021,"83":-0.0577751550007382,"84":0.030179138232936543,"85":0.024381744034086904,"86":0.10199754481420366,"87":0.06984625198060261,"88":-0.10123389994565528,"89":0.000024160079095725926,"90":-0.18272327872715244,"91":0.05690225260123989,"92":-0.0009963492688058126,"93":-0.06982657245627308,"94":0.08191545529854331,"95":0.08346085851051625,"96":-0.002020086892891688,"97":-0.1494186173806046,"98":0.019817216487883198,"99":0.039536239807076955,"100":-0.011392262472749005,"101":-0.0996817021808214,"102":-0.012092529535429051,"103":0.09628152878893016,"104":0.0030915110790375407,"105":0.11825052258240877,"106":0.014883423097738298,"107":-0.009276518530164214,"108":-0.0059022671281196565,"109":0.021184745625301572,"110":-0.10642093011483322,"111":-0.07467082841563735,"112":0.029328309762509185,"113":0.04088227246818906,"114":-0.051248557382022476,"115":0.05019243019111258,"116":-0.11129940485799551,"117":0.04172977285046716,"118":-0.016415482689849017,"119":0.027542152998317748,"120":0.12135923732218486,"121":-0.016009466447732514,"122":0.04961044149755611,"123":0.14437712567386568,"124":0.1182471260787365,"125":-0.0578278529584256,"126":-0.04386757229066085,"127":-0.023958519596204875,"128":-0.10681967820442799,"129":0.017324953280933184,"130":0.06790089953942022,"131":0.09478624759802376,"132":0.02499646652663466,"133":-0.10587196974919796,"134":0.02603358616637453,"135":-0.006134213692942571,"136":-0.03173121793448209,"137":-0.018188145005839255,"138":-0.021491385709435602,"139":-0.062290511945504425,"140":0.08999935559949711,"141":0.00040980847474454034,"142":-0.08821537199589607,"143":0.10385235221015408,"144":0.1075580479037952}},{"sx":1,"sy":1,"depth":145,"w":{"0":-0.18877603141514754,"1":-0.06908134537726777,"2":-0.11747594107684764,"3":-0.3290858373519142,"4":-0.05444959727350608,"5":-0.012862822818353534,"6":-0.03709012162498748,"7":0.13131129543298256,"8":-0.044858745364320204,"9":0.10310250039563995,"10":-0.1827174010794074,"11":-0.132142438406587,"12":0.025427619304641214,"13":-0.01405647189064879,"14":0.00798145729183163,"15":-0.024758645158023833,"16":-0.005557870100177222,"17":-0.036168798122204325,"18":0.010468179641203912,"19":-0.10290614064788463,"20":0.06692983508311835,"21":-0.01965232723807924,"22":0.024070014719023546,"23":-0.06087488092365043,"24":0.09383146961596935,"25":0.023942357915412382,"26":-0.033043708730972815,"27":-0.021636020271370276,"28":0.08884238428603328,"29":0.09652513914482232,"30":-0.041814974099429886,"31":-0.017305607501602885,"32":-0.22948059818127467,"33":0.07752810853098237,"34":-0.1966283441672813,"35":-0.05626111984434274,"36":-0.1306931836727255,"37":0.03952079567157055,"38":0.0979276874251636,"39":-0.13585733468387456,"40":0.12480079586862487,"41":-0.017829937730876384,"42":-0.1145130298990188,"43":0.012990552370808393,"44":-0.050078366740826497,"45":-0.16979565831398802,"46":-0.11654667899005224,"47":0.07356793684116482,"48":-0.0708707062195315,"49":-0.17584461133096152,"50":0.008246762874260573,"51":-0.068648700895038,"52":-0.07861996998919357,"53":-0.0581908561417364,"54":-0.00999359908912402,"55":0.1514271506233443,"56":0.0063974942005625935,"57":0.00689361418320563,"58":-0.03802524131158786,"59":0.05233756435971212,"60":0.007158611152691541,"61":0.017186466522090906,"62":-0.10114266308442248,"63":-0.08641365090685942,"64":0.09715849320373526,"65":0.030500223587827637,"66":-0.06735659987492516,"67":-0.10410283754179103,"68":-0.02589436082793387,"69":0.10555861874160492,"70":0.03648127250128097,"71":-0.1292851836789628,"72":-0.092022469537952,"73":-0.11768236172298471,"74":-0.07756778108703449,"75":0.017915011366052322,"76":-0.0421896560451956,"77":-0.10399395474125178,"78":0.09106039339346957,"79":0.03198805517547057,"80":-0.033976632285993236,"81":-0.15319566595185619,"82":-0.05014582368258831,"83":-0.12226412845886381,"84":-0.02722194724945799,"85":0.016947108951856363,"86":-0.005743607519898986,"87":-0.13723553423042156,"88":-0.04448832603540492,"89":-0.12340537807669301,"90":-0.0763929348137568,"91":-0.022789677415129786,"92":-0.0007755314947275073,"93":0.04366918277160254,"94":0.04548875025287432,"95":-0.10137338439920537,"96":0.04706951809962423,"97":0.06386487404855587,"98":-0.10306389839653823,"99":-0.15059008690625197,"100":0.014457802244376136,"101":0.055607070876060836,"102":-0.08653104506556945,"103":-0.01631810564759801,"104":-0.005352954960063911,"105":-0.08460497836793372,"106":-0.14483705004491393,"107":-0.16137545208798773,"108":0.0613735366502053,"109":-0.0319205684783065,"110":0.02174790807522207,"111":0.02126293778756658,"112":-0.07795347313342144,"113":0.07710998194473132,"114":0.00906758039721265,"115":0.07614406620417032,"116":0.014046787596651084,"117":-0.018254749881964266,"118":-0.05933640002243763,"119":0.11495261879257457,"120":-0.14400856379964092,"121":0.0831870918918696,"122":-0.004173552247445006,"123":0.007240357210075548,"124":-0.03774129815566169,"125":-0.04322295939376656,"126":-0.04860506734786643,"127":0.027196375586321635,"128":-0.054031429581917416,"129":-0.0037030370562861205,"130":0.08966153192454762,"131":-0.09501534049347972,"132":-0.0017968992701032033,"133":-0.0776064341950167,"134":-0.05097434713542652,"135":0.13654213486019035,"136":0.157919090875533,"137":0.009985020044157706,"138":-0.05508956452442794,"139":0.1091496538937644,"140":-0.08794845101915832,"141":-0.02784105438610464,"142":-0.16887778145263996,"143":0.052977452611362885,"144":0.07521213078792024}},{"sx":1,"sy":1,"depth":145,"w":{"0":0.009835944567266218,"1":-0.028179051176187072,"2":-0.05627146871717584,"3":0.037896537510771044,"4":-0.1279131268534354,"5":-0.07966858865881447,"6":0.046525005687354015,"7":-0.022123580222125468,"8":-0.14348665831441884,"9":-0.13777773995000897,"10":-0.013366063203801008,"11":0.16324011791167992,"12":-0.02089300529702833,"13":-0.016760058473205608,"14":0.049576187167956386,"15":0.00882723114771772,"16":0.09400994660725734,"17":0.016831715193632326,"18":0.095683936851427,"19":-0.029819022050035948,"20":0.18811978964009385,"21":-0.025608538921080743,"22":-0.10246122060701035,"23":-0.10989545654042351,"24":-0.08177147401489206,"25":-0.10341036423990731,"26":-0.11949447366054286,"27":0.1318977173336365,"28":0.06844593810054014,"29":-0.0720173819416649,"30":0.025243332071328003,"31":0.014242331635201779,"32":-0.07630198662483696,"33":-0.23612165687445646,"34":0.06044479845717607,"35":0.0463827602314629,"36":0.10328666835793343,"37":-0.00385572775811187,"38":0.0010075209556820962,"39":-0.058385373964854374,"40":-0.07496657633338775,"41":-0.1599358871499368,"42":0.07147876795190634,"43":-0.056180773135333484,"44":-0.11231942225086261,"45":-0.21469650828286255,"46":0.06422230686379679,"47":0.06211625017619083,"48":-0.07489233688793318,"49":0.06080435168879209,"50":0.03891817715632616,"51":0.011528188322340701,"52":0.07966727200301559,"53":0.08329955415535292,"54":0.04647882479402813,"55":0.1353682397468213,"56":0.07872853518032934,"57":0.15144058647947853,"58":0.0004922250556169454,"59":-0.013006998573194378,"60":0.024195960683020795,"61":-0.06306988280778898,"62":0.005008416532371395,"63":0.005818650584761605,"64":0.05457812544752235,"65":-0.15859206349647387,"66":0.08929190562836851,"67":-0.04890989487968863,"68":-0.013857799398191291,"69":0.0910831074108067,"70":0.16314114987605088,"71":-0.08468014431654197,"72":0.16630485349809537,"73":-0.0016937186474456122,"74":-0.09862178115903257,"75":0.000751878777460457,"76":-0.019394728693564227,"77":-0.060566012021094844,"78":-0.0875152205337443,"79":0.04239998444311461,"80":-0.016260440778997045,"81":0.12153239417262378,"82":0.10691795378833696,"83":0.051719145061422986,"84":-0.007557381731585452,"85":0.1224491255766107,"86":-0.0938983904566988,"87":0.08942251179434794,"88":-0.033189277141396675,"89":-0.03893077356030573,"90":-0.08408438689409632,"91":0.0851205236830008,"92":0.07282588054060919,"93":0.009892484019552335,"94":-0.09013868040545787,"95":0.128092381676912,"96":-0.038761994039650007,"97":0.06772504270496223,"98":0.041879817667517916,"99":-0.030353849188443582,"100":-0.020448996378824018,"101":-0.05018702282279659,"102":0.0068945793185771825,"103":0.10325831731842515,"104":0.08361176762553031,"105":-0.06727256919563351,"106":-0.1532962452219856,"107":-0.08540727535834573,"108":-0.005149055890655881,"109":0.15424733497566764,"110":-0.07973926382562604,"111":-0.14515341089968548,"112":0.013602368407292653,"113":0.0867033659309637,"114":-0.03836045562972518,"115":0.08752305515092763,"116":-0.05258520296266904,"117":-0.054505758987194536,"118":0.11968773815808428,"119":-0.031560650759186085,"120":-0.10857221868703938,"121":0.11441898275429128,"122":-0.07313788383169613,"123":-0.026676920735432017,"124":0.03959868934175243,"125":-0.06358793303934844,"126":-0.1489463961233769,"127":-0.05444961039139936,"128":0.03775882027106143,"129":-0.029030077909498755,"130":0.019589915728350393,"131":-0.04703832990466141,"132":0.0753860736447299,"133":-0.020074835073976574,"134":-0.07656445855750464,"135":-0.10024696184464509,"136":0.009196345097838567,"137":-0.014904950053142565,"138":-0.01229325214788463,"139":-0.25876766943836677,"140":0.07025877462300177,"141":-0.010316101165638405,"142":0.015455906420420275,"143":0.06846840230620352,"144":-0.04102840036752324}},{"sx":1,"sy":1,"depth":145,"w":{"0":-0.05161009480033476,"1":-0.05207245170874515,"2":-0.1302856849005218,"3":-0.8720418852027177,"4":-0.16323446503344397,"5":-0.07686996629678594,"6":0.10358155575396372,"7":-0.11253018667180677,"8":-0.1169786803981459,"9":-0.015838946743238005,"10":-0.7746640575928201,"11":0.010991330373911173,"12":0.04724745772822977,"13":0.05298463315828657,"14":0.13106598973262862,"15":0.09789651236546791,"16":-0.029555672347798576,"17":0.03782876976101781,"18":0.04433898063884407,"19":-0.006700307952712298,"20":-0.00408945440154136,"21":0.06943723809432877,"22":-0.024574524491981775,"23":0.16258237531819753,"24":0.04667259335640606,"25":-0.14264155284898256,"26":0.05988286156252302,"27":-0.07648490068378344,"28":0.1052324469679055,"29":-0.14985274990562972,"30":-0.11458741370056207,"31":-0.0009763011084614884,"32":-0.1073867817464542,"33":-0.07621286543848585,"34":0.05667693214962321,"35":-0.11992211475610362,"36":-0.1491998062047238,"37":0.013176808405349098,"38":0.06606710497635042,"39":-0.1267248109880873,"40":-0.08525866900091558,"41":0.14472021289992915,"42":0.02629293480967306,"43":-0.023058077837258426,"44":-0.007224039083347499,"45":-0.060623014872729336,"46":-0.056420386709655,"47":0.03589988307472438,"48":0.035410857516138323,"49":0.051358968796379335,"50":0.04875070386009512,"51":0.03702596650137385,"52":-0.004727041279892416,"53":-0.18058981635554516,"54":0.10652328217478475,"55":-0.09639875816041402,"56":0.051841796175267914,"57":0.050869395588495,"58":-0.16503237645168342,"59":-0.02834977077319241,"60":-0.15298549875859735,"61":0.001581877638868718,"62":0.02893949927775333,"63":-0.14392866848724814,"64":-0.01602747881697638,"65":0.0032187381265749463,"66":0.02100138708761978,"67":-0.12869822001602807,"68":0.016882646230614085,"69":-0.01990248145418507,"70":-0.004722487155011161,"71":-0.051086297460671164,"72":-0.04957836233650431,"73":-0.37112400215564056,"74":0.005259855002065754,"75":0.07968981321638213,"76":0.11872550478514983,"77":0.023384258676985084,"78":0.011869268072123785,"79":-0.0978093229319122,"80":-0.2262522964400726,"81":0.03362687112093546,"82":0.0033458202656323497,"83":0.03226468429145739,"84":-0.017983615025173833,"85":-0.07235662961142258,"86":-0.056366994226435124,"87":0.07429431869719122,"88":-0.05718343486354727,"89":0.06926844357364945,"90":0.0014271902845331638,"91":0.1801301318529327,"92":0.023871680738074684,"93":-0.026087005555386664,"94":0.03764180449713567,"95":-0.17870203710740792,"96":0.05687335588531078,"97":-0.041358555720572295,"98":0.20441330981291245,"99":-0.029181018732498672,"100":0.01747865962897893,"101":0.1149984187877938,"102":-0.16960674556993366,"103":0.0615777838149843,"104":-0.004411325855758823,"105":0.04825036497447668,"106":0.0033811793756043746,"107":-0.015302090001652616,"108":-0.023154763624318706,"109":0.04395894507856548,"110":-0.013127365784490365,"111":-0.01817660117752094,"112":-0.02593778815767138,"113":0.0560491881646544,"114":-0.061341740166190525,"115":0.024317962286258498,"116":-0.09579688086910863,"117":0.07095355163021394,"118":0.05699680662108922,"119":-0.012376842292058092,"120":0.16395917707935276,"121":-0.1275928285958365,"122":-0.04153025129529997,"123":0.02868555578956845,"124":-0.06473763432642576,"125":0.0075998646825804796,"126":0.0695934332295432,"127":0.19099221378532624,"128":-0.00494102012623094,"129":-0.0018092923242345434,"130":0.0038577331412142655,"131":0.16429484495058297,"132":-0.039673337750661716,"133":0.071425121052787,"134":-0.014107285191331892,"135":0.08208300031084079,"136":0.004124894015549347,"137":-0.16372562602426607,"138":-0.07069507187349572,"139":0.09581717028243213,"140":0.046723900611714386,"141":-0.03606241640488526,"142":-0.16951229258807599,"143":0.08486245636356027,"144":0.1277235162597692}},{"sx":1,"sy":1,"depth":145,"w":{"0":-0.0041806889108232425,"1":-0.03814763642199963,"2":-0.010685479201696378,"3":0.9047935913622994,"4":0.1046859038017214,"5":-0.0693562848377462,"6":-0.2030871873061358,"7":0.06092286313645066,"8":0.05220100658195853,"9":0.01887675759587227,"10":0.7128034695376685,"11":0.04734242944520462,"12":0.16946080917659576,"13":-0.04540859418032425,"14":0.08991698832812861,"15":0.09191916361469156,"16":-0.011045265077866875,"17":0.057471457688419526,"18":-0.001259101762751141,"19":-0.011149952604516667,"20":-0.0512735961529387,"21":0.03113373644208468,"22":-0.07283817702469803,"23":0.029786984707906094,"24":0.03956886397641914,"25":0.09516128090531817,"26":0.06041590824906328,"27":0.08281669450832707,"28":0.010379959796275616,"29":-0.0248728018368742,"30":0.045074969459738067,"31":0.012061491310798913,"32":0.0052842680884776045,"33":0.16029049151675612,"34":-0.18966107954131195,"35":-0.0881790925917039,"36":-0.030246231899675163,"37":0.02593361092684239,"38":0.05807836167622402,"39":0.03714689501141932,"40":-0.0377001328203904,"41":-0.005373103102563798,"42":-0.1055044960329462,"43":-0.00953165254701806,"44":0.03150535555061372,"45":0.07693574482022456,"46":0.015190645155183665,"47":-0.045901746262716134,"48":0.16913777735203647,"49":-0.05649971027464552,"50":0.00529030783370227,"51":-0.10068770023921883,"52":-0.13797315139755967,"53":-0.04776962459926536,"54":0.02256004265811977,"55":0.029931597297563776,"56":-0.12045543558688304,"57":0.0016905753486404346,"58":-0.005654213240925371,"59":-0.06911394076844912,"60":-0.1404129408069373,"61":0.03162769955240815,"62":-0.07904781103430576,"63":-0.1361802029044898,"64":0.026149117615298537,"65":0.06115809766491562,"66":-0.13779549296293328,"67":-0.009528724979637285,"68":0.04188829658118909,"69":0.08003008135587353,"70":0.06990305994252628,"71":0.010970903453977677,"72":0.15032386460528066,"73":0.3216457767981679,"74":0.08719907134109302,"75":0.0680708520173288,"76":-0.04281952082873704,"77":0.0734280452370722,"78":0.033012285497617005,"79":-0.08934813755254768,"80":0.16416548799726338,"81":-0.033193576962474276,"82":-0.016802969992741428,"83":-0.03967405875985881,"84":-0.1639587054299662,"85":0.044831125427586827,"86":0.049336330002001466,"87":-0.012166347287375971,"88":0.001479285023843508,"89":-0.023575585375993822,"90":-0.10020777094938797,"91":0.011302226665249465,"92":-0.05521581136631373,"93":-0.004136465920640866,"94":0.10654895403452344,"95":-0.03594513564708809,"96":0.05763838092635666,"97":-0.10367361394539854,"98":-0.0747680256643833,"99":-0.04490369449123759,"100":0.03281713220405468,"101":0.027332040812501877,"102":0.15227954972888222,"103":0.0015264914360307539,"104":-0.1015201067772313,"105":-0.02115678673104285,"106":0.019659244774062497,"107":-0.023553331808307713,"108":-0.01961959465929701,"109":-0.08137393661869621,"110":0.0029880721364584054,"111":-0.02989840746935179,"112":0.08530972876419551,"113":0.05530449420827727,"114":0.06584645051869371,"115":-0.025755727369115074,"116":0.05872200029139909,"117":-0.0015344836193377177,"118":0.067388674658719,"119":-0.04209059188495354,"120":-0.04518271224990256,"121":0.010334749859599986,"122":-0.032610996931807724,"123":0.11059587886088897,"124":0.061164657454512376,"125":-0.09812236234368533,"126":-0.11546577312619849,"127":-0.15676017005511256,"128":-0.037077116697474856,"129":0.0008497845419754904,"130":0.022738248774263715,"131":-0.15667105843318982,"132":-0.0771225936713869,"133":-0.02334343267072333,"134":0.05342317919703386,"135":0.10254188810536989,"136":0.0740058099266159,"137":-0.15717510335981477,"138":0.03397933306143339,"139":-0.059283832319665844,"140":-0.04801892408301025,"141":0.05774029238130829,"142":0.07317907096861367,"143":0.005572001061709806,"144":-0.008035679005220387}},{"sx":1,"sy":1,"depth":145,"w":{"0":0.059201307841444326,"1":0.12032060805149296,"2":-0.0920367535053809,"3":-0.06030343822015505,"4":-0.1303041726793647,"5":-0.09202672598591587,"6":-0.06601917707428348,"7":0.09639508036547148,"8":0.020729416789260893,"9":-0.08150507591025302,"10":-0.0018952000681156202,"11":-0.02837531773584069,"12":0.03228917765907471,"13":0.008383178304308889,"14":0.053103791302671406,"15":-0.020603313771689554,"16":0.0034335097681986193,"17":-0.004463754680358196,"18":-0.008291200229272579,"19":0.12895317762459874,"20":-0.000587438538370546,"21":0.04667473940088548,"22":0.10797633811150838,"23":0.13132563071710607,"24":0.03441823742203273,"25":-0.06403493893901194,"26":-0.019160105217202402,"27":0.17485680366014253,"28":0.21641881188753181,"29":-0.0902157436725188,"30":-0.13370598971752864,"31":0.24680180331764798,"32":-0.059027739688671095,"33":0.018724781288352053,"34":0.010377979005994324,"35":-0.049437588399212494,"36":0.1098941373523674,"37":-0.03920479390623035,"38":-0.07575033957725637,"39":-0.059995722395851644,"40":-0.07641180781528771,"41":-0.039939661984223225,"42":-0.13241333838680525,"43":-0.03623410539933201,"44":0.02917981740788995,"45":0.03501147432345372,"46":-0.11859608821208331,"47":-0.08413763972677829,"48":-0.03281286079451226,"49":0.0346035782087001,"50":-0.09335576009246138,"51":0.0490039732373677,"52":0.005429949851755602,"53":-0.0323263379694976,"54":0.04039427450741587,"55":-0.16251035240896847,"56":-0.2029166428760771,"57":-0.01717039190804272,"58":0.0728142620592085,"59":-0.14466111834612458,"60":-0.008018891163002825,"61":-0.04715773880274785,"62":-0.14053211941525454,"63":0.011311474344024654,"64":0.00026724124427253274,"65":-0.014500895188677294,"66":-0.06856647551210326,"67":-0.06686878678429581,"68":-0.07924822662636741,"69":-0.0071149037602823775,"70":-0.004195050125029464,"71":0.018042232415048823,"72":0.013626085111775538,"73":-0.10622453280095401,"74":0.06695488913183206,"75":-0.013197512160886007,"76":-0.049418625347956185,"77":-0.17335990337412135,"78":0.0976590499461705,"79":-0.20090750067274393,"80":0.008642410082492766,"81":0.030355862273557275,"82":0.11937263241174273,"83":-0.04086317642814067,"84":-0.08357337335069738,"85":0.10593699434643013,"86":-0.09154326688743793,"87":-0.007267719956677499,"88":0.18044545807285509,"89":0.1018418850487376,"90":0.006319221217427158,"91":-0.15571882176904622,"92":0.07987454301869461,"93":0.07439527372435674,"94":-0.09622650741985812,"95":0.13933210061096235,"96":0.08314116251873885,"97":0.14044752560248333,"98":-0.018603325062976052,"99":0.01633545592890088,"100":-0.056191022739566755,"101":0.10823731251929614,"102":-0.030602285379338085,"103":0.011158838904628246,"104":-0.13130049648011774,"105":-0.005140860220198381,"106":-0.09633188765811355,"107":0.0994490411526283,"108":-0.010717919005863209,"109":-0.14318592161365848,"110":0.054878567581417105,"111":-0.021324892690727994,"112":-0.017694772179626093,"113":0.033128778705635964,"114":0.05201496914889972,"115":-0.08384865380550288,"116":-0.09800214557784602,"117":0.11349419305095865,"118":-0.07458525845855912,"119":-0.18742193658600848,"120":-0.004795494572997508,"121":0.17943146558834583,"122":0.03245016728012314,"123":0.06691438537316083,"124":-0.10523202582724986,"125":-0.054682883883970336,"126":-0.062139507541758544,"127":-0.06738944821624916,"128":-0.0939032247763781,"129":0.013098063236534624,"130":0.024952382039146397,"131":-0.05465956796703067,"132":-0.17363588990750953,"133":-0.15499050157048652,"134":0.1065076022849136,"135":-0.11740463701790606,"136":-0.12470827956063545,"137":-0.05287924165248139,"138":-0.0350895070529946,"139":-0.015357699533890488,"140":-0.028317267213255264,"141":0.0050905598909004885,"142":-0.09395474129485494,"143":-0.03663673094277231,"144":-0.052444182279759444}},{"sx":1,"sy":1,"depth":145,"w":{"0":0.0783582687035993,"1":-0.058412945723607314,"2":-0.03556880927196683,"3":0.04567929909819879,"4":-0.04082548307048614,"5":-0.0014553651267444135,"6":0.12173425003297922,"7":0.028692532263947745,"8":-0.06221940043175645,"9":-0.016166985180645906,"10":-0.0030468540700201935,"11":0.04118141002373892,"12":0.052308856643189135,"13":-0.03426851449024852,"14":0.06958482453183938,"15":-0.09061551339346287,"16":0.09056722697460075,"17":-0.013158948538643274,"18":0.02057213097341671,"19":-0.1265692745578615,"20":-0.036513731397539724,"21":0.019637581764025608,"22":-0.10805481309794845,"23":0.14985419337837505,"24":0.06358167760241053,"25":0.09643866258045926,"26":-0.1797078243952407,"27":-0.07445792269862583,"28":-0.033112299372303804,"29":0.05697938758382903,"30":-0.03742708739046045,"31":0.02272098833160567,"32":0.05406221582556847,"33":-0.06049854433499646,"34":0.025355137745668867,"35":-0.007252427688604088,"36":0.03734393615406191,"37":-0.215085121004904,"38":-0.10472349677183293,"39":-0.060063666905088846,"40":0.02236999464533606,"41":-0.01775182199720427,"42":0.052931224057622114,"43":0.0035605793634068566,"44":0.010894786039888204,"45":-0.0713942664340155,"46":0.059146265436679786,"47":-0.014904924073626065,"48":0.03567742575272661,"49":0.006877161417460287,"50":-0.03323398705012597,"51":0.03675724506709535,"52":0.07276634888079338,"53":-0.05304881038135375,"54":0.0514413511958745,"55":0.058652185727102096,"56":-0.04928677696100068,"57":-0.00009785673757022867,"58":0.09759337680873705,"59":-0.018670551211620156,"60":-0.07757938885381306,"61":-0.0806752942140393,"62":0.14471329409413444,"63":0.012238875415678559,"64":0.020449560486689406,"65":0.010584849977915216,"66":-0.04410844091878549,"67":0.04308939525432157,"68":-0.06578742808305706,"69":0.09618852537685002,"70":-0.10490823580466489,"71":-0.05451414711716457,"72":0.015363562066218776,"73":0.11997492663604564,"74":-0.06348823201158697,"75":0.14604522089475114,"76":-0.021285472803565762,"77":-0.03244670875635609,"78":-0.07977352976841807,"79":-0.003742859524967757,"80":0.19063450310869956,"81":0.050116428595185884,"82":0.03555418797851443,"83":-0.039519956998171964,"84":0.2621116383595541,"85":0.13851660101840263,"86":-0.03519944256762442,"87":-0.012033878332931234,"88":0.09894715009681833,"89":-0.07370419882211188,"90":0.029638432565674624,"91":-0.015240650659202732,"92":-0.14008222716363625,"93":-0.1107486534403868,"94":-0.022226576125139758,"95":-0.03354379093944174,"96":-0.10905912136352951,"97":0.019814288994298792,"98":0.06642607538312942,"99":-0.005741980494865966,"100":0.001161363237438452,"101":0.0848067192814115,"102":0.03531105735317197,"103":0.05320800892440144,"104":0.04651106176122554,"105":-0.04652529918531302,"106":0.18104583488106507,"107":-0.0161514263749735,"108":0.17352988441929876,"109":-0.06705728613401016,"110":-0.10104358483894181,"111":0.012068295766663644,"112":-0.09490609929923163,"113":0.06924672689692199,"114":-0.01184085525281906,"115":-0.058428146645379216,"116":0.012467389484236601,"117":0.077446806076231,"118":0.10761656031054594,"119":0.09078812895831095,"120":0.039896887624829826,"121":0.07801404215084702,"122":0.13808319448097223,"123":-0.008891018070903254,"124":-0.08486424595720754,"125":-0.029665936846699034,"126":0.0692019847467855,"127":-0.08481435318242919,"128":-0.13711627582370636,"129":0.03418252054054826,"130":0.0015082515238919367,"131":0.13412853064841096,"132":-0.05203604341298955,"133":0.022753392948512398,"134":0.09541279783771545,"135":0.0012869532562203008,"136":-0.10574925969164083,"137":0.018298312193054483,"138":-0.08998738837584806,"139":0.20031761804111048,"140":-0.016702289548243838,"141":0.05435453168464085,"142":-0.10948763823868658,"143":0.06463433458005706,"144":-0.049643164403079774}},{"sx":1,"sy":1,"depth":145,"w":{"0":0.026490633954764007,"1":-0.1729204857701598,"2":-0.045468828299873885,"3":0.24133844310543257,"4":-0.01622699474502584,"5":-0.09300980854951332,"6":0.10483307293327257,"7":-0.07737471472449531,"8":-0.0143341868530682,"9":0.17855537938946486,"10":0.21844987786135395,"11":0.016431830564305524,"12":0.1479635828627182,"13":0.029688520699865415,"14":0.018776769671755473,"15":0.02843858854549611,"16":0.14037865700920832,"17":-0.001284077693391794,"18":0.09375333642460344,"19":-0.09089268593266148,"20":0.0019039604000137308,"21":-0.09007572431982554,"22":0.02635751323354757,"23":-0.10360913663947333,"24":0.12652333796558332,"25":0.07299078087898792,"26":0.005132765677826742,"27":0.0023509424508679788,"28":-0.017436996794692985,"29":0.04467914676074389,"30":0.11386947290025251,"31":0.04714093953676602,"32":-0.011723830498459532,"33":0.12195699647616351,"34":-0.04458588600434089,"35":-0.01743214944815993,"36":0.056642283125466465,"37":0.013888774983933679,"38":0.08080012418758316,"39":0.03010478935424126,"40":-0.018667952837231994,"41":-0.03896998127037538,"42":-0.04640748083608673,"43":0.09694516337721275,"44":-0.05533243409001508,"45":0.01020142140399356,"46":-0.09291108245540355,"47":-0.14688458527292744,"48":0.03849811607164108,"49":-0.028106410853954423,"50":0.05916278633291534,"51":0.015099973124273431,"52":-0.06039603984205606,"53":-0.061967210791199996,"54":0.003015534635247879,"55":-0.03618833605035474,"56":0.040292214496041444,"57":-0.039342075831832975,"58":-0.03548127547677853,"59":-0.013046541618642996,"60":0.16713625329388618,"61":-0.10347437847321293,"62":-0.013343296112474064,"63":-0.14630673589236592,"64":-0.029107952006217526,"65":0.0696642285871888,"66":-0.09574770042968372,"67":0.10984716945877032,"68":0.031443539193406915,"69":-0.02712523636326995,"70":0.03888236856378568,"71":-0.029430217101361098,"72":-0.05511208567754272,"73":0.08877671471299989,"74":0.07795288367544377,"75":0.059403743652155734,"76":-0.07785671333412653,"77":0.04824512609322689,"78":-0.17095498602750459,"79":0.06618028515443516,"80":0.037934720627408935,"81":0.15327306799336135,"82":0.029495238685527062,"83":0.11764014217953445,"84":-0.017264268761052203,"85":0.007784427552759053,"86":-0.011595041815535119,"87":0.022756153081347666,"88":0.009091019531664189,"89":0.10192775364147334,"90":-0.1459187081738636,"91":0.000715332123920208,"92":0.07325582519953175,"93":-0.05448132943448012,"94":-0.004432515056925671,"95":-0.09976751014355686,"96":0.026474753564399472,"97":0.033901229244069464,"98":-0.07487113370868724,"99":0.18629476446485024,"100":-0.006470152650036923,"101":0.019420512006779474,"102":-0.004910453019979043,"103":0.02558125707438666,"104":0.01754209564387055,"105":-0.06745178213998806,"106":0.061159775663685724,"107":0.18173131982877636,"108":-0.028615532232827378,"109":0.059388460765349704,"110":0.028205060336382676,"111":0.17117089961741608,"112":0.02199711976130155,"113":0.09314168735997079,"114":-0.08825633085948766,"115":-0.006762800957885037,"116":-0.09032325358318052,"117":0.045796959847736206,"118":-0.016628046932645555,"119":0.034942494255671884,"120":-0.0274146637358026,"121":0.10325089248067802,"122":-0.007563130820360348,"123":0.020267335106354218,"124":0.022793629816957466,"125":0.007036584766880996,"126":0.03380669273884473,"127":0.038677235180384656,"128":-0.11347937214561132,"129":0.00732981158449097,"130":0.05094196939059604,"131":0.10637523098047544,"132":0.06163075011193265,"133":-0.10357319810312957,"134":-0.06487503723664229,"135":0.19163802326150528,"136":-0.05351258565142724,"137":-0.16947889439513197,"138":-0.22324445971403872,"139":-0.15978176602151112,"140":-0.16776858042249204,"141":-0.0060913412517428454,"142":-0.039275472534899915,"143":0.01553947316513271,"144":0.038091799900609}},{"sx":1,"sy":1,"depth":145,"w":{"0":-0.14804121228478406,"1":0.16874328354694898,"2":0.16406146528111284,"3":0.30122013631519795,"4":0.27580571371863105,"5":0.10393338916610452,"6":-0.03968173781956618,"7":-0.021030692660859805,"8":-0.11322158453452809,"9":-0.061311773740500335,"10":0.13842793678557383,"11":-0.03896589144099325,"12":-0.04947360297468683,"13":-0.008326803259250354,"14":0.029837249814839515,"15":0.0630946165654846,"16":0.10056068651409353,"17":-0.22149710153140964,"18":0.01401988295234779,"19":0.0030420503265667204,"20":0.07805759649301974,"21":-0.07097635191209964,"22":-0.09538126065839514,"23":0.1060691380434443,"24":0.035656651800024114,"25":0.10151177768954285,"26":-0.003020700049029721,"27":0.05315892817893278,"28":0.1852219586516739,"29":-0.040947938941369375,"30":-0.05559392688480887,"31":0.12034591655283783,"32":-0.05614838716618451,"33":-0.017454043558650656,"34":0.004336751495738963,"35":0.052260178599023044,"36":-0.020969737556236198,"37":0.03681795599406451,"38":0.07265319242486531,"39":0.08727889259458001,"40":-0.05999236372505597,"41":0.11717709126989088,"42":-0.06562557973806274,"43":0.09889933231439758,"44":-0.03922556577778081,"45":0.02524774778836807,"46":0.05945628870162155,"47":0.06650670386318529,"48":-0.027939777981442624,"49":0.18327337620100628,"50":-0.07259505720744312,"51":-0.009662005211570802,"52":-0.06263839079914027,"53":-0.10511824683009131,"54":0.12256888038013922,"55":0.017756002282960086,"56":0.06725978780762552,"57":0.03170628065157854,"58":0.07291539564206358,"59":-0.1618920768056123,"60":-0.0537646723078253,"61":0.05027307964112849,"62":-0.08575038610277182,"63":0.12415734736374946,"64":0.14469822302969654,"65":0.21148908783251627,"66":-0.2058523587687789,"67":0.013187774406055631,"68":0.04356039471453137,"69":0.06491668996164131,"70":-0.02943812776899111,"71":-0.021004951455264025,"72":0.11945927648125776,"73":0.22122521680347068,"74":0.06942222736993695,"75":0.05946133151056922,"76":0.09461924360709895,"77":-0.030638283416206162,"78":0.10794588066869643,"79":-0.10093416536317969,"80":0.07550019155666328,"81":0.06948781569608015,"82":-0.02236781910689047,"83":-0.06645752601512908,"84":0.12193727291728367,"85":-0.09190500355945033,"86":-0.07530768903867492,"87":0.0007620150113168084,"88":0.1217361422914449,"89":-0.028072906160595015,"90":0.13168142147664383,"91":-0.001200668313760916,"92":0.08265323044685047,"93":0.1050515089731044,"94":-0.012203325205008638,"95":0.13427979284281796,"96":-0.033685197421278366,"97":0.01068995376162448,"98":-0.02614674329492162,"99":0.08958576391494932,"100":-0.012325356938830197,"101":0.06743141352728227,"102":0.02882792628166846,"103":-0.054531432425503006,"104":-0.0209058220112042,"105":0.06490352504292711,"106":0.014052905053000683,"107":0.04421084155697291,"108":-0.2088928066245398,"109":-0.027103809321887194,"110":0.08758955310986001,"111":0.2682232390086789,"112":0.010524977033623407,"113":0.0159579885012526,"114":0.05378589419632382,"115":-0.052016955760105635,"116":-0.01807343780554925,"117":-0.013507269748040266,"118":-0.060813310992602856,"119":0.10408807909453648,"120":0.09389581776376478,"121":0.11066860508351942,"122":0.11944029258775057,"123":0.1137806940025594,"124":0.015677737285655507,"125":-0.016912802222554604,"126":-0.10702691007925316,"127":0.07781418460269922,"128":-0.06428618699803758,"129":0.13466480274502368,"130":0.10947793380499442,"131":0.18655960184007572,"132":0.1260988497856069,"133":-0.015514979689153772,"134":-0.02191414425553315,"135":0.158357061767799,"136":-0.03941662951647144,"137":-0.0512032176013063,"138":0.017801668026328134,"139":-0.08827844987633314,"140":0.0361966662232805,"141":-0.05509462149525359,"142":-0.005218517022739407,"143":-0.1001867859900273,"144":-0.01773011441225077}},{"sx":1,"sy":1,"depth":145,"w":{"0":0.054066657755724536,"1":0.10038522939990258,"2":-0.16006494515533817,"3":-0.03538904054848422,"4":-0.0003586493874657442,"5":-0.05384517466246495,"6":0.13765978371286278,"7":-0.08323717804037545,"8":0.019159221667849044,"9":0.1570715573043832,"10":0.03591857552158013,"11":-0.010470096359550084,"12":0.029065429391859014,"13":0.03125495597290193,"14":-0.07193797708951837,"15":0.06948236569704727,"16":0.04477537257025655,"17":0.13398045298834138,"18":-0.13293131011698997,"19":0.053947143244141176,"20":0.06859036587890593,"21":0.009975843448075748,"22":0.13936770175619068,"23":-0.13146314912736798,"24":0.008485722919271663,"25":0.08589299398578328,"26":0.028090430645776692,"27":0.08477582315133908,"28":-0.0972711939778801,"29":0.10548226901557452,"30":-0.13036239865927687,"31":-0.03737458563772163,"32":-0.09671097283956401,"33":-0.06201542530455075,"34":-0.01737211752951354,"35":-0.018549037123378454,"36":0.11709855956337543,"37":-0.015658606356199704,"38":-0.05154946485833316,"39":0.0857344142383328,"40":-0.11702120150143999,"41":-0.10763558162647834,"42":0.06848781917893135,"43":0.08061842405279886,"44":-0.08172439081863796,"45":0.1622556016227763,"46":-0.03516486480458939,"47":-0.007129665433126878,"48":-0.07834217928041222,"49":0.159684989863397,"50":0.09381554869060235,"51":0.024237599423295668,"52":-0.027693600380645843,"53":0.051892561081580385,"54":-0.02260195957329747,"55":0.06410672844829457,"56":0.028880016115352285,"57":0.01456337162847368,"58":0.03545905661027715,"59":0.08089761740234218,"60":0.02882116204915198,"61":-0.07210011659091883,"62":0.15924956099834073,"63":-0.039059864110059454,"64":-0.012957424900318176,"65":0.048412976694493216,"66":-0.12068586917262267,"67":0.0436763015192969,"68":0.00618387200241896,"69":0.14485351324067736,"70":0.04624994190543637,"71":-0.07000172643293225,"72":-0.050927761508913275,"73":0.027600044114592562,"74":0.014723224523943012,"75":-0.01861233565320074,"76":-0.15293145435531383,"77":-0.12265169827087412,"78":0.09770861451370759,"79":-0.08887525074925949,"80":-0.018524934538323823,"81":-0.07255736417651401,"82":0.04872287004949516,"83":0.006266097468096904,"84":-0.03643880047575198,"85":0.018671633320117162,"86":0.023614329001733637,"87":-0.041829522071835594,"88":0.04385198658655681,"89":-0.049898476577330306,"90":-0.15818001016470462,"91":-0.022564833201163266,"92":0.08721390314314466,"93":0.07414752722074607,"94":0.20716788439044898,"95":0.08251498576615653,"96":0.08990594120851671,"97":-0.004730888281480234,"98":-0.06462268532206188,"99":0.04823362169420364,"100":-0.1312108801283644,"101":-0.09597006247691377,"102":-0.08482959878188898,"103":-0.006961162572385731,"104":0.024133898613750888,"105":-0.045269786776218034,"106":-0.11023112117474079,"107":-0.07099578031789512,"108":-0.10828710503018979,"109":-0.028658622740113177,"110":0.05354162453071099,"111":0.06651333873752485,"112":0.13489630656098722,"113":-0.013137175935183059,"114":0.02587828999037592,"115":-0.0033468767730694847,"116":0.0912789759842856,"117":-0.04811995689501168,"118":-0.012794660443605702,"119":-0.05689450988353237,"120":-0.24888194044528109,"121":-0.14239564913410693,"122":0.08672663762118239,"123":0.028954565097752998,"124":0.054639447831146694,"125":0.08483436468333984,"126":-0.034565944910142275,"127":-0.06907327259495563,"128":-0.012527808946040466,"129":-0.11200307732046764,"130":0.01736434200140719,"131":-0.04362428997179563,"132":0.0003167305208695547,"133":-0.006684288660075521,"134":-0.0031122637616998977,"135":0.09956323264761031,"136":-0.08396011266548517,"137":-0.01409853053908234,"138":-0.08092767378642712,"139":0.02478065247633521,"140":-0.048573338782758185,"141":-0.07283728058364838,"142":0.05277614983250351,"143":-0.024174567417267052,"144":-0.20919244433800985}},{"sx":1,"sy":1,"depth":145,"w":{"0":0.03007057881961548,"1":-0.06681627014620987,"2":0.283089926771054,"3":0.4357131207044222,"4":0.02599856462966718,"5":0.005723210561710223,"6":0.023235827900557587,"7":-0.0172421171113346,"8":0.01454582394811622,"9":0.19281731441563782,"10":0.5705088224895225,"11":0.06961031186294944,"12":-0.0867489735689004,"13":-0.04743183336725867,"14":0.07253472592104261,"15":-0.059002901698522785,"16":0.02896963942249163,"17":0.02841160490277923,"18":0.037137626980665514,"19":-0.023715374519172057,"20":0.06260135201038039,"21":0.02790715880667084,"22":-0.03096948940883824,"23":-0.07627432328002087,"24":0.001267077589150813,"25":-0.032967866483481434,"26":0.09440528770778717,"27":0.177424130638885,"28":0.04565883683128213,"29":0.06201770840689591,"30":0.17460889452114858,"31":0.005798166267877367,"32":0.18464378811797694,"33":0.12592826610412008,"34":-0.039079245415046635,"35":0.06174872978850184,"36":-0.04240776484028225,"37":0.1584170957112345,"38":-0.07926341336329078,"39":0.10421133666351416,"40":0.03247155419032754,"41":-0.009755222353075372,"42":0.00323155869321737,"43":0.0017762987975874036,"44":0.13326325912780967,"45":0.014928303896039764,"46":-0.024502762675271565,"47":-0.13873516977122713,"48":-0.037574733114241685,"49":-0.11196844122922027,"50":0.02638685558597383,"51":0.12449155703257694,"52":-0.012248372502112878,"53":0.05811848298846801,"54":0.08695545063587731,"55":-0.06422891713769169,"56":-0.04205109334158126,"57":0.067021774560303,"58":-0.060102931220724784,"59":0.11856182608749569,"60":0.046043196295872266,"61":-0.04586836513689269,"62":-0.11093314158592082,"63":0.030225184836321424,"64":0.02240095901578173,"65":0.09482306746753555,"66":-0.12816811544578632,"67":-0.06747748238408065,"68":-0.12389033724752113,"69":-0.005073298708438726,"70":0.06462491005529714,"71":0.08749535686983402,"72":0.06467615763169664,"73":0.18013101238198548,"74":-0.03228669724593283,"75":0.10067265240416935,"76":-0.03880775518416162,"77":0.002928865732077261,"78":0.12891065477364608,"79":-0.0849756935187913,"80":0.12321573478841251,"81":-0.008769607629339975,"82":0.08143877623394472,"83":0.03773057904538032,"84":0.04079393516764798,"85":0.10593700617860626,"86":-0.059382098412507654,"87":-0.03311188980432279,"88":0.03710910020050494,"89":-0.015301542174183837,"90":-0.18739020786812083,"91":0.014647529983571004,"92":-0.003711090741389543,"93":0.18085812430740617,"94":0.019611302800203484,"95":-0.05394227878102789,"96":-0.06615691376779705,"97":0.0007545801967204676,"98":0.012505534641419647,"99":-0.015005742597250704,"100":0.14393838655953592,"101":0.13960830665717788,"102":-0.12424093317778974,"103":0.025215349488802268,"104":0.1251107581018075,"105":-0.04148202247243085,"106":0.019885714320761846,"107":0.0918377467659719,"108":0.0672320834334206,"109":-0.03164534389393916,"110":-0.01226538580647944,"111":-0.06794375722956099,"112":0.13171012677474436,"113":-0.04050674550433282,"114":-0.0853337998751798,"115":0.02138080913753893,"116":-0.09145808541152822,"117":-0.09137653900553194,"118":-0.02929763606157766,"119":-0.0015345125170490462,"120":0.01010052662502645,"121":-0.015577758977804132,"122":0.10548517877546595,"123":0.044321996921527634,"124":-0.04133528494416921,"125":-0.06393031886884794,"126":0.09021562226891656,"127":0.056459372196061064,"128":-0.05538391914508835,"129":-0.09042268139126543,"130":0.10822575456009625,"131":-0.037966002025688686,"132":-0.05780937963847203,"133":0.08097875062761796,"134":0.013023636374077057,"135":-0.036177983892647314,"136":-0.08263085512967001,"137":0.005985924738242748,"138":0.0037712828166817053,"139":0.173797226214514,"140":0.050518960478748695,"141":0.03738099006025873,"142":-0.045354786163206685,"143":0.07192825190370321,"144":-0.0013380884450600987}},{"sx":1,"sy":1,"depth":145,"w":{"0":0.054075819990177326,"1":0.03281984516138603,"2":-0.05183135493608824,"3":0.0964194944717957,"4":0.13704471893329812,"5":0.03700590151449953,"6":0.11528034908989812,"7":0.04183983012030214,"8":-0.09827405437091179,"9":0.002823440273816294,"10":0.10002895383267223,"11":-0.008634116308540126,"12":0.05261849879799974,"13":-0.06296419219053716,"14":0.0021140386603303316,"15":0.031577430255245335,"16":-0.05690519274925742,"17":-0.04484873369698798,"18":-0.034458998242135996,"19":0.0886616058120163,"20":0.05754634070021941,"21":-0.14409305675506676,"22":0.09385011895052248,"23":-0.0992576216790597,"24":0.09718803639990899,"25":0.08793767506825201,"26":0.048321737088765505,"27":-0.10873863493280962,"28":0.0987015634430409,"29":0.00993855716724082,"30":-0.038849110033142155,"31":-0.0657343885338456,"32":0.06650295625482307,"33":-0.1170456755000204,"34":0.06092013817426569,"35":-0.07973439705422511,"36":0.04724672641076156,"37":-0.07214404239165417,"38":-0.10300272646768026,"39":-0.13917815537259845,"40":0.026712909316064917,"41":-0.14509916626784455,"42":0.033896156253867334,"43":-0.03681700764027866,"44":-0.03803561214148786,"45":-0.10902994052135467,"46":-0.07868982972944213,"47":0.024825373366013585,"48":-0.001102487836410386,"49":0.14108025021668114,"50":-0.011125506275166902,"51":-0.090538852408644,"52":-0.0285884821464514,"53":-0.04804581371226952,"54":-0.03225199769595569,"55":0.10453184936163569,"56":-0.006068947865301409,"57":0.0452732632954292,"58":0.015164333396100928,"59":-0.021192508728564752,"60":0.06991562727138596,"61":0.13163677835559548,"62":-0.06734267507947223,"63":-0.007932983001126492,"64":0.027983800030603512,"65":0.03098301781463223,"66":0.0101663048011552,"67":-0.003515010271831378,"68":-0.05861421080637279,"69":-0.1319174921704009,"70":0.03583737624158615,"71":-0.13418760508736435,"72":0.11629562872142805,"73":-0.08700112411541766,"74":0.06483393723514087,"75":0.10744270732997509,"76":0.019131220805697447,"77":0.07200578355031653,"78":-0.041082330615608204,"79":-0.11828260564151594,"80":-0.003073245846912692,"81":0.03152457562271409,"82":-0.0604436114296089,"83":-0.16184068264035076,"84":0.04775257157639879,"85":0.035025358334945356,"86":0.047774188650008216,"87":-0.05057439978551515,"88":-0.06875182282040923,"89":0.0036504708341337047,"90":0.06605504282039433,"91":0.023532502088475477,"92":0.018153777767761926,"93":-0.01250732459792045,"94":-0.05879229869120342,"95":0.07739388222218853,"96":-0.0687727848374251,"97":0.061331807971572866,"98":0.1965860534800044,"99":-0.08526149177888542,"100":-0.0098857438090716,"101":0.05938307539827914,"102":-0.09706639290975677,"103":0.046325617757550196,"104":0.005567625711738692,"105":-0.1833188131675875,"106":-0.01640387434847199,"107":-0.015248663555139295,"108":0.05972876054228718,"109":0.08255851190449286,"110":-0.055733223741552575,"111":-0.01120098477271042,"112":0.01172626499265949,"113":0.05595683053929001,"114":0.022907960651616658,"115":0.0344775918214484,"116":-0.027374523728245427,"117":0.05237060279254611,"118":0.022785850973642455,"119":0.0053140014687475985,"120":-0.008190689095359218,"121":-0.05063700090397353,